{"learner":{"attributes":{"best_iteration":"999","best_ntree_limit":"1000","scikit_learn":"{\"n_estimators\": 1000, \"objective\": \"reg:squarederror\", \"max_depth\": 10, \"learning_rate\": 0.1, \"verbosity\": null, \"booster\": null, \"tree_method\": null, \"gamma\": null, \"min_child_weight\": null, \"max_delta_step\": null, \"subsample\": 0.7999999999999999, \"colsample_bytree\": 0.8999999999999999, \"colsample_bylevel\": 0.5, \"colsample_bynode\": null, \"reg_alpha\": null, \"reg_lambda\": null, \"scale_pos_weight\": null, \"base_score\": null, \"missing\": NaN, \"num_parallel_tree\": null, \"random_state\": null, \"n_jobs\": null, \"monotone_constraints\": null, \"interaction_constraints\": null, \"importance_type\": null, \"gpu_id\": null, \"validate_parameters\": null, \"predictor\": null, \"enable_categorical\": false, \"kwargs\": {\"seed\": 20}, \"_estimator_type\": \"regressor\"}"},"feature_names":[],"feature_types":[],"gradient_booster":{"model":{"gbtree_model_param":{"num_trees":"1000","size_leaf_vector":"0"},"tree_info":[0,0,0,0,0,0,0,0,0,0,0,0,0,0,0,0,0,0,0,0,0,0,0,0,0,0,0,0,0,0,0,0,0,0,0,0,0,0,0,0,0,0,0,0,0,0,0,0,0,0,0,0,0,0,0,0,0,0,0,0,0,0,0,0,0,0,0,0,0,0,0,0,0,0,0,0,0,0,0,0,0,0,0,0,0,0,0,0,0,0,0,0,0,0,0,0,0,0,0,0,0,0,0,0,0,0,0,0,0,0,0,0,0,0,0,0,0,0,0,0,0,0,0,0,0,0,0,0,0,0,0,0,0,0,0,0,0,0,0,0,0,0,0,0,0,0,0,0,0,0,0,0,0,0,0,0,0,0,0,0,0,0,0,0,0,0,0,0,0,0,0,0,0,0,0,0,0,0,0,0,0,0,0,0,0,0,0,0,0,0,0,0,0,0,0,0,0,0,0,0,0,0,0,0,0,0,0,0,0,0,0,0,0,0,0,0,0,0,0,0,0,0,0,0,0,0,0,0,0,0,0,0,0,0,0,0,0,0,0,0,0,0,0,0,0,0,0,0,0,0,0,0,0,0,0,0,0,0,0,0,0,0,0,0,0,0,0,0,0,0,0,0,0,0,0,0,0,0,0,0,0,0,0,0,0,0,0,0,0,0,0,0,0,0,0,0,0,0,0,0,0,0,0,0,0,0,0,0,0,0,0,0,0,0,0,0,0,0,0,0,0,0,0,0,0,0,0,0,0,0,0,0,0,0,0,0,0,0,0,0,0,0,0,0,0,0,0,0,0,0,0,0,0,0,0,0,0,0,0,0,0,0,0,0,0,0,0,0,0,0,0,0,0,0,0,0,0,0,0,0,0,0,0,0,0,0,0,0,0,0,0,0,0,0,0,0,0,0,0,0,0,0,0,0,0,0,0,0,0,0,0,0,0,0,0,0,0,0,0,0,0,0,0,0,0,0,0,0,0,0,0,0,0,0,0,0,0,0,0,0,0,0,0,0,0,0,0,0,0,0,0,0,0,0,0,0,0,0,0,0,0,0,0,0,0,0,0,0,0,0,0,0,0,0,0,0,0,0,0,0,0,0,0,0,0,0,0,0,0,0,0,0,0,0,0,0,0,0,0,0,0,0,0,0,0,0,0,0,0,0,0,0,0,0,0,0,0,0,0,0,0,0,0,0,0,0,0,0,0,0,0,0,0,0,0,0,0,0,0,0,0,0,0,0,0,0,0,0,0,0,0,0,0,0,0,0,0,0,0,0,0,0,0,0,0,0,0,0,0,0,0,0,0,0,0,0,0,0,0,0,0,0,0,0,0,0,0,0,0,0,0,0,0,0,0,0,0,0,0,0,0,0,0,0,0,0,0,0,0,0,0,0,0,0,0,0,0,0,0,0,0,0,0,0,0,0,0,0,0,0,0,0,0,0,0,0,0,0,0,0,0,0,0,0,0,0,0,0,0,0,0,0,0,0,0,0,0,0,0,0,0,0,0,0,0,0,0,0,0,0,0,0,0,0,0,0,0,0,0,0,0,0,0,0,0,0,0,0,0,0,0,0,0,0,0,0,0,0,0,0,0,0,0,0,0,0,0,0,0,0,0,0,0,0,0,0,0,0,0,0,0,0,0,0,0,0,0,0,0,0,0,0,0,0,0,0,0,0,0,0,0,0,0,0,0,0,0,0,0,0,0,0,0,0,0,0,0,0,0,0,0,0,0,0,0,0,0,0,0,0,0,0,0,0,0,0,0,0,0,0,0,0,0,0,0,0,0,0,0,0,0,0,0,0,0,0,0,0,0,0,0,0,0,0,0,0,0,0,0,0,0,0,0,0,0,0,0,0,0,0,0,0,0,0,0,0,0,0,0,0,0,0,0,0,0,0,0,0,0,0,0,0,0,0,0,0,0,0,0,0,0,0,0,0,0,0,0,0,0,0,0,0,0,0,0,0,0,0,0,0,0,0,0,0,0,0,0,0,0,0,0,0,0,0,0,0,0,0,0,0,0,0,0,0,0,0,0,0,0,0,0,0,0,0,0,0,0,0,0,0,0,0,0,0,0,0,0,0,0,0,0,0,0,0,0,0,0,0,0,0,0,0,0,0,0,0,0,0,0,0,0,0,0,0,0,0,0,0,0,0,0,0,0,0,0,0,0,0,0,0,0,0,0,0,0,0,0,0,0,0,0,0,0,0,0,0,0,0,0,0,0,0,0,0,0,0,0,0,0,0,0,0,0,0,0,0,0,0,0,0],"trees":[{"base_weights":[2.5E-2,-4.861111E-1,3.0769232E-1,4.5192307E-1,-2.5E-1,-0E0,4.8958334E-1,3.75E-1,-4.5454547E-1,3.3333334E-1,-3.3333334E-1],"categories":[],"categories_nodes":[],"categories_segments":[],"categories_sizes":[],"default_left":[true,false,true,true,true,true,false,false,false,false,false],"id":0,"left_children":[1,-1,3,5,7,9,-1,-1,-1,-1,-1],"loss_changes":[1.4598291E1,0E0,5.3413463E0,8.850155E-1,1.9602273E0,6.666667E-1,0E0,0E0,0E0,0E0,0E0],"parents":[2147483647,0,0,2,2,3,3,4,4,5,5],"right_children":[2,-1,4,6,8,10,-1,-1,-1,-1,-1],"split_conditions":[-9.285279E-4,-4.8611112E-2,2.2129989E-5,1.4035177E-5,-1.2055689E-1,-4.382306E-7,4.8958335E-2,3.75E-2,-4.5454547E-2,3.3333335E-2,-3.3333335E-2],"split_indices":[1987,0,1554,1113,252,4,0,0,0,0,0],"split_type":[0,0,0,0,0,0,0,0,0,0,0],"sum_hessian":[9.9E1,3.5E1,6.4E1,5.1E1,1.3E1,4E0,4.7E1,3E0,1E1,2E0,2E0],"tree_param":{"num_deleted":"0","num_feature":"2700","num_nodes":"11","size_leaf_vector":"0"}},{"base_weights":[1.5920399E-2,-4.391892E-1,3.163335E-1,-3.8961038E-1,4.08839E-1,-3.070707E-1,4.4506586E-1],"categories":[],"categories_nodes":[],"categories_segments":[],"categories_sizes":[],"default_left":[true,false,true,false,true,false,false],"id":1,"left_children":[1,-1,3,-1,5,-1,-1],"loss_changes":[1.2717252E1,0E0,3.8162932E0,0E0,1.433425E0,0E0,0E0],"parents":[2147483647,0,0,2,2,4,4],"right_children":[2,-1,4,-1,6,-1,-1],"split_conditions":[-9.4142824E-4,-4.391892E-2,-5.958504E-3,-3.8961038E-2,1.9293751E-1,-3.070707E-2,4.4506587E-2],"split_indices":[1582,0,773,0,1430,0,0],"split_type":[0,0,0,0,0,0,0],"sum_hessian":[9.1E1,3.6E1,5.5E1,6E0,4.9E1,2E0,4.7E1],"tree_param":{"num_deleted":"0","num_feature":"2700","num_nodes":"7","size_leaf_vector":"0"}},{"base_weights":[-4.012271E-2,-3.9776832E-1,2.440516E-1,3.6401376E-1,-3.081871E-1,-1.14282556E-1,4.0179843E-1,-3.8887382E-1,2.0899668E-1,2.0326751E-1,-2.878884E-1],"categories":[],"categories_nodes":[],"categories_segments":[],"categories_sizes":[],"default_left":[true,false,true,true,true,true,false,false,false,false,false],"id":2,"left_children":[1,-1,3,5,7,9,-1,-1,-1,-1,-1],"loss_changes":[9.650643E0,0E0,3.623315E0,8.410983E-1,4.9857187E-1,2.790326E-1,0E0,0E0,0E0,0E0,0E0],"parents":[2147483647,0,0,2,2,3,3,4,4,5,5],"right_children":[2,-1,4,6,8,10,-1,-1,-1,-1,-1],"split_conditions":[-9.399102E-4,-3.9776832E-2,2.9223342E-5,-1.361184E-5,3.2255906E-5,-1.9176741E-5,4.0179845E-2,-3.888738E-2,2.0899668E-2,2.0326752E-2,-2.878884E-2],"split_indices":[1582,0,1959,323,0,4,0,0,0,0,0],"split_type":[0,0,0,0,0,0,0,0,0,0,0],"sum_hessian":[9.3E1,4.1E1,5.2E1,4.3E1,9E0,3E0,4E1,8E0,1E0,1E0,2E0],"tree_param":{"num_deleted":"0","num_feature":"2700","num_nodes":"11","size_leaf_vector":"0"}},{"base_weights":[-2.8111145E-3,2.4804987E-1,-3.1333396E-1,-3.1516555E-1,3.2836416E-1,-3.6912057E-1,3.0891883E-1,-2.6869586E-1,3.6161E-1],"categories":[],"categories_nodes":[],"categories_segments":[],"categories_sizes":[],"default_left":[true,true,true,false,true,false,false,false,false],"id":3,"left_children":[1,3,5,-1,7,-1,-1,-1,-1],"loss_changes":[7.3222427E0,2.4556704E0,1.57199E0,0E0,1.0102515E0,0E0,0E0,0E0,0E0],"parents":[2147483647,0,0,1,1,2,2,4,4],"right_children":[2,4,6,-1,8,-1,-1,-1,-1],"split_conditions":[1.9667536E-5,-9.697428E-4,-1.4655668E-1,-3.1516556E-2,4.050604E-1,-3.6912058E-2,3.0891884E-2,-2.6869586E-2,3.6161E-2],"split_indices":[1554,1582,786,0,2342,0,0,0,0],"split_type":[0,0,0,0,0,0,0,0,0],"sum_hessian":[9.2E1,5.1E1,4.1E1,6E0,4.5E1,3.8E1,3E0,2E0,4.3E1],"tree_param":{"num_deleted":"0","num_feature":"2700","num_nodes":"9","size_leaf_vector":"0"}},{"base_weights":[-3.6639138E-3,-2.6885843E-1,2.6680234E-1,1.6760343E-1,-3.188566E-1,-2.9409385E-1,3.207955E-1,2.6728034E-1,-1.6539055E-1,1.6509709E-1,-3.329664E-1,-1.7401947E-1,3.353354E-1],"categories":[],"categories_nodes":[],"categories_segments":[],"categories_sizes":[],"default_left":[true,true,true,true,true,false,true,false,false,false,false,false,false],"id":4,"left_children":[1,3,5,7,9,-1,11,-1,-1,-1,-1,-1,-1],"loss_changes":[7.3878016E0,1.1882E0,1.6388564E0,2.4335648E-1,3.7591028E-1,0E0,3.9649868E-1,0E0,0E0,0E0,0E0,0E0,0E0],"parents":[2147483647,0,0,1,1,2,2,3,3,4,4,6,6],"right_children":[2,4,6,8,10,-1,12,-1,-1,-1,-1,-1,-1],"split_conditions":[-1.5580504E-3,-2.021963E-1,-5.958504E-3,-2.8532676E-7,-8.46163E-5,-2.9409384E-2,-4.394678E-1,2.6728034E-2,-1.6539056E-2,1.650971E-2,-3.329664E-2,-1.7401947E-2,3.353354E-2],"split_indices":[1596,1405,773,11,64,0,136,0,0,0,0,0,0],"split_type":[0,0,0,0,0,0,0,0,0,0,0,0,0],"sum_hessian":[1.01E2,5.1E1,5E1,5E0,4.6E1,4E0,4.6E1,4E0,1E0,1E0,4.5E1,1E0,4.5E1],"tree_param":{"num_deleted":"0","num_feature":"2700","num_nodes":"13","size_leaf_vector":"0"}},{"base_weights":[-6.722335E-3,1.8907677E-1,-2.692157E-1,-2.7305666E-1,2.854302E-1,2.6023018E-1,-3.0303934E-1,2.9938725E-1,-1.7131892E-1],"categories":[],"categories_nodes":[],"categories_segments":[],"categories_sizes":[],"default_left":[true,true,true,false,true,false,false,false,false],"id":5,"left_children":[1,3,5,-1,7,-1,-1,-1,-1],"loss_changes":[4.933519E0,2.5269864E0,8.1307936E-1,0E0,3.445351E-1,0E0,0E0,0E0,0E0],"parents":[2147483647,0,0,1,1,2,2,4,4],"right_children":[2,4,6,-1,8,-1,-1,-1,-1],"split_conditions":[1.9667536E-5,-7.0681935E-4,-2.7365145E-6,-2.7305666E-2,-3.1414158E-6,2.602302E-2,-3.0303935E-2,2.9938726E-2,-1.7131893E-2],"split_indices":[1554,50,295,0,20,0,0,0,0],"split_type":[0,0,0,0,0,0,0,0,0],"sum_hessian":[9.4E1,5.4E1,4E1,9E0,4.5E1,2E0,3.8E1,4.4E1,1E0],"tree_param":{"num_deleted":"0","num_feature":"2700","num_nodes":"9","size_leaf_vector":"0"}},{"base_weights":[-1.7572507E-2,-2.643196E-1,1.5260701E-1,2.235047E-1,-2.8185803E-1,2.6651064E-1,-2.4265419E-1,2.812029E-1,-2.1935959E-1],"categories":[],"categories_nodes":[],"categories_segments":[],"categories_sizes":[],"default_left":[true,false,true,true,false,true,false,false,false],"id":6,"left_children":[1,-1,3,5,-1,7,-1,-1,-1],"loss_changes":[4.323449E0,0E0,1.9419538E0,1.127192E0,0E0,4.1147327E-1,0E0,0E0,0E0],"parents":[2147483647,0,0,2,2,3,3,5,5],"right_children":[2,-1,4,6,-1,8,-1,-1,-1],"split_conditions":[-9.3571655E-4,-2.6431961E-2,1.7631084E-3,5.115596E-7,-2.8185803E-2,4.1650797E-5,-2.426542E-2,2.8120292E-2,-2.193596E-2],"split_indices":[1987,0,1738,311,0,38,0,0,0],"split_type":[0,0,0,0,0,0,0,0,0],"sum_hessian":[1.01E2,4.1E1,6E1,5.2E1,8E0,4.8E1,4E0,4.7E1,1E0],"tree_param":{"num_deleted":"0","num_feature":"2700","num_nodes":"9","size_leaf_vector":"0"}},{"base_weights":[-6.3892114E-3,-2.188523E-1,1.9015947E-1,1.0221958E-1,-2.4966356E-1,2.4989669E-1,-9.1700256E-2,1.8796162E-1,-1.20374285E-1,1.9967219E-1,-2.4509875E-1],"categories":[],"categories_nodes":[],"categories_segments":[],"categories_sizes":[],"default_left":[true,true,true,true,false,false,true,false,false,false,false],"id":7,"left_children":[1,3,5,7,-1,-1,9,-1,-1,-1,-1],"loss_changes":[4.25931E0,5.102594E-1,9.1530406E-1,1.1805402E-1,0E0,0E0,4.9590036E-1,0E0,0E0,0E0,0E0],"parents":[2147483647,0,0,1,1,2,2,3,3,6,6],"right_children":[2,4,6,8,-1,-1,10,-1,-1,-1,-1],"split_conditions":[-1.5454318E-3,-6.746943E-5,1.722621E-1,-8.53967E-5,-2.4966357E-2,2.498967E-2,-2.5541969E-5,1.8796163E-2,-1.2037429E-2,1.9967219E-2,-2.4509875E-2],"split_indices":[1596,110,744,3,0,0,7,0,0,0,0],"split_type":[0,0,0,0,0,0,0,0,0,0,0],"sum_hessian":[1E2,4.8E1,5.2E1,4E0,4.4E1,4.3E1,9E0,3E0,1E0,3E0,6E0],"tree_param":{"num_deleted":"0","num_feature":"2700","num_nodes":"11","size_leaf_vector":"0"}},{"base_weights":[1.0759637E-2,-1.6548622E-1,1.770148E-1,1.4364153E-1,-2.022097E-1,2.2064224E-1,-1.4743255E-1,2.507332E-1,-1.9590843E-1,-2.2205667E-1,1.5628235E-1,2.3025794E-1,-1.1564818E-1,1.2676767E-1,-2.1426052E-1],"categories":[],"categories_nodes":[],"categories_segments":[],"categories_sizes":[],"default_left":[true,true,true,true,true,true,true,false,false,false,false,false,false,false,false],"id":8,"left_children":[1,3,5,7,9,11,13,-1,-1,-1,-1,-1,-1,-1,-1],"loss_changes":[3.076679E0,6.080103E-1,7.9688907E-1,2.672986E-1,3.6199248E-1,1.8184519E-1,1.5543102E-1,0E0,0E0,0E0,0E0,0E0,0E0,0E0,0E0],"parents":[2147483647,0,0,1,1,2,2,3,3,4,4,5,5,6,6],"right_children":[2,4,6,8,10,12,14,-1,-1,-1,-1,-1,-1,-1,-1],"split_conditions":[-1.5454318E-3,-2.0320043E-2,3.2617903E-1,1.97611E-6,1.1416821E-1,1.4984738E-3,-1.7140206E-5,2.507332E-2,-1.9590843E-2,-2.2205668E-2,1.5628235E-2,2.3025794E-2,-1.1564818E-2,1.2676767E-2,-2.1426052E-2],"split_indices":[1596,1879,1717,11,190,158,16,0,0,0,0,0,0,0,0],"split_type":[0,0,0,0,0,0,0,0,0,0,0,0,0,0,0],"sum_hessian":[1.03E2,5E1,5.3E1,5E0,4.5E1,4.7E1,6E0,4E0,1E0,4.3E1,2E0,4.6E1,1E0,1E0,5E0],"tree_param":{"num_deleted":"0","num_feature":"2700","num_nodes":"15","size_leaf_vector":"0"}},{"base_weights":[5.0927587E-3,-1.5116955E-1,1.6803837E-1,2.3067455E-1,-1.9112526E-1,2.0401321E-1,-1.0579608E-1,1.133039E-1,-2.0083998E-1,-1.7868315E-1,1.2931964E-1],"categories":[],"categories_nodes":[],"categories_segments":[],"categories_sizes":[],"default_left":[true,true,true,false,true,false,true,false,false,false,false],"id":9,"left_children":[1,3,5,-1,7,-1,9,-1,-1,-1,-1],"loss_changes":[2.3933923E0,7.764164E-1,4.747368E-1,0E0,1.5288353E-1,0E0,1.2592864E-1,0E0,0E0,0E0,0E0],"parents":[2147483647,0,0,1,1,2,2,4,4,6,6],"right_children":[2,4,6,-1,8,-1,10,-1,-1,-1,-1],"split_conditions":[-1.5486598E-3,-2.0329136E-2,8.101055E-4,2.3067456E-2,-1.0697141E-4,2.0401321E-2,1.1707627E-5,1.133039E-2,-2.0084E-2,-1.7868316E-2,1.2931964E-2],"split_indices":[2001,1879,787,0,0,0,0,0,0,0,0],"split_type":[0,0,0,0,0,0,0,0,0,0,0],"sum_hessian":[9.2E1,4.7E1,4.5E1,4E0,4.3E1,4E1,5E0,1E0,4.2E1,4E0,1E0],"tree_param":{"num_deleted":"0","num_feature":"2700","num_nodes":"11","size_leaf_vector":"0"}},{"base_weights":[-1.1589049E-3,-1.5290152E-1,1.4774251E-1,1.1096824E-1,-1.833338E-1,1.7984295E-1,-1.3368478E-1,2.1222058E-1,-1.9764672E-1,-1.04171515E-1,1.8810223E-1,-1.9842935E-1,9.501901E-2],"categories":[],"categories_nodes":[],"categories_segments":[],"categories_sizes":[],"default_left":[true,true,true,true,false,true,true,false,false,false,false,false,false],"id":10,"left_children":[1,3,5,7,-1,9,11,-1,-1,-1,-1,-1,-1],"loss_changes":[2.3724377E0,4.3791246E-1,5.028411E-1,2.294326E-1,0E0,1.3219106E-1,1.0769853E-1,0E0,0E0,0E0,0E0,0E0,0E0],"parents":[2147483647,0,0,1,1,2,2,3,3,5,5,6,6],"right_children":[2,4,6,8,-1,10,12,-1,-1,-1,-1,-1,-1],"split_conditions":[-1.5486598E-3,-2.1904925E-2,2.9439908E-2,1.97611E-6,-1.8333381E-2,-7.574396E-3,1.4292156E-4,2.1222059E-2,-1.9764673E-2,-1.0417151E-2,1.8810224E-2,-1.9842936E-2,9.501901E-3],"split_indices":[2001,1879,2227,11,0,167,2,0,0,0,0,0,0],"split_type":[0,0,0,0,0,0,0,0,0,0,0,0,0],"sum_hessian":[1.03E2,5.1E1,5.2E1,5E0,4.6E1,4.7E1,5E0,4E0,1E0,1E0,4.6E1,4E0,1E0],"tree_param":{"num_deleted":"0","num_feature":"2700","num_nodes":"13","size_leaf_vector":"0"}},{"base_weights":[5.6839036E-3,1.16085246E-1,-1.4428182E-1,-1.4264047E-1,1.5515965E-1,-1.7589873E-1,1.2486303E-1,1.7203364E-1,-1.6654399E-1,-7.757959E-2,1.9486858E-1],"categories":[],"categories_nodes":[],"categories_segments":[],"categories_sizes":[],"default_left":[true,true,true,false,true,false,true,false,false,false,false],"id":11,"left_children":[1,3,5,-1,7,-1,9,-1,-1,-1,-1],"loss_changes":[1.639278E0,5.983767E-1,3.7936342E-1,0E0,3.000723E-1,0E0,8.597835E-2,0E0,0E0,0E0,0E0],"parents":[2147483647,0,0,1,1,2,2,4,4,6,6],"right_children":[2,4,6,-1,8,-1,10,-1,-1,-1,-1],"split_conditions":[2.4057306E-5,-7.386239E-4,-1.0441659E-4,-1.4264047E-2,5.130192E-5,-1.7589873E-2,-1.0463646E-5,1.7203365E-2,-1.66544E-2,-7.757959E-3,1.9486858E-2],"split_indices":[1554,860,1910,0,368,0,0,0,0,0,0],"split_type":[0,0,0,0,0,0,0,0,0,0,0],"sum_hessian":[9.7E1,5.6E1,4.1E1,7E0,4.9E1,3.7E1,4E0,4.7E1,2E0,1E0,3E0],"tree_param":{"num_deleted":"0","num_feature":"2700","num_nodes":"11","size_leaf_vector":"0"}},{"base_weights":[-8.449943E-3,-1.1499517E-1,1.2366439E-1,1.8631348E-1,-1.3724495E-1,-1.24101765E-1,1.4590542E-1,1.2555152E-1,-1.5711324E-1,-1.6358623E-1,6.708565E-2,-1.45906E-1,-2.108764E-1],"categories":[],"categories_nodes":[],"categories_segments":[],"categories_sizes":[],"default_left":[true,true,true,false,true,false,false,false,true,true,false,false,false],"id":12,"left_children":[1,3,5,-1,7,-1,-1,-1,9,11,-1,-1,-1],"loss_changes":[1.3233029E0,3.7418127E-1,2.4955124E-1,0E0,2.7557027E-1,0E0,0E0,0E0,7.773125E-2,6.8563223E-3,0E0,0E0,0E0],"parents":[2147483647,0,0,1,1,2,2,4,4,8,8,9,9],"right_children":[2,4,6,-1,8,-1,-1,-1,10,12,-1,-1,-1],"split_conditions":[-7.6153525E-4,-2.5325838E-2,-5.491417E-3,1.8631348E-2,-2.018623E-4,-1.2410177E-2,1.4590542E-2,1.2555152E-2,-2.1246476E-4,-9.431258E-4,6.7085656E-3,-1.45906005E-2,-2.108764E-2],"split_indices":[1582,2321,687,0,1839,0,0,0,69,1582,0,0,0],"split_type":[0,0,0,0,0,0,0,0,0,0,0,0,0],"sum_hessian":[9.2E1,5.1E1,4.1E1,3E0,4.8E1,3E0,3.8E1,3E0,4.5E1,4.4E1,1E0,3.5E1,9E0],"tree_param":{"num_deleted":"0","num_feature":"2700","num_nodes":"13","size_leaf_vector":"0"}},{"base_weights":[6.877965E-3,-1.3064368E-1,1.0698903E-1,5.7769984E-2,-1.365052E-1,-9.634959E-2,1.3182642E-1,5.9790373E-2,-1.3233797E-1,-1.4081751E-1,1.4527947E-1,1.3387372E-1,2.0851034E-1],"categories":[],"categories_nodes":[],"categories_segments":[],"categories_sizes":[],"default_left":[true,true,true,false,false,true,true,false,false,false,true,false,false],"id":13,"left_children":[1,3,5,-1,-1,7,9,-1,-1,-1,11,-1,-1],"loss_changes":[1.4044889E0,5.5374682E-2,3.1067497E-1,0E0,0E0,4.724711E-2,2.1485603E-1,0E0,0E0,0E0,8.867025E-3,0E0,0E0],"parents":[2147483647,0,0,1,1,2,2,5,5,6,6,10,10],"right_children":[2,4,6,-1,-1,8,10,-1,-1,-1,12,-1,-1],"split_conditions":[-8.951045E-4,-1.18765665E-5,-6.843185E-4,5.7769986E-3,-1.3650521E-2,-1.1147278E-5,1.9293751E-1,5.9790374E-3,-1.3233798E-2,-1.4081751E-2,1.9880223E-5,1.3387372E-2,2.0851035E-2],"split_indices":[1987,72,251,0,0,2,1430,0,0,0,1554,0,0],"split_type":[0,0,0,0,0,0,0,0,0,0,0,0,0],"sum_hessian":[1E2,4.2E1,5.8E1,1E0,4.1E1,6E0,5.2E1,1E0,5E0,2E0,5E1,4.5E1,5E0],"tree_param":{"num_deleted":"0","num_feature":"2700","num_nodes":"13","size_leaf_vector":"0"}},{"base_weights":[-7.1116155E-3,-9.6357286E-2,1.025788E-1,1.3818239E-1,-1.17884114E-1,1.2818247E-1,-8.094162E-2,8.9209236E-2,-1.2837152E-1,1.0882366E-1,1.5852906E-1,6.090918E-2,-1.21493615E-1,-1.3412137E-1,7.0935786E-2,-1.18795045E-1,-1.8563311E-1],"categories":[],"categories_nodes":[],"categories_segments":[],"categories_sizes":[],"default_left":[true,true,true,false,true,true,true,false,true,false,false,false,false,true,false,false,false],"id":14,"left_children":[1,3,5,-1,7,9,11,-1,13,-1,-1,-1,-1,15,-1,-1,-1],"loss_changes":[9.594555E-1,2.8892976E-1,2.1712244E-1,0E0,1.2004566E-1,5.659759E-3,4.1914072E-2,0E0,6.452143E-2,0E0,0E0,0E0,0E0,1.5053511E-2,0E0,0E0,0E0],"parents":[2147483647,0,0,1,1,2,2,4,4,5,5,6,6,8,8,13,13],"right_children":[2,4,6,-1,8,10,12,-1,14,-1,-1,-1,-1,16,-1,-1,-1],"split_conditions":[-7.6153525E-4,-9.889003E-1,1.1219187E-2,1.3818239E-2,-1.2226772E-4,8.071081E-6,-4.1060797E-5,8.920924E-3,6.0064694E-6,1.08823655E-2,1.5852906E-2,6.090918E-3,-1.2149362E-2,-9.431258E-4,7.0935786E-3,-1.1879505E-2,-1.8563312E-2],"split_indices":[1582,1358,1771,0,812,280,1,0,312,0,0,0,0,1582,0,0,0],"split_type":[0,0,0,0,0,0,0,0,0,0,0,0,0,0,0,0,0],"sum_hessian":[9.6E1,5.3E1,4.3E1,4E0,4.9E1,3.8E1,5E0,2E0,4.7E1,2.6E1,1.2E1,1E0,4E0,4.6E1,1E0,3.8E1,8E0],"tree_param":{"num_deleted":"0","num_feature":"2700","num_nodes":"17","size_leaf_vector":"0"}},{"base_weights":[-4.9189227E-3,-8.86085E-2,9.133972E-2,1.1530667E-1,-1.0286443E-1,-1.1833044E-1,1.135958E-1,1.8622512E-1,-4.8724342E-2,-1.1803995E-2,-1.2478639E-1,1.3193463E-1,9.653062E-2,-8.697405E-2,9.579488E-2,-1.612251E-1,-1.0414882E-1,-1.8542889E-1,-8.541327E-2],"categories":[],"categories_nodes":[],"categories_segments":[],"categories_sizes":[],"default_left":[true,true,true,true,true,false,true,false,false,true,true,false,false,false,false,true,false,false,false],"id":15,"left_children":[1,3,5,7,9,-1,11,-1,-1,13,15,-1,-1,-1,-1,17,-1,-1,-1],"loss_changes":[8.13678E-1,1.6883892E-1,2.3276427E-1,5.560499E-2,1.00334406E-1,0E0,7.213354E-4,0E0,0E0,9.730202E-2,1.4040828E-2,0E0,0E0,0E0,0E0,8.01605E-3,0E0,0E0,0E0],"parents":[2147483647,0,0,1,1,2,2,3,3,4,4,6,6,9,9,10,10,15,15],"right_children":[2,4,6,8,10,-1,12,-1,-1,14,16,-1,-1,-1,-1,18,-1,-1,-1],"split_conditions":[-7.6153525E-4,-1.8625092E-2,-5.491417E-3,2.3362425E-4,-1.7223501E-1,-1.1833045E-2,-2.1452729E-2,1.8622512E-2,-4.8724343E-3,-5.531027E-5,4.3359343E-3,1.3193463E-2,9.653062E-3,-8.6974045E-3,9.579488E-3,-4.6285986E-6,-1.0414883E-2,-1.854289E-2,-8.541327E-3],"split_indices":[1582,1755,687,2,2360,0,1657,0,0,59,1039,0,0,0,0,373,0,0,0],"split_type":[0,0,0,0,0,0,0,0,0,0,0,0,0,0,0,0,0,0,0],"sum_hessian":[9.9E1,5.3E1,4.6E1,3E0,5E1,4E0,4.2E1,2E0,1E0,1E1,4E1,1.7E1,2.5E1,6E0,4E0,1.2E1,2.8E1,8E0,4E0],"tree_param":{"num_deleted":"0","num_feature":"2700","num_nodes":"19","size_leaf_vector":"0"}},{"base_weights":[-8.41245E-3,-7.3860146E-2,8.015225E-2,-9.8720185E-2,8.142512E-2,1.0065599E-1,-1.295454E-1,7.5308405E-2,-1.0812831E-1,1.1175095E-1,-6.542785E-2,1.0700683E-1,-6.398727E-2,-1.8392128E-1,-9.833545E-2,9.09105E-2,1.519802E-1],"categories":[],"categories_nodes":[],"categories_segments":[],"categories_sizes":[],"default_left":[true,true,true,true,true,true,false,false,true,false,false,true,false,false,false,false,false],"id":16,"left_children":[1,3,5,7,9,11,-1,-1,13,-1,-1,15,-1,-1,-1,-1,-1],"loss_changes":[5.449811E-1,2.164998E-1,1.8502298E-1,8.509529E-2,4.293913E-2,4.5535177E-2,0E0,0E0,1.5314341E-2,0E0,0E0,1.2244046E-2,0E0,0E0,0E0,0E0,0E0],"parents":[2147483647,0,0,1,1,2,2,3,3,4,4,5,5,8,8,11,11],"right_children":[2,4,6,8,10,12,-1,-1,14,-1,-1,16,-1,-1,-1,-1,-1],"split_conditions":[-2.6196195E-4,-1.4696578E-3,3.1641559E-3,-3.4345772E-5,6.985247E-5,1.0961676E-5,-1.2954541E-2,7.5308406E-3,-1.9742252E-4,1.1175095E-2,-6.5427846E-3,1.9839799E-4,-6.398727E-3,-1.8392129E-2,-9.833545E-3,9.09105E-3,1.5198021E-2],"split_indices":[1986,1596,783,870,33,24,0,0,1965,0,0,1495,0,0,0,0,0],"split_type":[0,0,0,0,0,0,0,0,0,0,0,0,0,0,0,0,0],"sum_hessian":[9.2E1,5.3E1,3.9E1,4.6E1,7E0,3.6E1,3E0,2E0,4.4E1,6E0,1E0,3.5E1,1E0,3E0,4.1E1,2.8E1,7E0],"tree_param":{"num_deleted":"0","num_feature":"2700","num_nodes":"17","size_leaf_vector":"0"}},{"base_weights":[1.205357E-3,-9.043262E-2,6.6885315E-2,-8.1502266E-2,-1.3307251E-1,8.9553654E-2,-1.2560894E-1,9.969821E-2,-9.584735E-2,8.5538685E-2,1.5626359E-1,1.6764884E-1,3.8283437E-2],"categories":[],"categories_nodes":[],"categories_segments":[],"categories_sizes":[],"default_left":[true,true,true,false,false,true,false,true,false,false,true,false,false],"id":17,"left_children":[1,3,5,-1,-1,7,-1,9,-1,-1,11,-1,-1],"loss_changes":[5.477387E-1,3.6242902E-3,2.4251553E-1,0E0,0E0,9.983468E-2,0E0,2.34766E-2,0E0,0E0,4.3276846E-3,0E0,0E0],"parents":[2147483647,0,0,1,1,2,2,5,5,7,7,10,10],"right_children":[2,4,6,-1,-1,8,-1,10,-1,-1,12,-1,-1],"split_conditions":[-9.399102E-4,1.1788368E-4,3.6981836E-1,-8.150226E-3,-1.3307251E-2,1.907554E-2,-1.2560894E-2,7.839453E-5,-9.584735E-3,8.553869E-3,5.0731624E-6,1.6764885E-2,3.8283437E-3],"split_indices":[1582,931,1717,0,0,156,0,1617,0,0,58,0,0],"split_type":[0,0,0,0,0,0,0,0,0,0,0,0,0],"sum_hessian":[8.9E1,3.7E1,5.2E1,3.3E1,4E0,4.7E1,5E0,4.5E1,2E0,3.8E1,7E0,6E0,1E0],"tree_param":{"num_deleted":"0","num_feature":"2700","num_nodes":"13","size_leaf_vector":"0"}},{"base_weights":[6.5766196E-3,-8.244652E-2,6.581577E-2,-7.4603535E-2,-1.224267E-1,9.0483926E-2,-8.402424E-2,-6.68941E-2,1.0148451E-1,-1.0721272E-1,5.074182E-2,-1.1186314E-1,3.4006506E-2,1.7416413E-1,8.926718E-2,-1.1950133E-1,-4.6897948E-2,1.04128905E-1,6.423181E-2,1.1796148E-1,6.489387E-2,1.2729211E-1,5.348125E-2],"categories":[],"categories_nodes":[],"categories_segments":[],"categories_sizes":[],"default_left":[true,true,true,false,false,true,true,true,true,true,false,false,false,false,true,false,false,true,false,true,false,false,false],"id":18,"left_children":[1,3,5,-1,-1,7,9,11,13,15,-1,-1,-1,-1,17,-1,-1,19,-1,21,-1,-1,-1],"loss_changes":[5.275181E-1,3.4091175E-3,2.293795E-1,0E0,0E0,9.681365E-2,3.356535E-2,2.1953687E-2,2.7962446E-2,3.2510608E-4,0E0,0E0,0E0,0E0,9.6826255E-3,0E0,0E0,6.455779E-3,0E0,4.0217936E-3,0E0,0E0,0E0],"parents":[2147483647,0,0,1,1,2,2,5,5,6,6,7,7,8,8,9,9,14,14,17,17,19,19],"right_children":[2,4,6,-1,-1,8,10,12,14,16,-1,-1,-1,-1,18,-1,-1,20,-1,22,-1,-1,-1],"split_conditions":[-9.3571655E-4,1.19585995E-4,2.9359635E-5,-7.4603534E-3,-1.224267E-2,6.164422E-1,3.111E-5,1.0338763E-5,-1.2915928E-4,-7.640515E-7,5.074182E-3,-1.1186314E-2,3.4006506E-3,1.7416414E-2,-3.535859E-6,-1.1950133E-2,-4.689795E-3,-2.1417704E-4,6.4231814E-3,5.2625805E-2,6.4893872E-3,1.2729212E-2,5.348125E-3],"split_indices":[1987,121,1554,0,0,1397,0,0,75,104,0,0,0,0,398,0,0,1507,0,254,0,0,0],"split_type":[0,0,0,0,0,0,0,0,0,0,0,0,0,0,0,0,0,0,0,0,0,0,0],"sum_hessian":[9.8E1,3.9E1,5.9E1,3.5E1,4E0,5.1E1,8E0,3E0,4.8E1,7E0,1E0,2E0,1E0,5E0,4.3E1,5E0,2E0,2.5E1,1.8E1,1.7E1,8E0,1.4E1,3E0],"tree_param":{"num_deleted":"0","num_feature":"2700","num_nodes":"23","size_leaf_vector":"0"}},{"base_weights":[4.0310128E-3,7.622092E-2,-4.3372717E-2,-1.0440559E-1,8.84751E-2,-7.139629E-2,2.2331836E-2,1.7095315E-1,7.652117E-2,8.728329E-2,-8.126562E-2,-6.79957E-2,6.92519E-2,8.574276E-2,5.656432E-2,-6.975583E-2,-1.2720521E-1,9.734706E-2,5.3266846E-2],"categories":[],"categories_nodes":[],"categories_segments":[],"categories_sizes":[],"default_left":[true,true,true,false,true,true,true,false,true,false,true,false,false,true,false,false,false,false,false],"id":19,"left_children":[1,3,5,-1,7,9,11,-1,13,-1,15,-1,-1,17,-1,-1,-1,-1,-1],"loss_changes":[3.45513E-1,9.7774446E-2,1.13912284E-1,0E0,2.4384052E-2,7.443376E-2,8.5234135E-2,0E0,1.5911907E-3,0E0,1.28056705E-2,0E0,0E0,3.105551E-3,0E0,0E0,0E0,0E0,0E0],"parents":[2147483647,0,0,1,1,2,2,4,4,5,5,6,6,8,8,10,10,13,13],"right_children":[2,4,6,-1,8,10,12,-1,14,-1,16,-1,-1,18,-1,-1,-1,-1,-1],"split_conditions":[5.3755815E-5,-1.7689927E-3,-1.578761E-1,-1.0440559E-2,-8.012491E-5,-2.1836966E-2,-7.0681935E-4,1.7095316E-2,-4.477415E-6,8.728329E-3,-3.6859866E-3,-6.79957E-3,6.9251903E-3,-5.241788E-3,5.656432E-3,-6.9755833E-3,-1.2720521E-2,9.734706E-3,5.3266846E-3],"split_indices":[1923,2096,786,0,1544,1879,50,0,339,0,699,0,0,804,0,0,0,0,0],"split_type":[0,0,0,0,0,0,0,0,0,0,0,0,0,0,0,0,0,0,0],"sum_hessian":[9.9E1,3.9E1,6E1,2E0,3.7E1,4.2E1,1.8E1,3E0,3.4E1,2E0,4E1,6E0,1.2E1,2.1E1,1.3E1,3.4E1,6E0,1.4E1,7E0],"tree_param":{"num_deleted":"0","num_feature":"2700","num_nodes":"19","size_leaf_vector":"0"}},{"base_weights":[1.6446471E-3,-6.616306E-2,5.6864917E-2,3.0933887E-2,-6.914052E-2,8.3746225E-2,-4.419852E-2,-6.1273288E-2,-1.07442945E-1,1.1908936E-1,6.787549E-2,-9.325614E-2,4.3133367E-2,1.2494615E-1,2.7332336E-2,5.1870305E-2,8.0638774E-2,-1.0573849E-1,-3.720605E-2,4.0773302E-2,8.670209E-2],"categories":[],"categories_nodes":[],"categories_segments":[],"categories_sizes":[],"default_left":[true,true,true,false,true,true,true,false,false,true,true,true,false,false,false,false,true,false,false,false,false],"id":20,"left_children":[1,3,5,-1,7,9,11,-1,-1,13,15,17,-1,-1,-1,-1,19,-1,-1,-1,-1],"loss_changes":[3.669653E-1,1.4859289E-2,1.5040421E-1,0E0,6.3740015E-3,1.6036391E-2,5.543398E-2,0E0,0E0,3.0337423E-3,2.3541749E-3,1.6629845E-3,0E0,0E0,0E0,0E0,3.323406E-4,0E0,0E0,0E0,0E0],"parents":[2147483647,0,0,1,1,2,2,4,4,5,5,6,6,9,9,10,10,11,11,16,16],"right_children":[2,4,6,-1,8,10,12,-1,-1,14,16,18,-1,-1,-1,-1,20,-1,-1,-1,-1],"split_conditions":[-9.005448E-4,-1.4886199E-4,-4.444067E-5,3.0933886E-3,1.8856068E-1,2.1123558E-2,-8.512783E-3,-6.127329E-3,-1.0744295E-2,6.3889784E-6,-1.1365683E-3,1.6400287E-5,4.3133367E-3,1.2494615E-2,2.7332336E-3,5.1870304E-3,-4.4990567E-4,-1.0573849E-2,-3.720605E-3,4.07733E-3,8.67021E-3],"split_indices":[1582,2,2670,0,138,1247,707,0,0,57,111,16,0,0,0,0,87,0,0,0,0],"split_type":[0,0,0,0,0,0,0,0,0,0,0,0,0,0,0,0,0,0,0,0,0],"sum_hessian":[9.6E1,4.3E1,5.3E1,1E0,4.2E1,4.2E1,1.1E1,3.7E1,5E0,1.1E1,3.1E1,7E0,4E0,1E1,1E0,1.6E1,1.5E1,5E0,2E0,3E0,1.2E1],"tree_param":{"num_deleted":"0","num_feature":"2700","num_nodes":"21","size_leaf_vector":"0"}},{"base_weights":[-7.9549365E-3,4.1736484E-2,-6.714822E-2,6.1532617E-2,-6.741027E-2,1.0649558E-1,-7.878368E-2,-5.4773603E-2,6.871726E-2,-6.478074E-2,-1.450031E-1,5.7775237E-2,1.0526349E-1,-5.327723E-2,-9.550749E-2,-1.5715535E-1,-4.212094E-2],"categories":[],"categories_nodes":[],"categories_segments":[],"categories_sizes":[],"default_left":[true,true,true,true,false,false,true,false,true,true,true,false,false,false,false,false,false],"id":21,"left_children":[1,3,5,7,-1,-1,9,-1,11,13,15,-1,-1,-1,-1,-1,-1],"loss_changes":[2.64587E-1,1.1002142E-1,9.122759E-2,3.885992E-2,0E0,0E0,2.6769996E-2,0E0,9.913966E-3,6.9294423E-3,8.819699E-4,0E0,0E0,0E0,0E0,0E0,0E0],"parents":[2147483647,0,0,1,1,2,2,3,3,6,6,8,8,9,9,10,10],"right_children":[2,4,6,8,-1,-1,10,-1,12,14,16,-1,-1,-1,-1,-1,-1],"split_conditions":[2.2076067E-5,2.3611276E-5,-5.277427E-3,-6.942545E-1,-6.741027E-3,1.0649558E-2,5.839431E-3,-5.4773604E-3,3.089853E-3,-1.6196216E-4,-1.2411407E-4,5.777524E-3,1.0526349E-2,-5.3277235E-3,-9.550749E-3,-1.5715536E-2,-4.212094E-3],"split_indices":[1959,2663,1054,252,0,0,1637,0,706,1535,3,0,0,0,0,0,0],"split_type":[0,0,0,0,0,0,0,0,0,0,0,0,0,0,0,0,0],"sum_hessian":[8.8E1,4.8E1,4E1,4.1E1,7E0,2E0,3.8E1,2E0,3.9E1,3.3E1,5E0,3.2E1,7E0,2.6E1,7E0,4E0,1E0],"tree_param":{"num_deleted":"0","num_feature":"2700","num_nodes":"17","size_leaf_vector":"0"}},{"base_weights":[-3.7382627E-3,-5.3597253E-2,3.8056776E-2,-6.1049964E-2,1.2225565E-1,6.153606E-2,-5.9666045E-2,-1.5957844E-1,-5.166482E-2,4.8862785E-2,1.4047644E-1,5.5422466E-2,-9.5365986E-2,-1.4498336E-2,-5.2277476E-2,-2.6820662E-2,5.179147E-2,6.1966665E-2,4.2057216E-2,7.000064E-2,3.8248926E-2],"categories":[],"categories_nodes":[],"categories_segments":[],"categories_sizes":[],"default_left":[true,true,true,true,false,true,true,false,true,true,false,false,false,false,false,false,true,true,false,false,false],"id":22,"left_children":[1,3,5,7,-1,9,11,-1,13,15,-1,-1,-1,-1,-1,-1,17,19,-1,-1,-1],"loss_changes":[1.8750313E-1,6.1197534E-2,1.1610025E-1,2.8743565E-2,0E0,3.3153266E-2,4.6371944E-2,0E0,1.07333064E-4,9.368591E-3,0E0,0E0,0E0,0E0,0E0,0E0,8.605346E-4,1.8076971E-4,0E0,0E0,0E0],"parents":[2147483647,0,0,1,1,2,2,3,3,5,5,6,6,8,8,9,9,16,16,17,17],"right_children":[2,4,6,8,-1,10,12,-1,14,16,-1,-1,-1,-1,-1,-1,18,20,-1,-1,-1],"split_conditions":[-1.6903437E-3,5.3808293E-5,1.7267069E-1,-2.63287E-3,1.22255655E-2,1.9773126E-5,-2.5541969E-5,-1.5957845E-2,-1.5179973E-4,-1.2592535E-4,1.4047644E-2,5.5422466E-3,-9.536599E-3,-1.4498336E-3,-5.227748E-3,-2.6820663E-3,-1.9686966E-4,4.857213E-3,4.205722E-3,7.000064E-3,3.8248927E-3],"split_indices":[2001,5,744,638,0,1959,7,0,6,16,0,0,0,0,0,0,862,1035,0,0,0],"split_type":[0,0,0,0,0,0,0,0,0,0,0,0,0,0,0,0,0,0,0,0,0],"sum_hessian":[8.8E1,4E1,4.8E1,3.9E1,1E0,3.9E1,9E0,2E0,3.7E1,3.5E1,4E0,2E0,7E0,1E0,3.6E1,1E0,3.4E1,1.4E1,2E1,9E0,5E0],"tree_param":{"num_deleted":"0","num_feature":"2700","num_nodes":"21","size_leaf_vector":"0"}},{"base_weights":[-2.6787207E-5,3.535356E-2,-5.536459E-2,-4.899842E-2,5.2853916E-2,-6.2952064E-2,5.6669116E-2,-7.921263E-2,5.9860975E-2,-1.2541737E-1,-4.9272567E-2,1.1185086E-1,4.8532877E-2,-3.930732E-2,-6.260571E-2,4.3712318E-2,1.4399152E-1,5.6415237E-2,3.956852E-2,6.478347E-2,3.5764962E-2,6.9847725E-2,2.4620036E-2],"categories":[],"categories_nodes":[],"categories_segments":[],"categories_sizes":[],"default_left":[true,true,true,false,true,true,false,false,true,false,true,true,true,false,false,false,false,true,false,true,false,false,false],"id":23,"left_children":[1,3,5,-1,7,9,-1,-1,11,-1,13,15,17,-1,-1,-1,-1,19,-1,21,-1,-1,-1],"loss_changes":[1.9578654E-1,9.263733E-2,3.67195E-2,0E0,5.193703E-2,2.543664E-2,0E0,0E0,2.342993E-2,0E0,1.790911E-3,1.1225939E-2,7.354617E-4,0E0,0E0,0E0,0E0,1.1391491E-3,0E0,9.2451647E-4,0E0,0E0,0E0],"parents":[2147483647,0,0,1,1,2,2,4,4,5,5,8,8,10,10,11,11,12,12,17,17,19,19],"right_children":[2,4,6,-1,8,10,-1,-1,12,-1,14,16,18,-1,-1,-1,-1,20,-1,22,-1,-1,-1],"split_conditions":[2.3958128E-5,-9.4142824E-4,2.1037683E-1,-4.899842E-3,-4.5348883E-2,1.2928804E-2,5.6669116E-3,-7.921263E-3,-2.6417006E-4,-1.25417365E-2,-5.1242518E-5,-7.17195E-2,-4.2869156E-5,-3.930732E-3,-6.260571E-3,4.371232E-3,1.4399151E-2,-3.7989814E-6,3.956852E-3,3.8328076E-6,3.5764964E-3,6.9847726E-3,2.4620036E-3],"split_indices":[1959,1582,654,0,773,1384,0,0,1533,0,1541,136,1150,0,0,0,0,398,0,303,0,0,0],"split_type":[0,0,0,0,0,0,0,0,0,0,0,0,0,0,0,0,0,0,0,0,0,0,0],"sum_hessian":[9.8E1,6E1,3.8E1,1E1,5E1,3.6E1,2E0,2E0,4.8E1,5E0,3.1E1,7E0,4.1E1,2E1,1.1E1,3E0,4E0,1.9E1,2.2E1,1.2E1,7E0,1E1,2E0],"tree_param":{"num_deleted":"0","num_feature":"2700","num_nodes":"23","size_leaf_vector":"0"}},{"base_weights":[-1.7659131E-3,3.126024E-2,-4.7782235E-2,-6.128118E-2,4.9073853E-2,-5.48444E-2,5.2891176E-2,-8.3301514E-2,-3.6387425E-2,1.1069149E-1,4.036258E-2,-4.3733682E-2,-9.462686E-2,-4.3927766E-2,4.3568037E-2,-5.4617815E-2,-3.455772E-2,-1.0154783E-1,-2.6550524E-2,3.9054062E-2,6.2638216E-2,-2.3239532E-2,-5.856952E-2],"categories":[],"categories_nodes":[],"categories_segments":[],"categories_sizes":[],"default_left":[true,true,true,true,true,true,false,false,false,false,true,true,true,false,true,true,false,false,false,false,false,false,false],"id":24,"left_children":[1,3,5,7,9,11,-1,-1,-1,-1,13,15,17,-1,19,21,-1,-1,-1,-1,-1,-1,-1],"loss_changes":[1.3827047E-1,9.037763E-2,2.991774E-2,1.9023903E-3,1.9686759E-2,1.1774041E-2,0E0,0E0,0E0,0E0,1.2991585E-2,1.108706E-3,6.019324E-4,0E0,9.970143E-4,1.2684613E-4,0E0,0E0,0E0,0E0,0E0,0E0,0E0],"parents":[2147483647,0,0,1,1,2,2,3,3,4,4,5,5,10,10,11,11,12,12,14,14,15,15],"right_children":[2,4,6,8,10,12,-1,-1,-1,-1,14,16,18,-1,20,22,-1,-1,-1,-1,-1,-1,-1],"split_conditions":[2.2129989E-5,-4.2928965E-4,9.511152E-6,3.8404185E-3,-3.7655106E-4,2.6162164E-7,5.289118E-3,-8.330151E-3,-3.6387425E-3,1.1069149E-2,2.988341E-5,-6.779825E-8,-2.0520714E-5,-4.3927766E-3,1.9071244E-6,-7.701777E-5,-3.4557718E-3,-1.0154783E-2,-2.6550523E-3,3.9054062E-3,6.263822E-3,-2.3239532E-3,-5.856952E-3],"split_indices":[1554,896,393,147,1986,2454,0,0,0,0,8,2563,5,0,396,56,0,0,0,0,0,0,0],"split_type":[0,0,0,0,0,0,0,0,0,0,0,0,0,0,0,0,0,0,0,0,0,0,0],"sum_hessian":[8.9E1,5.2E1,3.7E1,8E0,4.4E1,3.5E1,2E0,3E0,5E0,4E0,4E1,2.9E1,6E0,1E0,3.9E1,1.1E1,1.8E1,5E0,1E0,3.4E1,5E0,2E0,9E0],"tree_param":{"num_deleted":"0","num_feature":"2700","num_nodes":"23","size_leaf_vector":"0"}},{"base_weights":[-3.9540185E-4,-4.050762E-2,3.1553127E-2,-4.2464703E-2,2.0845026E-2,4.2727325E-2,-8.649945E-2,-3.787755E-2,-7.657331E-2,5.2520707E-2,-5.5917274E-2,-2.248336E-2,-9.6882634E-2,-4.1014373E-2,-2.4679318E-2,4.326014E-2,9.1100894E-2,-1.5985372E-2,-6.1903905E-2,-2.9834302E-2,-4.511269E-2,6.403393E-2,3.671481E-2,3.6436677E-2,1.0324952E-1,1.7537832E-2,6.817083E-2,2.9319322E-2,4.4129062E-2],"categories":[],"categories_nodes":[],"categories_segments":[],"categories_sizes":[],"default_left":[true,true,true,true,false,true,true,true,false,true,true,false,false,true,false,true,true,false,false,false,false,true,true,false,false,false,false,false,false],"id":25,"left_children":[1,3,5,7,-1,9,11,13,-1,15,17,-1,-1,19,-1,21,23,-1,-1,-1,-1,25,27,-1,-1,-1,-1,-1,-1],"loss_changes":[1.2430467E-1,6.048292E-3,7.4929595E-2,3.6709756E-3,0E0,5.1240034E-2,1.1452064E-3,6.0241297E-4,0E0,1.24935955E-2,2.0573102E-4,0E0,0E0,2.868101E-5,0E0,2.9518828E-3,1.5506893E-3,0E0,0E0,0E0,0E0,3.432259E-4,4.6079233E-4,0E0,0E0,0E0,0E0,0E0,0E0],"parents":[2147483647,0,0,1,1,2,2,3,3,5,5,6,6,7,7,9,9,10,10,13,13,15,15,16,16,21,21,22,22],"right_children":[2,4,6,8,-1,10,12,14,-1,16,18,-1,-1,20,-1,22,24,-1,-1,-1,-1,26,28,-1,-1,-1,-1,-1,-1],"split_conditions":[-9.005448E-4,1.4602512E-4,-9.857677E-3,1.2880252E-5,2.0845027E-3,1.7855468E-3,4.7732436E-5,1.8899427E-6,-7.6573314E-3,3.6403537E-3,-8.783858E-6,-2.248336E-3,-9.688264E-3,-1.8511128E-2,-2.467932E-3,2.4713585E-1,-9.310949E-6,-1.5985372E-3,-6.190391E-3,-2.9834302E-3,-4.5112693E-3,1.6682063E-5,-1.0232438E-1,3.6436678E-3,1.0324952E-2,1.7537832E-3,6.8170833E-3,2.9319322E-3,4.4129062E-3],"split_indices":[1582,128,2351,1200,0,1738,10,1901,0,160,0,0,0,2206,0,1437,4,0,0,0,0,1,1753,0,0,0,0,0,0],"split_type":[0,0,0,0,0,0,0,0,0,0,0,0,0,0,0,0,0,0,0,0,0,0,0,0,0,0,0,0,0],"sum_hessian":[9.5E1,4.2E1,5.3E1,4.1E1,1E0,4.9E1,4E0,3.8E1,3E0,4.5E1,4E0,1E0,3E0,2.9E1,9E0,3.8E1,7E0,1E0,3E0,1E1,1.9E1,7E0,3.1E1,2E0,5E0,1E0,6E0,1.8E1,1.3E1],"tree_param":{"num_deleted":"0","num_feature":"2700","num_nodes":"29","size_leaf_vector":"0"}},{"base_weights":[2.725168E-3,-3.7386954E-2,2.987364E-2,-1.2112489E-1,-2.7323747E-2,-3.4196164E-2,4.5268722E-2,-1.3764283E-1,-3.578555E-2,-3.5395667E-2,3.141568E-2,5.38696E-2,-6.2808335E-2,-2.6850369E-2,-5.5199757E-2,4.2682175E-2,1.19474165E-1,-9.343811E-2,1.45404935E-2,-2.8932367E-2,1.1558801E-2,3.6888413E-2,8.560392E-2,1.303834E-1,3.2463968E-2,-2.9891929E-2,-1.2251466E-2,3.882712E-2,-1.6452527E-2,2.5971115E-2,4.496438E-2,4.951135E-2,2.382941E-2,5.2200187E-2,1.8667102E-2],"categories":[],"categories_nodes":[],"categories_segments":[],"categories_sizes":[],"default_left":[true,true,true,true,true,false,true,false,false,true,false,true,true,true,false,true,true,false,false,true,false,true,false,false,false,false,false,true,false,false,true,true,false,false,false],"id":26,"left_children":[1,3,5,7,9,-1,11,-1,-1,13,-1,15,17,19,-1,21,23,-1,-1,25,-1,27,-1,-1,-1,-1,-1,29,-1,-1,31,33,-1,-1,-1],"loss_changes":[1.078372E-1,3.039731E-2,5.974326E-2,7.128976E-4,1.8655159E-2,0E0,4.800222E-2,0E0,0E0,4.102517E-3,0E0,2.7928174E-2,1.0835344E-2,2.3336187E-3,0E0,6.7893416E-3,1.4625341E-3,0E0,0E0,1.7931685E-5,0E0,4.465062E-3,0E0,0E0,0E0,0E0,0E0,1.6726479E-3,0E0,0E0,1.0304749E-3,5.184114E-4,0E0,0E0,0E0],"parents":[2147483647,0,0,1,1,2,2,3,3,4,4,6,6,9,9,11,11,12,12,13,13,15,15,16,16,19,19,21,21,27,27,30,30,31,31],"right_children":[2,4,6,8,10,-1,12,-1,-1,14,-1,16,18,20,-1,22,24,-1,-1,26,-1,28,-1,-1,-1,-1,-1,30,-1,-1,32,34,-1,-1,-1],"split_conditions":[-3.6717271E-3,1.5717499E-2,-9.1595575E-4,7.973506E-6,-1.6023576E-1,-3.4196165E-3,-5.5907527E-3,-1.3764284E-2,-3.5785548E-3,2.2792274E-1,3.1415678E-3,1.7247777E-3,1.01878584E-4,6.173935E-5,-5.519976E-3,1.0808019E-4,-2.1885033E-4,-9.343811E-3,1.4540494E-3,9.052003E-3,1.1558802E-3,1.0398833E-5,8.560392E-3,1.303834E-2,3.2463968E-3,-2.989193E-3,-1.2251466E-3,-4.9192204E-6,-1.6452527E-3,2.5971115E-3,-4.45157E-5,8.198009E-3,2.382941E-3,5.220019E-3,1.8667103E-3],"split_indices":[687,574,1987,0,786,0,1752,0,0,2163,0,2270,3,0,0,873,22,0,0,173,0,24,0,0,0,0,0,2447,0,0,2670,201,0,0,0],"split_type":[0,0,0,0,0,0,0,0,0,0,0,0,0,0,0,0,0,0,0,0,0,0,0,0,0,0,0,0,0,0,0,0,0,0,0],"sum_hessian":[9.7E1,3.9E1,5.8E1,3E0,3.6E1,1.1E1,4.7E1,2E0,1E0,3.2E1,4E0,4.4E1,3E0,2.4E1,8E0,3.9E1,5E0,2E0,1E0,2.3E1,1E0,3.6E1,3E0,4E0,1E0,2.1E1,2E0,3.5E1,1E0,1.3E1,2.2E1,1.7E1,5E0,1.5E1,2E0],"tree_param":{"num_deleted":"0","num_feature":"2700","num_nodes":"35","size_leaf_vector":"0"}},{"base_weights":[6.2333734E-4,-3.4759715E-2,2.9870411E-2,2.9492736E-2,-5.5123873E-2,4.527092E-2,-7.6101683E-3,5.1293142E-2,-2.148126E-2,-2.9801566E-2,-9.1788836E-2,1.1165658E-1,3.1408895E-2,-3.3101857E-2,2.9893696E-2,2.0840436E-2,6.539668E-2,-3.241702E-2,1.1253774E-2,-1.3533933E-1,-5.7395358E-2,3.3256263E-2,1.2068538E-1,-1.7656136E-2,3.709342E-2,3.1990826E-2,8.655459E-3,-2.4815751E-2,-4.298856E-2,4.5984097E-2,2.5729846E-2,1.6920611E-2,5.1839918E-2],"categories":[],"categories_nodes":[],"categories_segments":[],"categories_sizes":[],"default_left":[true,true,true,true,true,true,true,true,false,true,true,true,true,false,true,false,false,true,false,false,false,false,false,false,true,false,false,false,false,true,false,false,false],"id":27,"left_children":[1,3,5,7,9,11,13,15,-1,17,19,21,23,-1,25,-1,-1,27,-1,-1,-1,-1,-1,-1,29,-1,-1,-1,-1,31,-1,-1,-1],"loss_changes":[9.8314255E-2,5.7888974E-2,3.0359965E-2,1.3325635E-2,2.790311E-2,3.054186E-2,1.6286127E-2,2.073031E-3,0E0,2.619762E-3,1.1704236E-2,2.3362786E-4,9.580087E-3,0E0,3.488036E-5,0E0,0E0,5.4034963E-4,0E0,0E0,0E0,0E0,0E0,0E0,1.7467029E-3,0E0,0E0,0E0,0E0,1.6756989E-3,0E0,0E0,0E0],"parents":[2147483647,0,0,1,1,2,2,3,3,4,4,5,5,6,6,7,7,9,9,10,10,11,11,12,12,14,14,17,17,24,24,29,29],"right_children":[2,4,6,8,10,12,14,16,-1,18,20,22,24,-1,26,-1,-1,28,-1,-1,-1,-1,-1,-1,30,-1,-1,-1,-1,32,-1,-1,-1],"split_conditions":[-2.0133337E-5,1.807229E-2,-2.501733E-1,1.0967448E-3,-3.3173736E-5,-1.3412928E-4,2.0502198E-1,1.0843813E-5,-2.148126E-3,-3.4890592E-5,3.7978345E-3,-5.14839E-5,-1.1975251E-3,-3.3101856E-3,3.412208E-5,2.0840436E-3,6.5396684E-3,9.546233E-3,1.1253775E-3,-1.3533934E-2,-5.7395357E-3,3.3256263E-3,1.2068539E-2,-1.7656137E-3,-1.430114E-2,3.1990826E-3,8.655459E-4,-2.4815751E-3,-4.298856E-3,-5.712752E-3,2.5729847E-3,1.6920612E-3,5.183992E-3],"split_indices":[1902,955,1662,8,12,931,1056,10,0,12,1039,7,879,0,5,0,0,1217,0,0,0,0,0,0,745,0,0,0,0,557,0,0,0],"split_type":[0,0,0,0,0,0,0,0,0,0,0,0,0,0,0,0,0,0,0,0,0,0,0,0,0,0,0,0,0,0,0,0,0],"sum_hessian":[9.3E1,4.2E1,5.1E1,1E1,3.2E1,3.6E1,1.5E1,7E0,3E0,2E1,1.2E1,5E0,3.1E1,9E0,6E0,3E0,4E0,1.9E1,1E0,4E0,8E0,1E0,4E0,3E0,2.8E1,5E0,1E0,1.3E1,6E0,1.4E1,1.4E1,3E0,1.1E1],"tree_param":{"num_deleted":"0","num_feature":"2700","num_nodes":"33","size_leaf_vector":"0"}},{"base_weights":[3.8686553E-3,2.6736926E-2,-3.0239765E-2,-3.4897007E-2,4.190438E-2,-3.989129E-2,6.418392E-2,-4.6248022E-2,1.4572044E-2,8.439494E-2,3.2358658E-2,-1.2861408E-1,-3.0889537E-2,-7.890622E-2,-2.8220192E-2,1.1183896E-1,2.8991178E-2,3.3998378E-2,-1.5795248E-2,-1.9357275E-2,-3.7994258E-2,2.3865554E-2,4.3408427E-2,-1.960686E-2,-4.2816263E-2,1.0868698E-2,2.5427882E-2,1.8778313E-2,4.8724573E-2,-1.2556501E-2,-4.4080783E-2],"categories":[],"categories_nodes":[],"categories_segments":[],"categories_sizes":[],"default_left":[true,true,true,true,true,true,false,true,false,true,true,false,true,false,false,false,false,true,false,false,true,true,true,false,true,false,false,false,false,false,false],"id":28,"left_children":[1,3,5,7,9,11,-1,13,-1,15,17,-1,19,-1,-1,-1,-1,21,-1,-1,23,25,27,-1,29,-1,-1,-1,-1,-1,-1],"loss_changes":[7.568857E-2,5.568246E-2,3.810236E-2,7.4122148E-3,1.633244E-2,2.4778966E-2,0E0,3.6608167E-3,0E0,8.921672E-3,3.6953725E-3,0E0,2.0502694E-3,0E0,0E0,0E0,0E0,2.6827008E-3,0E0,0E0,9.337906E-4,1.5004445E-4,1.5728399E-3,0E0,2.0459294E-5,0E0,0E0,0E0,0E0,0E0,0E0],"parents":[2147483647,0,0,1,1,2,2,3,3,4,4,5,5,7,7,9,9,10,10,12,12,17,17,20,20,21,21,22,22,24,24],"right_children":[2,4,6,8,10,12,-1,14,-1,16,18,-1,20,-1,-1,-1,-1,22,-1,-1,24,26,28,-1,30,-1,-1,-1,-1,-1,-1],"split_conditions":[2.4057306E-5,2.2875679E-1,1.8977575E-2,-2.4916017E-6,-2.6417006E-4,-1.0364491E-3,6.418392E-3,1.3480493E-4,1.4572045E-3,-2.842005E-5,1.0019151E-4,-1.2861408E-2,3.3730993E-4,-7.890622E-3,-2.8220192E-3,1.1183896E-2,2.8991178E-3,3.425329E-6,-1.5795248E-3,-1.9357275E-3,-3.3997763E-3,-1.8616531E-6,-5.210861E-1,-1.9606862E-3,-1.0020109E-4,1.0868699E-3,2.5427882E-3,1.8778313E-3,4.8724576E-3,-1.2556501E-3,-4.4080783E-3],"split_indices":[1554,2081,1669,5,1533,1063,0,1,0,59,4,0,2318,0,0,0,0,280,0,0,739,90,1445,0,37,0,0,0,0,0,0],"split_type":[0,0,0,0,0,0,0,0,0,0,0,0,0,0,0,0,0,0,0,0,0,0,0,0,0,0,0,0,0,0,0],"sum_hessian":[9.5E1,5.7E1,3.8E1,1.1E1,4.6E1,3.5E1,3E0,9E0,2E0,7E0,3.9E1,2E0,3.3E1,2E0,7E0,4E0,3E0,3.8E1,1E0,1.4E1,1.9E1,2E1,1.8E1,5E0,1.4E1,3E0,1.7E1,4E0,1.4E1,1E0,1.3E1],"tree_param":{"num_deleted":"0","num_feature":"2700","num_nodes":"31","size_leaf_vector":"0"}},{"base_weights":[-8.82024E-4,-2.902543E-2,2.7830508E-2,-3.4554925E-2,7.2807945E-2,3.4817155E-2,-3.0372223E-2,-2.7646761E-2,-1.3356718E-1,8.115651E-2,2.8471587E-2,-4.4155862E-2,1.9272983E-2,-1.9866284E-2,-3.670422E-2,4.029155E-2,2.240055E-2,1.1433989E-2,-2.1449035E-2,-2.260436E-2,-4.7467332E-2,2.9533403E-2,1.7357454E-2,-6.024976E-3,-2.1810539E-2,-2.4517927E-2,-9.328869E-3,1.4933884E-2,3.3141486E-2],"categories":[],"categories_nodes":[],"categories_segments":[],"categories_sizes":[],"default_left":[true,true,true,true,false,true,true,true,false,false,true,false,false,true,true,false,true,false,true,true,false,true,false,false,false,false,false,false,false],"id":29,"left_children":[1,3,5,7,-1,9,11,13,-1,-1,15,-1,-1,17,19,-1,21,-1,23,25,-1,27,-1,-1,-1,-1,-1,-1,-1],"loss_changes":[8.323077E-2,3.1796396E-2,2.1796219E-2,3.0506931E-2,0E0,1.1215627E-2,4.9567637E-3,2.6534498E-3,0E0,0E0,2.1113418E-3,0E0,0E0,1.6323831E-3,2.113957E-3,0E0,5.6652445E-4,0E0,1.913961E-5,5.071424E-5,0E0,8.450728E-5,0E0,0E0,0E0,0E0,0E0,0E0,0E0],"parents":[2147483647,0,0,1,1,2,2,3,3,5,5,6,6,7,7,10,10,13,13,14,14,16,16,18,18,19,19,21,21],"right_children":[2,4,6,8,-1,10,12,14,-1,-1,16,-1,-1,18,20,-1,22,-1,24,26,-1,28,-1,-1,-1,-1,-1,-1,-1],"split_conditions":[-1.5454318E-3,-2.5910547E-4,1.9280988E-5,8.5129943E-7,7.2807944E-3,-7.0954636E-2,9.8669654E-5,1.2891676E-1,-1.3356718E-2,8.115651E-3,-1.801176E-5,-4.415586E-3,1.9272984E-3,-1.2121302E-4,-9.581607E-6,4.0291552E-3,-4.7301342E-5,1.1433989E-3,-1.4300784E-4,-4.5188877E-5,-4.7467332E-3,-3.3624683E-2,1.7357453E-3,-6.024976E-4,-2.1810539E-3,-2.4517928E-3,-9.328869E-4,1.4933884E-3,3.3141486E-3],"split_indices":[1596,1986,1593,330,0,757,6,543,0,0,427,0,0,26,310,0,1960,0,6,54,0,141,0,0,0,0,0,0,0],"split_type":[0,0,0,0,0,0,0,0,0,0,0,0,0,0,0,0,0,0,0,0,0,0,0,0,0,0,0,0,0],"sum_hessian":[1.01E2,5.1E1,5E1,4.9E1,2E0,4.5E1,5E0,4.7E1,2E0,4E0,4.1E1,4E0,1E0,2.7E1,2E1,1.2E1,2.9E1,1E0,2.6E1,1E1,1E1,1E1,1.9E1,1E0,2.5E1,8E0,2E0,3E0,7E0],"tree_param":{"num_deleted":"0","num_feature":"2700","num_nodes":"29","size_leaf_vector":"0"}},{"base_weights":[-2.7615315E-4,2.0720724E-2,-3.1211654E-2,-2.7344601E-2,2.9301291E-2,-1.1608537E-1,-2.3271853E-2,-3.9533086E-2,1.0210057E-2,-2.0963555E-2,3.4347266E-2,3.4268897E-2,-2.766451E-2,-2.0619173E-2,-4.8563726E-2,2.7382206E-2,6.725085E-2,-2.153136E-2,-4.4905834E-2,2.2431597E-2,4.314304E-2,7.24352E-2,1.8072367E-2,-1.647037E-2,-2.739549E-2,-7.448209E-3,-4.9192894E-2,2.6209317E-2,1.5184806E-2,1.8469572E-2,4.828927E-2,1.2035239E-2,2.9186722E-2],"categories":[],"categories_nodes":[],"categories_segments":[],"categories_sizes":[],"default_left":[true,true,true,true,true,false,true,true,false,false,true,false,true,false,false,true,true,true,true,true,true,false,false,false,false,false,false,true,false,false,false,false,false],"id":30,"left_children":[1,3,5,7,9,-1,11,13,-1,-1,15,-1,17,-1,-1,19,21,23,25,27,29,-1,-1,-1,-1,-1,-1,31,-1,-1,-1,-1,-1],"loss_changes":[6.1054774E-2,2.389719E-2,2.2905935E-2,4.5232433E-3,1.289453E-2,0E0,1.0047279E-2,1.9428972E-4,0E0,0E0,8.242242E-3,0E0,2.628401E-3,0E0,0E0,1.99721E-3,4.7563761E-4,3.5010092E-4,9.182673E-4,4.5068376E-4,1.2392085E-4,0E0,0E0,0E0,0E0,0E0,0E0,4.5056827E-4,0E0,0E0,0E0,0E0,0E0],"parents":[2147483647,0,0,1,1,2,2,3,3,4,4,6,6,7,7,10,10,12,12,15,15,16,16,17,17,18,18,19,19,20,20,27,27],"right_children":[2,4,6,8,10,-1,12,14,-1,-1,16,-1,18,-1,-1,20,22,24,26,28,30,-1,-1,-1,-1,-1,-1,32,-1,-1,-1,-1,-1],"split_conditions":[2.4057306E-5,8.379775E-1,-5.4561204E-1,1.996858E-5,-7.5167033E-4,-1.1608537E-2,-8.006438E-6,-5.2873154E-5,1.0210057E-3,-2.0963557E-3,7.5823526E-5,3.4268897E-3,1.1611403E-2,-2.0619172E-3,-4.8563727E-3,8.686538E-2,2.0435413E-4,2.4063159E-3,-1.7288001E-4,-4.1426915E-6,-1.03786035E-4,7.24352E-3,1.8072367E-3,-1.6470371E-3,-2.7395491E-3,-7.448209E-4,-4.9192896E-3,9.1054005E-7,1.5184806E-3,1.8469573E-3,4.828927E-3,1.2035238E-3,2.9186723E-3],"split_indices":[1554,1397,2279,16,50,0,286,7,0,0,2022,0,628,0,0,2130,2,805,39,304,5,0,0,0,0,0,0,364,0,0,0,0,0],"split_type":[0,0,0,0,0,0,0,0,0,0,0,0,0,0,0,0,0,0,0,0,0,0,0,0,0,0,0,0,0,0,0,0,0],"sum_hessian":[9.2E1,5.5E1,3.7E1,8E0,4.7E1,2E0,3.5E1,6E0,2E0,4E0,4.3E1,2E0,3.3E1,3E0,3E0,3.7E1,6E0,2.6E1,7E0,3E1,7E0,5E0,1E0,1.6E1,1E1,1E0,6E0,1.8E1,1.2E1,2E0,5E0,4E0,1.4E1],"tree_param":{"num_deleted":"0","num_feature":"2700","num_nodes":"33","size_leaf_vector":"0"}},{"base_weights":[1.368697E-3,-2.005491E-2,2.5091203E-2,-1.3520055E-2,-1.2010589E-1,1.6805569E-2,7.752783E-2,2.565606E-2,-2.2976084E-2,2.4394978E-2,-1.7550115E-2,8.5236095E-2,1.9493252E-2,4.4065136E-2,-1.566048E-3,-4.84858E-2,-1.6095664E-2,1.9006858E-2,3.5425782E-2,1.8395046E-2,5.230142E-2,9.626885E-3,-1.2236965E-2,-5.7282824E-2,-1.4729823E-2,1.4890552E-2,-2.0883093E-2,2.2904737E-2,1.28754275E-2,3.8292196E-2,4.8140287E-3,-2.2028387E-2,5.5925846E-3,-2.7489066E-2,-1.5463196E-2,-2.8357074E-2,-8.102476E-3],"categories":[],"categories_nodes":[],"categories_segments":[],"categories_sizes":[],"default_left":[true,true,true,true,false,true,true,true,true,true,false,false,false,true,true,true,true,true,true,false,false,false,false,false,false,false,true,false,false,false,false,true,false,true,false,false,false],"id":31,"left_children":[1,3,5,7,-1,9,11,13,15,17,-1,-1,-1,19,21,23,25,27,29,-1,-1,-1,-1,-1,-1,-1,31,-1,-1,-1,-1,33,-1,35,-1,-1,-1],"loss_changes":[4.9292482E-2,3.172091E-2,1.8682752E-2,1.8741544E-2,0E0,1.1118447E-2,1.0225475E-3,5.0803474E-3,6.2402897E-3,1.3474692E-3,0E0,0E0,0E0,3.0647032E-4,7.1499817E-4,1.5318505E-3,5.2063223E-3,3.0258019E-4,6.9312006E-4,0E0,0E0,0E0,0E0,0E0,0E0,0E0,1.0025473E-3,0E0,0E0,0E0,0E0,5.787425E-4,0E0,5.8254227E-6,0E0,0E0,0E0],"parents":[2147483647,0,0,1,1,2,2,3,3,5,5,6,6,7,7,8,8,9,9,13,13,14,14,15,15,16,16,17,17,18,18,26,26,31,31,33,33],"right_children":[2,4,6,8,-1,10,12,14,16,18,-1,-1,-1,20,22,24,26,28,30,-1,-1,-1,-1,-1,-1,-1,32,-1,-1,-1,-1,34,-1,36,-1,-1,-1],"split_conditions":[-1.2905446E-5,9.0045364E-7,1.2322031E-3,7.877726E-3,-1.2010589E-2,2.402234E-4,1.2969493E-4,1.4014196E-4,5.0240883E-6,-1.6040305E-2,-1.7550115E-3,8.5236095E-3,1.9493252E-3,1.5162848E-5,3.1220465E-4,2.3997982E-4,1.15235284E-1,9.982521E-6,4.9876573E-5,1.8395046E-3,5.2301423E-3,9.6268853E-4,-1.2236965E-3,-5.7282825E-3,-1.4729823E-3,1.4890552E-3,2.0132507E-7,2.2904738E-3,1.2875427E-3,3.8292196E-3,4.8140288E-4,8.976726E-2,5.5925845E-4,2.1655583E-6,-1.5463196E-3,-2.8357075E-3,-8.1024755E-4],"split_indices":[1902,330,8,1225,0,1579,2,1,2484,2294,0,0,0,4,1,2,771,2590,4,0,0,0,0,0,0,0,128,0,0,0,0,683,0,11,0,0,0],"split_type":[0,0,0,0,0,0,0,0,0,0,0,0,0,0,0,0,0,0,0,0,0,0,0,0,0,0,0,0,0,0,0,0,0,0,0,0,0],"sum_hessian":[9.5E1,5E1,4.5E1,4.8E1,2E0,4E1,5E0,9E0,3.9E1,3.3E1,7E0,4E0,1E0,5E0,4E0,7E0,3.2E1,2.4E1,9E0,2E0,3E0,2E0,2E0,5E0,2E0,4E0,2.8E1,1.3E1,1.1E1,8E0,1E0,2.7E1,1E0,1.3E1,1.4E1,1.2E1,1E0],"tree_param":{"num_deleted":"0","num_feature":"2700","num_nodes":"37","size_leaf_vector":"0"}},{"base_weights":[9.970577E-4,1.6227296E-2,-2.089757E-2,2.4614869E-2,-3.030946E-2,-2.4692087E-2,6.1647058E-2,8.7192334E-2,1.9998625E-2,-5.7300128E-2,-1.9773109E-2,-1.748398E-2,-4.312639E-2,2.3028111E-2,-1.7568007E-2,-3.0093916E-2,-1.42626325E-2,-5.563049E-2,-1.9496193E-2,1.8546153E-2,3.5963953E-2,-2.7754683E-2,6.496012E-3,-1.5160093E-2,-7.640773E-3,1.1448907E-2,2.23945E-2,9.555489E-3,3.7836507E-2,2.7254533E-2,1.5498606E-2,2.8419262E-2,7.803619E-3],"categories":[],"categories_nodes":[],"categories_segments":[],"categories_sizes":[],"default_left":[true,true,true,true,true,true,false,false,true,false,false,true,true,true,true,false,true,false,false,true,true,false,false,false,false,false,true,false,false,true,false,false,false],"id":32,"left_children":[1,3,5,7,9,11,-1,-1,13,-1,-1,15,17,19,21,-1,23,-1,-1,25,27,-1,-1,-1,-1,-1,29,-1,-1,31,-1,-1,-1],"loss_changes":[3.1684387E-2,2.260457E-2,1.373766E-2,1.2122175E-2,1.4264463E-3,4.295282E-3,0E0,0E0,5.639706E-3,0E0,0E0,7.4878987E-4,1.8701609E-3,1.8260553E-3,1.1608244E-3,0E0,3.2736454E-5,0E0,0E0,6.7223795E-4,1.3296586E-4,0E0,0E0,0E0,0E0,0E0,2.8139353E-4,0E0,0E0,2.7432106E-5,0E0,0E0,0E0],"parents":[2147483647,0,0,1,1,2,2,3,3,4,4,5,5,8,8,11,11,12,12,13,13,14,14,16,16,19,19,20,20,26,26,29,29],"right_children":[2,4,6,8,10,12,-1,-1,14,-1,-1,16,18,20,22,-1,24,-1,-1,26,28,-1,-1,-1,-1,-1,30,-1,-1,32,-1,-1,-1],"split_conditions":[2.2129989E-5,2.3611276E-5,1.8120254E-4,-4.223402E-4,9.481969E-4,-4.398776E-3,6.164706E-3,8.719234E-3,3.879486E-2,-5.730013E-3,-1.977311E-3,-2.8378618E-4,-7.984041E-6,1.9155441E-4,9.0117195E-5,-3.0093917E-3,-2.0992996E-2,-5.563049E-3,-1.9496194E-3,-2.7544754E-2,-2.6484072E-6,-2.7754684E-3,6.496012E-4,-1.5160093E-3,-7.640773E-4,1.1448907E-3,-5.285253E-3,9.555489E-4,3.7836507E-3,1.3474351E-5,1.5498606E-3,2.8419262E-3,7.803619E-4],"split_indices":[1554,2663,52,1164,8,699,0,0,1416,0,0,1562,64,1495,4,0,1050,0,0,1001,11,0,0,0,0,0,1832,0,0,5,0,0,0],"split_type":[0,0,0,0,0,0,0,0,0,0,0,0,0,0,0,0,0,0,0,0,0,0,0,0,0,0,0,0,0,0,0,0,0],"sum_hessian":[9.3E1,5.5E1,3.8E1,4.7E1,8E0,3.7E1,1E0,2E0,4.5E1,1E0,7E0,2.8E1,9E0,4.2E1,3E0,4E0,2.4E1,5E0,4E0,3.3E1,9E0,2E0,1E0,2E1,4E0,1.3E1,2E1,1E0,8E0,1E1,1E1,9E0,1E0],"tree_param":{"num_deleted":"0","num_feature":"2700","num_nodes":"33","size_leaf_vector":"0"}},{"base_weights":[1.6938575E-3,5.198857E-3,-8.898334E-2,1.8681323E-2,-1.5644906E-2,-1.0833448E-1,-1.5464964E-2,-2.1698881E-2,2.4949333E-2,5.0877888E-2,-2.0360893E-2,-3.1144323E-2,7.573446E-3,7.5192116E-2,1.9534368E-2,-1.55591145E-2,-3.7022892E-2,-1.5733145E-2,-3.876942E-2,-1.3838392E-2,2.2669036E-2,-1.9284759E-2,-1.1590017E-2,1.8985426E-2,4.9814273E-2,-2.1407263E-2,-8.096055E-3,2.9410707E-2,1.57622E-2,5.7691947E-2,9.151787E-3,1.9294348E-2,9.76638E-3,9.863247E-3,2.1625113E-2,4.760653E-3,1.062109E-2],"categories":[],"categories_nodes":[],"categories_segments":[],"categories_sizes":[],"default_left":[true,true,true,true,true,false,false,true,true,false,true,true,false,false,true,true,false,false,false,false,true,true,false,true,true,false,false,false,true,false,false,true,true,false,false,false,false],"id":33,"left_children":[1,3,5,7,9,-1,-1,11,13,-1,15,17,-1,-1,19,21,-1,-1,-1,-1,23,25,-1,27,29,-1,-1,-1,31,-1,-1,33,35,-1,-1,-1,-1],"loss_changes":[3.4151904E-2,2.923788E-2,4.0152706E-3,1.6486894E-2,1.3898465E-2,0E0,0E0,2.72428E-3,1.3494629E-2,0E0,2.5442373E-3,2.1261722E-4,0E0,0E0,5.6489427E-3,2.4968805E-4,0E0,0E0,0E0,0E0,3.7538987E-3,1.829071E-4,0E0,9.813542E-4,1.0736445E-3,0E0,0E0,0E0,5.527986E-4,0E0,0E0,2.4832226E-4,1.3613491E-5,0E0,0E0,0E0,0E0],"parents":[2147483647,0,0,1,1,2,2,3,3,4,4,7,7,8,8,10,10,11,11,14,14,15,15,20,20,21,21,23,23,24,24,28,28,31,31,32,32],"right_children":[2,4,6,8,10,-1,-1,12,14,-1,16,18,-1,-1,20,22,-1,-1,-1,-1,24,26,-1,28,30,-1,-1,-1,32,-1,-1,34,36,-1,-1,-1,-1],"split_conditions":[1.91253E-5,2.5873735E-5,1.0895578E-3,8.379775E-1,-1.443405E-5,-1.0833449E-2,-1.5464964E-3,5.452941E-3,-2.7257577E-4,5.0877887E-3,-1.993303E-1,-5.2873154E-5,7.573446E-4,7.5192116E-3,-1.6013229E-3,7.2208224E-3,-3.7022892E-3,-1.5733145E-3,-3.876942E-3,-1.3838392E-3,3.916346E-5,-3.855229E-3,-1.1590017E-3,-1.8589726E-5,2.1358588E-4,-2.1407264E-3,-8.096055E-4,2.9410708E-3,-2.3390603E-6,5.7691946E-3,9.151787E-4,-4.4897728E-2,1.01474896E-7,9.863247E-4,2.1625112E-3,4.760653E-4,1.062109E-3],"split_indices":[2457,1959,8,1397,277,0,0,144,2640,0,786,7,0,0,114,1440,0,0,0,0,1492,1620,0,427,1,0,0,0,322,0,0,1355,495,0,0,0,0],"split_type":[0,0,0,0,0,0,0,0,0,0,0,0,0,0,0,0,0,0,0,0,0,0,0,0,0,0,0,0,0,0,0,0,0,0,0,0,0],"sum_hessian":[1.05E2,1.02E2,3E0,6.2E1,4E1,2E0,1E0,8E0,5.4E1,2E0,3.8E1,6E0,2E0,4E0,5E1,3.1E1,7E0,3E0,3E0,4E0,4.6E1,1.4E1,1.7E1,4.2E1,4E0,1.1E1,3E0,8E0,3.4E1,3E0,1E0,2E1,1.4E1,5E0,1.5E1,3E0,1.1E1],"tree_param":{"num_deleted":"0","num_feature":"2700","num_nodes":"37","size_leaf_vector":"0"}},{"base_weights":[-9.1136846E-4,2.6368666E-3,-8.3179995E-2,-1.6555617E-2,1.680469E-2,-1.4691716E-2,-1.0111218E-1,-3.0882386E-2,-1.362658E-2,8.0006465E-2,1.0148418E-2,-3.3669665E-2,-8.472996E-3,-1.5231873E-2,-7.296638E-3,1.6508223E-2,-2.5304094E-2,-6.56363E-3,-1.604192E-2,-1.8198295E-3,-7.7537606E-3,1.8098902E-2,-1.0733785E-2,-3.50706E-2,2.6636242E-3,-8.094916E-3,-1.6791733E-2,2.210771E-2,1.1138958E-2,-6.5897526E-3,1.0585189E-2,2.7661758E-2,1.3785675E-2,1.3245675E-2,6.2371236E-3,3.0545896E-2,1.2814939E-2,6.6486597E-3,1.65231E-2],"categories":[],"categories_nodes":[],"categories_segments":[],"categories_sizes":[],"default_left":[true,true,true,true,true,false,false,true,true,false,true,false,false,true,true,true,true,false,true,false,false,true,false,false,true,false,false,true,true,false,false,true,true,false,false,false,false,false,false],"id":34,"left_children":[1,3,5,7,9,-1,-1,11,13,-1,15,-1,-1,17,19,21,23,-1,25,-1,-1,27,-1,-1,29,-1,-1,31,33,-1,-1,35,37,-1,-1,-1,-1,-1,-1],"loss_changes":[2.8242545E-2,2.5566371E-2,3.427066E-3,1.2577232E-3,2.1905227E-2,0E0,0E0,8.948473E-5,2.4450803E-4,0E0,1.1691282E-2,0E0,0E0,8.429168E-5,8.42163E-6,2.0576008E-3,2.278591E-3,0E0,7.082708E-6,0E0,0E0,8.976869E-4,0E0,0E0,2.8965744E-4,0E0,0E0,7.7418797E-4,9.2940405E-5,0E0,0E0,2.080407E-4,1.2458814E-4,0E0,0E0,0E0,0E0,0E0,0E0],"parents":[2147483647,0,0,1,1,2,2,3,3,4,4,7,7,8,8,10,10,13,13,14,14,15,15,16,16,18,18,21,21,24,24,27,27,28,28,31,31,32,32],"right_children":[2,4,6,8,10,-1,-1,12,14,-1,16,-1,-1,18,20,22,24,-1,26,-1,-1,28,-1,-1,30,-1,-1,32,34,-1,-1,36,38,-1,-1,-1,-1,-1,-1],"split_conditions":[2.0841297E-5,-9.285279E-4,5.6113146E-5,-3.8875323E-2,-2.7257577E-4,-1.4691716E-3,-1.0111218E-2,4.716911E-6,-1.6238353E-8,8.000647E-3,2.8875918E-4,-3.3669665E-3,-8.472996E-4,-2.860084E-5,-1.0453763E-5,8.804758E-2,-2.2576856E-7,-6.5636303E-4,-4.4293172E-4,-1.8198295E-4,-7.7537604E-4,-3.0876163E-5,-1.0733785E-3,-3.5070602E-3,3.8913226E-5,-8.094916E-4,-1.6791733E-3,-7.4743116E-7,6.932951E-1,-6.589753E-4,1.0585189E-3,2.0015295E-7,-2.3417406E-6,1.3245675E-3,6.237124E-4,3.0545897E-3,1.2814939E-3,6.64866E-4,1.65231E-3],"split_indices":[2457,1987,2,2067,2640,0,0,0,391,0,1495,0,0,1812,13,550,35,0,2413,0,0,1562,0,0,0,0,0,323,2081,0,0,525,29,0,0,0,0,0,0],"split_type":[0,0,0,0,0,0,0,0,0,0,0,0,0,0,0,0,0,0,0,0,0,0,0,0,0,0,0,0,0,0,0,0,0,0,0,0,0,0,0],"sum_hessian":[9.5E1,9.2E1,3E0,3.9E1,5.3E1,1E0,2E0,5E0,3.4E1,4E0,4.9E1,4E0,1E0,2.6E1,8E0,4.2E1,7E0,3E0,2.3E1,1E0,7E0,4E1,2E0,5E0,2E0,3E0,2E1,2.4E1,1.6E1,1E0,1E0,1.3E1,1.1E1,1E1,6E0,1E1,3E0,4E0,7E0],"tree_param":{"num_deleted":"0","num_feature":"2700","num_nodes":"39","size_leaf_vector":"0"}},{"base_weights":[5.968466E-4,1.3803624E-2,-1.939794E-2,8.0626704E-2,1.004445E-2,-1.3198906E-2,-8.938672E-2,-1.533197E-2,1.5121945E-2,5.202046E-2,-1.6455568E-2,-3.787417E-2,1.8249476E-2,-3.6762822E-2,-1.2768323E-2,1.1583001E-2,2.4995493E-2,-9.68152E-3,-4.1112766E-2,-1.712885E-2,-9.295564E-3,1.6809914E-2,9.047665E-3,3.62498E-2,1.7326828E-2,-1.899673E-2,-8.176938E-3,-1.02008255E-2,-4.5396173E-3,1.0117612E-2,5.043179E-3,6.9568516E-3,2.0465286E-2],"categories":[],"categories_nodes":[],"categories_segments":[],"categories_sizes":[],"default_left":[true,true,true,false,true,true,false,false,true,false,true,false,true,true,true,true,true,false,false,true,true,false,true,false,true,false,false,false,false,false,false,false,false],"id":35,"left_children":[1,3,5,-1,7,9,-1,-1,11,-1,13,-1,15,17,19,21,23,-1,-1,25,27,-1,29,-1,31,-1,-1,-1,-1,-1,-1,-1,-1],"loss_changes":[2.5882231E-2,1.4010922E-2,1.5740842E-2,0E0,7.576221E-3,8.71473E-3,0E0,0E0,8.647038E-3,0E0,2.2262018E-3,0E0,1.7791959E-3,1.90977E-4,3.2535568E-4,1.7920905E-4,1.2706276E-3,0E0,0E0,6.2039355E-5,3.9799488E-5,0E0,3.0382187E-5,0E0,3.4581218E-4,0E0,0E0,0E0,0E0,0E0,0E0,0E0,0E0],"parents":[2147483647,0,0,1,1,2,2,4,4,5,5,8,8,10,10,12,12,13,13,14,14,15,15,16,16,19,19,20,20,22,22,24,24],"right_children":[2,4,6,-1,8,10,-1,-1,12,-1,14,-1,16,18,20,22,24,-1,-1,26,28,-1,30,-1,32,-1,-1,-1,-1,-1,-1,-1,-1],"split_conditions":[2.4057306E-5,-6.126341E-6,2.0900367E-5,8.062671E-3,-5.1765016E-4,-1.7164362E-4,-8.938672E-3,-1.533197E-3,-4.5348883E-2,5.202046E-3,4.9861153E-3,-3.787417E-3,5.524426E-2,-1.125385E-5,4.1852523E-5,-2.1218847E-8,1.9661862E-1,-9.68152E-4,-4.1112765E-3,4.835348E-2,-2.412573E-2,1.6809915E-3,1.1694752E-1,3.62498E-3,8.2896295E-5,-1.899673E-3,-8.1769377E-4,-1.0200826E-3,-4.5396175E-4,1.0117613E-3,5.0431787E-4,6.9568516E-4,2.0465287E-3],"split_indices":[1554,2439,17,0,1940,75,0,0,773,0,985,0,781,29,1962,281,2247,0,0,2370,1883,0,2059,0,904,0,0,0,0,0,0,0,0],"split_type":[0,0,0,0,0,0,0,0,0,0,0,0,0,0,0,0,0,0,0,0,0,0,0,0,0,0,0,0,0,0,0,0,0],"sum_hessian":[9.6E1,5.8E1,3.8E1,2E0,5.6E1,3.6E1,2E0,9E0,4.7E1,1E0,3.5E1,2E0,4.5E1,4E0,3.1E1,2.4E1,2.1E1,1E0,3E0,1.2E1,1.9E1,6E0,1.8E1,7E0,1.4E1,9E0,3E0,1.5E1,4E0,1.3E1,5E0,4E0,1E1],"tree_param":{"num_deleted":"0","num_feature":"2700","num_nodes":"33","size_leaf_vector":"0"}},{"base_weights":[-2.2875809E-3,-9.2600144E-2,8.894571E-4,1.0722463E-2,-1.6902084E-2,-1.2865395E-2,1.7447911E-2,-9.03526E-3,-3.8389795E-2,-1.6029185E-2,-6.502777E-3,4.1317146E-2,1.259179E-2,1.5661797E-2,-1.1992347E-2,-2.0227276E-2,-4.524185E-2,4.5519143E-2,8.0525875E-3,2.0335503E-2,9.84895E-3,-1.7233267E-2,-7.038382E-3,2.3149738E-2,6.9904528E-3,1.4041748E-2,7.6860352E-3,-1.983141E-2,-8.3782E-3,-1.5018571E-3,-7.374604E-3,1.49187E-2,3.513068E-3,3.633529E-3,8.664212E-3,2.2075474E-3,8.929782E-3],"categories":[],"categories_nodes":[],"categories_segments":[],"categories_sizes":[],"default_left":[true,false,true,true,true,true,true,true,true,false,false,true,true,false,true,false,false,false,false,true,true,true,true,false,false,true,true,false,false,false,false,false,false,false,true,false,false],"id":36,"left_children":[1,-1,3,5,7,9,11,13,15,-1,-1,17,19,-1,21,-1,-1,-1,-1,23,25,27,29,-1,-1,31,33,-1,-1,-1,-1,-1,-1,-1,35,-1,-1],"loss_changes":[2.533189E-2,0E0,1.5226445E-2,9.108253E-3,4.8933793E-3,1.5745568E-4,4.5798663E-3,1.9405738E-3,8.048583E-5,0E0,0E0,6.118957E-4,6.0682744E-4,0E0,4.4989912E-4,0E0,0E0,0E0,0E0,1.7617783E-4,1.6413443E-4,6.391574E-5,1.3123907E-5,0E0,0E0,3.0687894E-5,5.572778E-5,0E0,0E0,0E0,0E0,0E0,0E0,0E0,9.436975E-6,0E0,0E0],"parents":[2147483647,0,0,2,2,3,3,4,4,5,5,6,6,7,7,8,8,11,11,12,12,14,14,19,19,20,20,21,21,22,22,25,25,26,26,34,34],"right_children":[2,-1,4,6,8,10,12,14,16,-1,-1,18,20,-1,22,-1,-1,-1,-1,24,26,28,30,-1,-1,32,34,-1,-1,-1,-1,-1,-1,-1,36,-1,-1],"split_conditions":[-4.4554356E-5,-9.260015E-3,1.7211896E-1,-9.642368E-4,1.915787E-1,-1.5443824E-3,-5.084335E-5,-2.877427E-3,-3.8676367E-6,-1.6029185E-3,-6.502777E-4,1.0035283E-4,-3.0814263E-4,1.5661797E-3,4.690739E-4,-2.0227276E-3,-4.5241853E-3,4.5519145E-3,8.0525875E-4,-2.6051278E-4,-3.0907204E-6,-4.414856E-3,-2.3028217E-5,2.3149739E-3,6.990453E-4,1.2911867E-5,2.0738095E-3,-1.983141E-3,-8.3782006E-4,-1.501857E-4,-7.3746045E-4,1.49187E-3,3.513068E-4,3.633529E-4,-3.607343E-4,2.2075475E-4,8.9297816E-4],"split_indices":[493,0,744,1582,138,638,350,152,7,0,0,2,19,0,1580,0,0,0,0,40,340,210,0,0,0,5,983,0,0,0,0,0,0,0,40,0,0],"split_type":[0,0,0,0,0,0,0,0,0,0,0,0,0,0,0,0,0,0,0,0,0,0,0,0,0,0,0,0,0,0,0,0,0,0,0,0,0],"sum_hessian":[8.7E1,2E0,8.5E1,5.5E1,3E1,1.2E1,4.3E1,2.3E1,7E0,7E0,5E0,6E0,3.7E1,2E0,2.1E1,3E0,4E0,5E0,1E0,8E0,2.9E1,9E0,1.2E1,6E0,2E0,8E0,2.1E1,6E0,3E0,1E0,1.1E1,7E0,1E0,5E0,1.6E1,1E0,1.5E1],"tree_param":{"num_deleted":"0","num_feature":"2700","num_nodes":"37","size_leaf_vector":"0"}},{"base_weights":[2.6261797E-3,-5.257158E-2,6.3178693E-3,-8.64268E-2,-1.403727E-2,1.6718484E-2,-9.458548E-3,1.1576294E-2,4.959086E-2,1.6870152E-2,-1.3276828E-2,3.9502364E-2,7.4104173E-3,1.0341436E-2,5.440886E-2,1.9805804E-2,2.5637746E-3,-9.288255E-3,-3.2957472E-2,4.3478537E-2,9.810746E-3,9.6975695E-3,-1.7313711E-2,-1.0643054E-2,5.549411E-3,-3.9780443E-3,-3.920782E-2,-9.716751E-3,1.2124626E-2,-2.3894303E-2,-7.155414E-3,-6.8011563E-3,-1.34503115E-2,-8.225888E-4,-1.1734644E-2,1.6206428E-2,8.437319E-3,-7.130125E-3,-1.4267642E-3,-1.3994363E-2,-3.1888192E-3,1.0705405E-2,2.0369276E-2,1.1097296E-2,5.0103124E-3,5.2827E-3,1.1432171E-3],"categories":[],"categories_nodes":[],"categories_segments":[],"categories_sizes":[],"default_left":[true,true,true,false,false,true,true,true,true,true,true,true,true,false,false,false,false,true,true,false,false,true,true,true,false,false,false,true,true,false,false,true,true,false,false,true,true,false,false,false,false,false,false,false,true,false,false],"id":37,"left_children":[1,3,5,-1,-1,7,9,11,13,15,17,19,21,-1,-1,-1,-1,23,25,-1,-1,27,29,31,-1,-1,-1,33,35,-1,-1,37,39,-1,-1,41,43,-1,-1,-1,-1,-1,-1,-1,45,-1,-1],"loss_changes":[1.9486804E-2,6.6143274E-3,1.4761648E-2,0E0,0E0,8.553866E-3,3.843075E-3,5.2914256E-3,7.610619E-4,1.5921507E-4,2.2058086E-3,2.8179772E-4,2.5994584E-3,0E0,0E0,0E0,0E0,6.2191975E-4,7.4968673E-4,0E0,0E0,2.0025983E-3,9.64168E-5,1.8893741E-4,0E0,0E0,0E0,8.0084574E-5,4.0509226E-4,0E0,0E0,1.2811157E-5,3.3533433E-5,0E0,0E0,1.4833733E-4,1.3583002E-4,0E0,0E0,0E0,0E0,0E0,0E0,0E0,5.5475975E-6,0E0,0E0],"parents":[2147483647,0,0,1,1,2,2,5,5,6,6,7,7,8,8,9,9,10,10,11,11,12,12,17,17,18,18,21,21,22,22,23,23,27,27,28,28,31,31,32,32,35,35,36,36,44,44],"right_children":[2,4,6,-1,-1,8,10,12,14,16,18,20,22,-1,-1,-1,-1,24,26,-1,-1,28,30,32,-1,-1,-1,34,36,-1,-1,38,40,-1,-1,42,44,-1,-1,-1,-1,-1,-1,-1,46,-1,-1],"split_conditions":[-3.1589763E-4,-1.35384835E-5,8.0515165E-5,-8.64268E-3,-1.403727E-3,-1.4307974E-2,-2.0585716E-2,-1.6843597E-6,-5.530857E-5,3.6680383E-5,3.6740556E-5,1.9069402E-4,8.386577E-3,1.0341436E-3,5.440886E-3,1.9805804E-3,2.5637748E-4,-2.2097625E-5,-6.813337E-6,4.347854E-3,9.810746E-4,-4.878157E-4,1.6071554E-5,4.45169E-4,5.5494107E-4,-3.9780443E-4,-3.920782E-3,1.9192246E-5,-2.0055883E-2,-2.3894303E-3,-7.155414E-4,2.6994824E-4,1.0704039E-5,-8.2258885E-5,-1.1734645E-3,-1.4392338E-3,1.3579178E-1,-7.1301253E-4,-1.4267642E-4,-1.3994364E-3,-3.188819E-4,1.0705405E-3,2.0369277E-3,1.1097296E-3,5.745281E-5,5.2827003E-4,1.1432171E-4],"split_indices":[1119,0,1518,0,0,2028,1879,390,2,2,2670,2,160,0,0,0,0,381,4,0,0,86,0,2575,0,0,0,2,784,0,0,10,12,0,0,555,1670,0,0,0,0,0,0,0,4,0,0],"split_type":[0,0,0,0,0,0,0,0,0,0,0,0,0,0,0,0,0,0,0,0,0,0,0,0,0,0,0,0,0,0,0,0,0,0,0,0,0,0,0,0,0,0,0,0,0,0,0],"sum_hessian":[9.3E1,5E0,8.8E1,2E0,3E0,5.3E1,3.5E1,4.7E1,6E0,4E0,3.1E1,5E0,4.2E1,1E0,5E0,3E0,1E0,2.7E1,4E0,4E0,1E0,3.9E1,3E0,2.5E1,2E0,1E0,3E0,4E0,3.5E1,1E0,2E0,1.2E1,1.3E1,1E0,3E0,1.5E1,2E1,1.1E1,1E0,1.2E1,1E0,8E0,7E0,1E1,1E1,9E0,1E0],"tree_param":{"num_deleted":"0","num_feature":"2700","num_nodes":"47","size_leaf_vector":"0"}},{"base_weights":[-1.0598532E-3,-6.637449E-2,1.7307679E-3,-7.525345E-2,-1.9868795E-2,1.007376E-2,-1.3996392E-2,-1.9121125E-2,1.7462956E-2,-3.677392E-2,-9.586598E-3,-1.0861809E-2,-3.4989133E-2,5.651912E-2,1.18674E-2,9.824365E-3,-1.0630717E-2,-1.3337234E-2,-3.8143648E-3,6.647508E-2,3.3696592E-3,-1.0235334E-2,1.3689865E-2,-8.085479E-3,-1.5983123E-2,-7.814594E-4,-4.564847E-3,1.1095281E-2,3.0670738E-2,-3.3083945E-3,-9.014888E-3,1.6209396E-2,8.689904E-3,9.105623E-3,3.378561E-2,-1.0402798E-2,-6.1531393E-3,1.0011399E-2,3.2952172E-3,1.3686187E-2,6.933936E-3,3.7768483E-3,1.394093E-3,7.1853125E-3,1.8330216E-3],"categories":[],"categories_nodes":[],"categories_segments":[],"categories_sizes":[],"default_left":[true,true,true,false,false,true,true,true,true,false,true,true,false,true,true,false,true,false,true,false,false,false,true,true,false,false,false,true,true,false,true,false,true,false,false,false,false,true,true,false,true,false,false,false,false],"id":38,"left_children":[1,3,5,-1,-1,7,9,11,13,-1,15,17,-1,19,21,-1,23,-1,25,-1,-1,-1,27,29,-1,-1,-1,31,33,-1,35,-1,37,-1,-1,-1,-1,39,41,-1,43,-1,-1,-1,-1],"loss_changes":[1.779491E-2,1.5649572E-4,1.2474882E-2,0E0,0E0,1.3708968E-2,2.9621222E-3,1.3237204E-3,1.0256309E-2,0E0,6.921934E-4,1.2358115E-4,0E0,2.9509254E-3,1.9527865E-3,0E0,2.5221682E-4,0E0,5.5373202E-6,0E0,0E0,0E0,1.5101498E-3,6.341247E-5,0E0,0E0,0E0,3.2659434E-4,2.822373E-5,0E0,3.5115518E-6,0E0,1.6662385E-4,0E0,0E0,0E0,0E0,1.5389943E-4,1.1442098E-6,0E0,4.7806534E-6,0E0,0E0,0E0,0E0],"parents":[2147483647,0,0,1,1,2,2,5,5,6,6,7,7,8,8,10,10,11,11,13,13,14,14,16,16,18,18,22,22,23,23,27,27,28,28,30,30,32,32,37,37,38,38,40,40],"right_children":[2,4,6,-1,-1,8,10,12,14,-1,16,18,-1,20,22,-1,24,-1,26,-1,-1,-1,28,30,-1,-1,-1,32,34,-1,36,-1,38,-1,-1,-1,-1,40,42,-1,44,-1,-1,-1,-1],"split_conditions":[-7.5973105E-3,8.996653E-5,1.7252754E-1,-7.525345E-3,-1.9868796E-3,-8.079201E-4,-3.434508E-6,9.681101E-2,-1.2852608E-4,-3.6773921E-3,-2.5886807E-4,-1.0594065E-2,-3.4989135E-3,-1.2086548E-4,-1.0371183E-3,9.824366E-4,1.5529651E-2,-1.3337234E-3,3.947948E-5,6.647508E-3,3.3696592E-4,-1.0235334E-3,-1.912421E-2,-2.0114036E-2,-1.5983124E-3,-7.814594E-5,-4.564847E-4,1.1026912E-1,1.8949253E-5,-3.3083945E-4,-1.5091778E-4,1.6209396E-3,2.944637E-4,9.105623E-4,3.3785612E-3,-1.0402797E-3,-6.1531394E-4,-1.9604114E-3,-3.7846982E-4,1.3686187E-3,2.7352668E-4,3.7768483E-4,1.3940931E-4,7.1853126E-4,1.8330217E-4],"split_indices":[2258,9,744,0,0,1574,323,588,1155,0,77,545,0,34,1987,0,1825,0,2,0,0,0,755,1761,0,0,0,1805,1,0,1539,0,1679,0,0,0,0,600,89,0,45,0,0,0,0],"split_type":[0,0,0,0,0,0,0,0,0,0,0,0,0,0,0,0,0,0,0,0,0,0,0,0,0,0,0,0,0,0,0,0,0,0,0,0,0,0,0,0,0,0,0,0,0],"sum_hessian":[9.6E1,3E0,9.3E1,2E0,1E0,6.1E1,3.2E1,1.2E1,4.9E1,4E0,2.8E1,9E0,3E0,5E0,4.4E1,1E0,2.7E1,6E0,3E0,4E0,1E0,3E0,4.1E1,2E1,7E0,1E0,2E0,3.7E1,4E0,4E0,1.6E1,1E1,2.7E1,1E0,3E0,9E0,7E0,2.1E1,6E0,8E0,1.3E1,4E0,2E0,1.2E1,1E0],"tree_param":{"num_deleted":"0","num_feature":"2700","num_nodes":"45","size_leaf_vector":"0"}},{"base_weights":[1.632601E-3,-4.2961462E-4,6.77667E-2,-9.8182885E-3,9.767236E-3,-1.2670795E-2,2.6866361E-2,-2.0900747E-2,1.23332525E-2,-9.156045E-3,-3.5748046E-2,2.5866697E-2,9.51569E-3,-1.11543955E-2,1.3116479E-2,-6.986015E-3,-4.0103246E-2,2.807641E-2,6.3042045E-3,5.080714E-3,1.416118E-2,-2.2997102E-2,-7.945424E-3,6.585187E-3,-6.141188E-3,1.6858062E-2,3.777671E-3,-6.6223075E-3,-2.735165E-2,4.115793E-3,-8.856335E-3,7.0040636E-3,3.263384E-3,1.8546425E-2,8.000553E-3,6.916076E-3,-7.4238644E-4,-6.6352184E-3,-1.1820167E-2,-7.1821795E-3,-2.651829E-3,-3.5266168E-3,-1.3126216E-2],"categories":[],"categories_nodes":[],"categories_segments":[],"categories_sizes":[],"default_left":[true,true,false,true,true,true,false,false,true,true,true,true,true,true,false,false,false,false,false,true,true,true,true,true,false,true,false,false,false,true,true,false,false,false,false,false,false,true,true,false,false,false,false],"id":39,"left_children":[1,3,-1,5,7,9,-1,-1,11,13,15,17,19,21,-1,-1,-1,-1,-1,23,25,27,29,31,-1,33,-1,-1,-1,35,37,-1,-1,-1,-1,-1,-1,39,41,-1,-1,-1,-1],"loss_changes":[1.3531009E-2,9.382184E-3,0E0,5.6772213E-3,3.956417E-3,3.5660071E-3,0E0,0E0,1.4316384E-3,2.0601645E-3,4.7142524E-4,1.255935E-4,7.1095093E-4,1.3373946E-3,0E0,0E0,0E0,0E0,0E0,3.9498496E-4,4.4037215E-4,3.8930727E-4,3.9901165E-4,3.5801204E-6,0E0,6.0983934E-5,0E0,0E0,0E0,4.5947232E-5,1.2564403E-4,0E0,0E0,0E0,0E0,0E0,0E0,2.452929E-5,8.369028E-5,0E0,0E0,0E0,0E0],"parents":[2147483647,0,0,1,1,3,3,4,4,5,5,8,8,9,9,10,10,11,11,12,12,13,13,19,19,20,20,21,21,22,22,23,23,25,25,29,29,30,30,37,37,38,38],"right_children":[2,4,-1,6,8,10,-1,-1,12,14,16,18,20,22,-1,-1,-1,-1,-1,24,26,28,30,32,-1,34,-1,-1,-1,36,38,-1,-1,-1,-1,-1,-1,40,42,-1,-1,-1,-1],"split_conditions":[2.0760663E-2,-7.618932E-4,6.7766705E-3,2.0687232E-5,-8.7379865E-2,-8.168779E-4,2.6866363E-3,-2.0900748E-3,-1.2532409E-5,-9.005448E-4,5.0493254E-5,6.581938E-5,-8.048974E-3,7.83351E-3,1.3116479E-3,-6.9860154E-4,-4.010325E-3,2.8076412E-3,6.3042046E-4,4.225276E-5,-2.8874304E-2,1.8519208E-4,1.1095269E-2,2.1586924E-7,-6.141188E-4,1.7168547E-6,3.777671E-4,-6.6223077E-4,-2.735165E-3,-7.2151626E-5,5.8750637E-2,7.004064E-4,3.2633843E-4,1.8546425E-3,8.000553E-4,6.916076E-4,-7.423865E-5,2.5996288E-2,-1.5075195E-6,-7.18218E-4,-2.651829E-4,-3.5266168E-4,-1.3126216E-3],"split_indices":[727,1582,0,2473,1644,1582,0,0,304,1582,8,1,1232,2328,0,0,0,0,0,105,2153,10,574,464,0,336,0,0,0,2,955,0,0,0,0,0,0,1003,118,0,0,0,0],"split_type":[0,0,0,0,0,0,0,0,0,0,0,0,0,0,0,0,0,0,0,0,0,0,0,0,0,0,0,0,0,0,0,0,0,0,0,0,0,0,0,0,0,0,0],"sum_hessian":[9.8E1,9.6E1,2E0,5E1,4.6E1,4.7E1,3E0,3E0,4.3E1,4.2E1,5E0,6E0,3.7E1,3.9E1,3E0,1E0,4E0,5E0,1E0,2E1,1.7E1,7E0,3.2E1,1.8E1,2E0,1.3E1,4E0,2E0,5E0,2E0,3E1,1.5E1,3E0,1E1,3E0,1E0,1E0,1.9E1,1.1E1,1.6E1,3E0,2E0,9E0],"tree_param":{"num_deleted":"0","num_feature":"2700","num_nodes":"43","size_leaf_vector":"0"}},{"base_weights":[6.479539E-5,6.682035E-3,-1.1561836E-2,-1.2562537E-2,1.3222355E-2,1.309699E-2,-1.4947663E-2,-2.7836505E-2,-7.301222E-3,9.7990865E-3,3.61226E-2,1.7213836E-2,-1.6851964E-3,-3.5469845E-2,-1.08939195E-2,9.188684E-4,-8.74781E-3,1.1829165E-2,-2.6212067E-3,4.1900933E-2,3.6154687E-3,-7.4541382E-3,-1.770964E-2,-7.052671E-4,2.0835698E-3,-4.500715E-3,-9.663428E-3,1.950149E-2,8.392566E-3,-5.983693E-3,1.3965815E-3,-5.8257305E-3,-1.1499898E-2,-8.86903E-3,-2.0651774E-2,7.992268E-3,2.4936438E-2,1.086237E-2,5.1468783E-3,-7.916431E-3,-2.700637E-3,1.8567443E-3,8.046627E-6,-6.7606643E-3,-3.524302E-3,4.423782E-3,1.21033685E-2],"categories":[],"categories_nodes":[],"categories_segments":[],"categories_sizes":[],"default_left":[true,true,true,true,true,true,true,false,true,true,true,false,false,false,true,true,true,true,true,false,false,true,true,false,false,false,false,true,true,true,true,true,false,false,false,false,false,true,false,false,false,false,false,false,false,false,false],"id":40,"left_children":[1,3,5,7,9,11,13,-1,15,17,19,-1,-1,-1,21,23,25,27,29,-1,-1,31,33,-1,-1,-1,-1,35,37,39,41,43,-1,-1,-1,-1,-1,45,-1,-1,-1,-1,-1,-1,-1,-1,-1],"loss_changes":[7.847814E-3,8.347373E-3,3.284919E-3,1.1628992E-3,3.4873234E-3,3.3328868E-4,2.358919E-3,0E0,1.745132E-4,1.1404296E-3,9.755306E-4,0E0,0E0,0E0,5.4788264E-4,7.144372E-6,3.1723175E-6,8.3826715E-4,1.0292503E-4,0E0,0E0,7.1355724E-5,5.0931238E-5,0E0,0E0,0E0,0E0,4.8877345E-4,1.685468E-4,4.0017476E-6,2.5408672E-6,1.2752018E-5,0E0,0E0,0E0,0E0,0E0,6.6311564E-5,0E0,0E0,0E0,0E0,0E0,0E0,8.146162E-8,0E0,0E0],"parents":[2147483647,0,0,1,1,2,2,3,3,4,4,5,5,6,6,8,8,9,9,10,10,14,14,15,15,16,16,17,17,18,18,21,21,22,22,27,27,28,28,29,29,30,30,31,31,37,37],"right_children":[2,4,6,8,10,12,14,-1,16,18,20,-1,-1,-1,22,24,26,28,30,-1,-1,32,34,-1,-1,-1,-1,36,38,40,42,44,-1,-1,-1,-1,-1,46,-1,-1,-1,-1,-1,-1,-1,-1,-1],"split_conditions":[1.7252754E-1,-7.841104E-4,-6.075166E-2,-5.3528247E-6,3.9060447E-2,9.8970035E-5,-1.2109779E-1,-2.7836505E-3,7.675715E-4,1.2198686E-1,1.4449972E-5,1.7213837E-3,-1.6851965E-4,-3.5469846E-3,6.5396363E-3,3.055908E-4,-1.0732253E-6,-4.9999034E-7,-1.4096903E-5,4.1900934E-3,3.6154687E-4,-1.7808317E-3,2.708849E-6,-7.0526716E-5,2.0835699E-4,-4.500715E-4,-9.663428E-4,-3.277633E-5,-1.5037983E-4,4.856407E-6,5.41216E-5,3.0374965E-3,-1.1499898E-3,-8.8690297E-4,-2.0651775E-3,7.9922675E-4,2.493644E-3,3.8569104E-3,5.1468785E-4,-7.916431E-4,-2.7006373E-4,1.8567443E-4,8.046627E-7,-6.7606644E-4,-3.5243022E-4,4.4237822E-4,1.2103369E-3],"split_indices":[744,1979,777,2538,2087,2,2156,0,203,744,5,0,0,0,1314,1,23,378,4,0,0,2001,61,0,0,0,0,124,52,2,0,139,0,0,0,0,0,2087,0,0,0,0,0,0,0,0,0],"split_type":[0,0,0,0,0,0,0,0,0,0,0,0,0,0,0,0,0,0,0,0,0,0,0,0,0,0,0,0,0,0,0,0,0,0,0,0,0,0,0,0,0,0,0,0,0,0,0],"sum_hessian":[1E2,6.4E1,3.6E1,1.6E1,4.8E1,4E0,3.2E1,3E0,1.3E1,4.3E1,5E0,3E0,1E0,4E0,2.8E1,2E0,1.1E1,3.7E1,6E0,4E0,1E0,2E1,8E0,1E0,1E0,3E0,8E0,1E1,2.7E1,3E0,3E0,1.6E1,4E0,3E0,5E0,4E0,6E0,1.4E1,1.3E1,1E0,2E0,2E0,1E0,1E1,6E0,3E0,1.1E1],"tree_param":{"num_deleted":"0","num_feature":"2700","num_nodes":"47","size_leaf_vector":"0"}},{"base_weights":[1.4638476E-3,-7.522471E-2,3.895782E-3,5.2856416E-2,1.7008553E-3,1.2709469E-2,6.200224E-2,3.682976E-2,-7.697758E-4,7.48688E-3,4.962948E-2,6.3605923E-3,-8.750926E-3,-9.435168E-3,9.437656E-3,-4.8493217E-3,-2.0360967E-2,-6.7000376E-4,-1.0591619E-2,7.348915E-3,1.793634E-2,-6.792642E-3,1.6200325E-2,-8.571614E-3,-3.0435996E-2,1.1053549E-2,5.72129E-3,-4.659621E-3,-1.0592722E-2,-9.292682E-3,-2.483135E-3,1.2613893E-2,3.7282307E-3,7.5640976E-3,3.7330773E-3,-5.174962E-3,-1.1756832E-3,-8.811996E-4,-1.157387E-2,1.6441345E-3,7.952809E-3,4.166921E-3,7.533431E-4,-3.619399E-3,-6.328369E-3,-1.5726638E-3,7.6293945E-6],"categories":[],"categories_nodes":[],"categories_segments":[],"categories_sizes":[],"default_left":[true,false,true,true,true,false,false,true,true,false,false,true,true,true,true,true,true,false,false,true,false,true,false,true,false,true,true,true,true,false,false,false,false,true,true,true,true,false,false,false,false,false,false,false,false,false,false],"id":41,"left_children":[1,-1,3,5,7,-1,-1,9,11,-1,-1,13,15,17,19,21,23,-1,-1,25,-1,27,-1,29,-1,31,33,35,37,-1,-1,-1,-1,39,41,43,45,-1,-1,-1,-1,-1,-1,-1,-1,-1,-1],"loss_changes":[1.8197205E-2,0E0,1.0011808E-2,6.806925E-4,7.926292E-3,0E0,0E0,1.8819151E-3,4.9497955E-3,0E0,0E0,2.3248552E-3,1.7584721E-3,7.399544E-5,5.604981E-4,1.4190417E-3,9.2689553E-4,0E0,0E0,1.3574143E-4,0E0,1.9381149E-4,0E0,3.2662938E-6,0E0,5.5842684E-5,6.336003E-5,3.1619566E-5,8.50854E-5,0E0,0E0,0E0,0E0,1.4538353E-5,1.4959223E-5,9.390671E-6,1.8910073E-6,0E0,0E0,0E0,0E0,0E0,0E0,0E0,0E0,0E0,0E0],"parents":[2147483647,0,0,2,2,3,3,4,4,7,7,8,8,11,11,12,12,13,13,14,14,15,15,16,16,19,19,21,21,23,23,25,25,26,26,27,27,28,28,33,33,34,34,35,35,36,36],"right_children":[2,-1,4,6,8,-1,-1,10,12,-1,-1,14,16,18,20,22,24,-1,-1,26,-1,28,-1,30,-1,32,34,36,38,-1,-1,-1,-1,40,42,44,46,-1,-1,-1,-1,-1,-1,-1,-1,-1,-1],"split_conditions":[-1.9742101E-5,-7.5224712E-3,-2.3496072E-4,7.722856E-6,-1.8111888E-2,1.2709469E-3,6.200224E-3,-7.051784E-7,1.2457676E-1,7.48688E-4,4.962948E-3,-9.184624E-4,-9.738515E-6,2.326454E-5,3.914114E-2,9.649397E-3,-3.7647926E-5,-6.700038E-5,-1.0591618E-3,1.0607709E-1,1.793634E-3,1.9845837E-5,1.6200325E-3,-1.0963862E-5,-3.0435997E-3,-5.6077275E-5,6.346133E-2,-8.657125E-6,-3.9503713E-5,-9.292682E-4,-2.483135E-4,1.2613892E-3,3.7282307E-4,-5.2158503E-5,-1.6349896E-4,1.665759E-2,7.178671E-5,-8.811996E-5,-1.157387E-3,1.6441346E-4,7.9528097E-4,4.166921E-4,7.533431E-5,-3.619399E-4,-6.328369E-4,-1.5726638E-4,7.6293946E-7],"split_indices":[2538,0,1965,2,971,0,0,6,744,0,0,1582,1509,4,144,2393,21,0,0,1237,0,1863,0,12,0,56,780,350,29,0,0,0,0,42,105,1362,2,0,0,0,0,0,0,0,0,0,0],"split_type":[0,0,0,0,0,0,0,0,0,0,0,0,0,0,0,0,0,0,0,0,0,0,0,0,0,0,0,0,0,0,0,0,0,0,0,0,0,0,0,0,0,0,0,0,0,0,0],"sum_hessian":[9.5E1,2E0,9.3E1,3E0,9E1,1E0,2E0,5E0,8.5E1,2E0,3E0,4.5E1,4E1,7E0,3.8E1,3.1E1,9E0,1E0,6E0,3.2E1,6E0,2.9E1,2E0,5E0,4E0,8E0,2.4E1,2E1,9E0,4E0,1E0,6E0,2E0,1.1E1,1.3E1,1.7E1,3E0,1E0,8E0,1E0,1E1,1.1E1,2E0,9E0,8E0,2E0,1E0],"tree_param":{"num_deleted":"0","num_feature":"2700","num_nodes":"47","size_leaf_vector":"0"}},{"base_weights":[1.1574738E-3,-7.7398345E-2,2.7819963E-3,7.192157E-4,5.0046146E-2,-6.538955E-3,8.277324E-3,5.786876E-2,1.3289154E-2,-2.9795056E-2,-4.8801014E-3,5.2651786E-3,3.8588554E-2,2.2138855E-3,-7.448976E-3,7.1033365E-3,-2.1611368E-2,-3.8541055E-3,7.965608E-3,-4.8785047E-3,-1.17549645E-2,-6.5847556E-3,8.3572585E-3,-4.235802E-3,-7.8196253E-4,9.7005125E-3,2.4188955E-3,-5.937214E-3,-8.89292E-4,-1.6574482E-2,-5.9446683E-3,1.9100498E-2,6.5315682E-3,-3.2332053E-3,-7.019785E-3,-1.7755635E-3,1.7710328E-3,7.5687356E-3,4.2999783E-4,5.1111206E-3,9.836814E-3,-2.63834E-3,1.5713334E-3,2.0353794E-3,5.6643393E-3,4.259956E-3,1.1641562E-2,2.3666422E-3,2.5224686E-4],"categories":[],"categories_nodes":[],"categories_segments":[],"categories_sizes":[],"default_left":[true,false,true,true,true,true,true,false,false,false,true,true,false,true,true,true,false,true,true,true,true,false,true,false,false,false,false,true,true,false,false,false,true,false,false,false,false,true,true,true,true,false,true,false,false,false,false,false,false],"id":42,"left_children":[1,-1,3,5,7,9,11,-1,-1,-1,13,15,-1,17,19,21,-1,23,25,27,29,-1,31,-1,-1,-1,-1,33,35,-1,-1,-1,37,-1,-1,-1,-1,39,41,43,45,-1,47,-1,-1,-1,-1,-1,-1],"loss_changes":[1.2594045E-2,0E0,9.323581E-3,5.155923E-3,3.8111582E-4,1.7063636E-3,3.9967084E-3,0E0,0E0,0E0,8.5477496E-4,2.2778562E-3,0E0,4.8441844E-4,3.189796E-4,7.587462E-4,0E0,4.8961447E-6,4.389661E-5,9.1858674E-5,2.3750414E-4,0E0,6.205691E-4,0E0,0E0,0E0,0E0,2.999464E-5,1.7291202E-5,0E0,0E0,0E0,2.1190941E-4,0E0,7.6997094E-7,0E0,0E0,1.113707E-4,2.5157731E-5,1.5695841E-5,9.1315014E-5,0E0,4.6484265E-6,0E0,0E0,0E0,0E0,0E0,0E0],"parents":[2147483647,0,0,2,2,3,3,4,4,5,5,6,6,10,10,11,11,13,13,14,14,15,15,17,17,18,18,19,19,20,20,22,22,27,27,28,28,32,32,37,37,38,38,39,39,40,40,42,42],"right_children":[2,-1,4,6,8,10,12,-1,-1,-1,14,16,-1,18,20,22,-1,24,26,28,30,-1,32,-1,-1,-1,-1,34,36,-1,-1,-1,38,-1,-1,-1,-1,40,42,44,46,-1,48,-1,-1,-1,-1,-1,-1],"split_conditions":[-9.1819954E-4,-7.7398345E-3,2.0020094E-2,-6.68721E-5,-3.3381025E-4,9.0610884E-2,5.1716182E-5,5.786876E-3,1.3289154E-3,-2.9795056E-3,1.0642938E-1,1.283733E-1,3.8588555E-3,-1.5327518E-3,2.8349669E-3,-6.905353E-4,-2.1611368E-3,2.1728547E-4,-3.5690673E-4,6.329773E-6,3.2348144E-1,-6.5847556E-4,-1.1875514E-5,-4.2358023E-4,-7.819625E-5,9.700513E-4,2.4188955E-4,-1.1799808E-1,9.978508E-5,-1.6574481E-3,-5.9446687E-4,1.9100498E-3,-4.1279215E-3,-3.2332054E-4,-7.019785E-4,-1.7755634E-4,1.7710328E-4,-1.3596337E-2,-2.752531E-5,-1.9201566E-6,-1.1752123E-5,-2.63834E-4,-2.670063E-7,2.0353794E-4,5.6643394E-4,4.2599562E-4,1.1641562E-3,2.3666423E-4,2.5224686E-5],"split_indices":[55,0,727,1517,3,2182,1492,0,0,0,2240,2255,0,69,1010,50,0,6,20,271,1439,0,304,0,0,0,0,1800,4,0,0,0,2354,0,0,0,0,695,7,329,358,0,11,0,0,0,0,0,0],"split_type":[0,0,0,0,0,0,0,0,0,0,0,0,0,0,0,0,0,0,0,0,0,0,0,0,0,0,0,0,0,0,0,0,0,0,0,0,0,0,0,0,0,0,0,0,0,0,0,0,0],"sum_hessian":[9.6E1,1E0,9.5E1,9.2E1,3E0,4.7E1,4.5E1,2E0,1E0,2E0,4.5E1,4.2E1,3E0,1.2E1,3.3E1,4E1,2E0,6E0,6E0,2.2E1,1.1E1,3E0,3.7E1,5E0,1E0,4E0,2E0,1.7E1,5E0,5E0,6E0,4E0,3.3E1,6E0,1.1E1,4E0,1E0,2.8E1,5E0,1.5E1,1.3E1,1E0,4E0,3E0,1.2E1,4E0,9E0,2E0,2E0],"tree_param":{"num_deleted":"0","num_feature":"2700","num_nodes":"49","size_leaf_vector":"0"}},{"base_weights":[1.0530083E-3,3.8572513E-3,-4.165351E-2,4.2053092E-2,1.6177517E-3,-6.534062E-2,-1.3474794E-2,6.334603E-3,4.9399063E-2,4.5728266E-2,4.187764E-5,-1.5268287E-2,-4.047159E-3,-6.6780034E-3,6.760785E-3,-1.687997E-3,-1.2332111E-2,1.2351758E-2,2.6300808E-3,8.632879E-3,-4.858379E-3,-8.160547E-3,-2.3214692E-2,6.6958168E-3,2.028312E-2,-7.286879E-3,4.764386E-3,9.648347E-3,1.7777681E-3,-3.3507342E-3,-7.566487E-3,-1.2165801E-2,-4.5408155E-3,2.7332306E-3,9.135774E-3,5.7433187E-3,-1.0766387E-3,-3.6606523E-3,-9.941505E-4,3.0471683E-3,5.8177114E-4,4.035703E-3,8.770536E-3,-2.506435E-3,2.3543835E-4],"categories":[],"categories_nodes":[],"categories_segments":[],"categories_sizes":[],"default_left":[true,true,true,true,true,false,true,false,false,false,true,false,false,true,true,true,true,true,true,true,true,true,false,true,false,false,true,false,false,true,false,false,false,true,false,true,true,false,false,false,false,false,false,false,false],"id":43,"left_children":[1,3,5,7,9,-1,11,-1,-1,-1,13,-1,-1,15,17,19,21,23,25,27,29,31,-1,33,-1,-1,35,-1,-1,37,-1,-1,-1,39,-1,41,43,-1,-1,-1,-1,-1,-1,-1,-1],"loss_changes":[1.1657575E-2,7.7160695E-3,3.1243842E-3,9.990111E-4,6.045683E-3,0E0,5.840382E-6,0E0,0E0,0E0,3.8829204E-3,0E0,0E0,1.1923868E-3,9.6058403E-4,8.2724856E-4,7.18503E-4,6.7165564E-4,5.8502884E-4,2.461436E-5,5.222115E-5,1.767244E-4,0E0,9.1052265E-5,0E0,0E0,1.3197877E-4,0E0,0E0,6.5856293E-6,0E0,0E0,0E0,2.2797904E-6,0E0,6.282184E-5,8.094123E-6,0E0,0E0,0E0,0E0,0E0,0E0,0E0,9.083986E-8],"parents":[2147483647,0,0,1,1,2,2,3,3,4,4,6,6,10,10,13,13,14,14,15,15,16,16,17,17,18,18,19,19,20,20,21,21,23,23,26,26,29,29,33,33,35,35,36,36],"right_children":[2,4,6,8,10,-1,12,-1,-1,-1,14,-1,-1,16,18,20,22,24,26,28,30,32,-1,34,-1,-1,36,-1,-1,38,-1,-1,-1,40,-1,42,44,-1,-1,-1,-1,-1,-1,-1,-1],"split_conditions":[1.187375E-4,-1.7809754E-3,7.319937E-4,-1.3546236E-5,-4.4380104E-6,-6.5340623E-3,-4.5765795E-5,6.334603E-4,4.9399063E-3,4.572827E-3,-6.68721E-5,-1.5268287E-3,-4.0471592E-4,-1.07455164E-1,-2.4695405E-8,1.2607865E-1,-3.5366032E-4,8.071081E-6,-2.1729019E-4,2.2564766E-4,5.139392E-2,5.86968E-4,-2.3214694E-3,-1.3008567E-3,2.028312E-3,-7.286879E-4,-1.2661403E-3,9.6483476E-4,1.7777682E-4,2.7393212E-4,-7.566487E-4,-1.21658E-3,-4.5408154E-4,1.1273697E-5,9.1357745E-4,1.157018E-4,4.6713947E-5,-3.6606524E-4,-9.9415054E-5,3.0471684E-4,5.8177113E-5,4.035703E-4,8.770536E-4,-2.506435E-4,2.3543835E-5],"split_indices":[121,2336,8,4,279,0,3,0,0,0,1517,0,0,1444,2441,771,1532,280,1504,6,230,1646,0,736,0,0,1814,0,0,10,0,0,0,0,0,1579,2,0,0,0,0,0,0,0,0],"split_type":[0,0,0,0,0,0,0,0,0,0,0,0,0,0,0,0,0,0,0,0,0,0,0,0,0,0,0,0,0,0,0,0,0,0,0,0,0,0,0,0,0,0,0,0,0],"sum_hessian":[9.5E1,9E1,5E0,4E0,8.6E1,2E0,3E0,1E0,3E0,2E0,8.4E1,2E0,1E0,4.2E1,4.2E1,2.3E1,1.9E1,1.7E1,2.5E1,5E0,1.8E1,1.5E1,4E0,1.1E1,6E0,4E0,2.1E1,4E0,1E0,1.3E1,5E0,6E0,9E0,5E0,6E0,1.8E1,3E0,1.1E1,2E0,4E0,1E0,1.3E1,5E0,1E0,2E0],"tree_param":{"num_deleted":"0","num_feature":"2700","num_nodes":"45","size_leaf_vector":"0"}},{"base_weights":[-2.670662E-4,1.7714984E-3,-6.4053066E-2,5.083992E-2,1.5218566E-4,6.4385287E-3,-7.484854E-3,3.1251926E-2,3.0620303E-3,-2.036126E-3,-1.5377917E-2,1.1769454E-2,3.80508E-2,5.5130823E-3,-7.627082E-3,-4.8571792E-3,1.0783733E-2,-2.3130044E-2,-7.6384237E-3,1.252307E-2,4.5544244E-3,-4.7504148E-3,-1.0035312E-2,-6.5171234E-3,-1.7353575E-3,1.2511745E-2,1.9358427E-3,-4.215423E-3,-1.0218339E-2,-1.1775105E-3,5.1285904E-3,-7.862055E-3,-4.0490413E-3,-1.9479856E-3,-1.7166138E-5,-2.3810863E-3,1.7376928E-5,3.7639886E-3,6.833471E-3,4.8383274E-3,2.6445687E-3,4.1095815E-3,8.022204E-3,2.784496E-3,5.5268407E-4],"categories":[],"categories_nodes":[],"categories_segments":[],"categories_sizes":[],"default_left":[true,true,false,false,true,true,true,true,true,true,true,false,false,true,true,true,true,false,true,false,true,false,false,true,true,false,false,false,false,true,true,false,false,false,false,false,false,true,true,false,true,false,false,false,false],"id":44,"left_children":[1,3,-1,-1,5,7,9,11,13,15,17,-1,-1,19,21,23,25,-1,27,-1,29,-1,-1,31,33,-1,-1,-1,-1,35,37,-1,-1,-1,-1,-1,-1,39,41,-1,43,-1,-1,-1,-1],"loss_changes":[1.2596531E-2,7.461232E-3,0E0,0E0,4.465024E-3,4.177208E-3,1.7749891E-3,3.4691626E-4,1.247229E-3,9.926817E-4,8.432814E-4,0E0,0E0,1.9833155E-4,1.4677178E-5,1.0269554E-4,5.2225543E-5,0E0,4.523585E-5,0E0,1.2122688E-4,0E0,0E0,1.463783E-5,3.2545831E-6,0E0,0E0,0E0,0E0,5.7939264E-6,4.872633E-5,0E0,0E0,0E0,0E0,0E0,4.4524253E-7,1.125742E-5,9.125855E-6,0E0,1.9735962E-6,0E0,0E0,0E0,0E0],"parents":[2147483647,0,0,1,1,4,4,5,5,6,6,7,7,8,8,9,9,10,10,13,13,14,14,15,15,16,16,18,18,20,20,23,23,24,24,29,29,30,30,37,37,38,38,40,40],"right_children":[2,4,-1,-1,6,8,10,12,14,16,18,-1,-1,20,22,24,26,-1,28,-1,30,-1,-1,32,34,-1,-1,-1,-1,36,38,-1,-1,-1,-1,-1,-1,40,42,-1,44,-1,-1,-1,-1],"split_conditions":[2.0841297E-5,-1.833617E-4,-6.4053065E-3,5.083992E-3,1.2457676E-1,-1.5094393E-1,-4.6036694E-5,-3.5888012E-4,9.298316E-4,-4.9224746E-4,1.6937777E-2,1.1769454E-3,3.8050802E-3,-1.6158201E-5,-1.7512348E-4,-8.260839E-4,1.6921549E-4,-2.3130046E-3,4.332427E-2,1.252307E-3,2.1470606E-1,-4.7504148E-4,-1.0035312E-3,2.713533E-6,6.173935E-5,1.2511745E-3,1.9358427E-4,-4.215423E-4,-1.021834E-3,3.2977136E-5,-3.5793394E-2,-7.8620546E-4,-4.0490413E-4,-1.9479856E-4,-1.7166138E-6,-2.3810864E-4,1.7376927E-6,-6.2462594E-4,3.0247487E-2,4.8383276E-4,1.1273697E-5,4.1095816E-4,8.022204E-4,2.784496E-4,5.5268407E-5],"split_indices":[2457,75,0,0,744,970,1104,3,2661,2647,2400,0,0,439,121,89,1,0,145,0,2382,0,0,315,0,0,0,0,0,1,2210,0,0,0,0,0,0,245,574,0,0,0,0,0,0],"split_type":[0,0,0,0,0,0,0,0,0,0,0,0,0,0,0,0,0,0,0,0,0,0,0,0,0,0,0,0,0,0,0,0,0,0,0,0,0,0,0,0,0,0,0,0,0],"sum_hessian":[9.5E1,9.3E1,2E0,2E0,9.1E1,5E1,4.1E1,5E0,4.5E1,2.5E1,1.6E1,2E0,3E0,3.7E1,8E0,2.1E1,4E0,7E0,9E0,3E0,3.4E1,5E0,3E0,1.3E1,8E0,3E0,1E0,5E0,4E0,3E0,3.1E1,7E0,6E0,7E0,1E0,1E0,2E0,1.9E1,1.2E1,8E0,1.1E1,5E0,7E0,1E1,1E0],"tree_param":{"num_deleted":"0","num_feature":"2700","num_nodes":"45","size_leaf_vector":"0"}},{"base_weights":[1.8519087E-4,-6.7058735E-2,1.6610443E-3,4.0235985E-2,-5.7499873E-4,5.5917304E-2,1.1142671E-2,9.741311E-3,-5.9011076E-3,2.9526602E-2,5.5617816E-3,-2.5692307E-3,-1.5281205E-2,5.651355E-3,3.4082577E-2,-1.1056254E-2,7.407295E-3,3.0939344E-3,-5.6051416E-3,-4.4534043E-3,-2.2004915E-2,-2.099102E-3,-1.4485278E-2,4.577437E-3,1.2494832E-2,-4.5508305E-3,6.021425E-3,-9.203224E-3,-2.895023E-3,-1.4094511E-3,-5.3890953E-3,-1.29476525E-2,-2.6661197E-2,1.0374486E-3,5.261902E-3,-3.2155347E-4,-5.5277618E-3,8.991311E-3,2.615605E-3,-1.2147945E-2,-4.2338464E-3,1.8390506E-3,-3.2816771E-3,3.7630731E-3,6.6331625E-3,2.8765202E-3,5.250573E-4,-2.062923E-3,-4.3949103E-3],"categories":[],"categories_nodes":[],"categories_segments":[],"categories_sizes":[],"default_left":[true,false,true,true,true,false,false,true,true,true,true,true,true,false,false,true,true,true,true,true,true,false,false,true,false,true,true,true,true,false,false,false,false,false,true,false,false,false,true,false,false,false,true,false,false,false,false,false,false],"id":45,"left_children":[1,-1,3,5,7,-1,-1,9,11,13,15,17,19,-1,-1,21,23,25,27,29,31,-1,-1,33,-1,35,37,39,41,-1,-1,-1,-1,-1,43,-1,-1,-1,45,-1,-1,-1,47,-1,-1,-1,-1,-1,-1],"loss_changes":[9.241668E-3,0E0,7.872361E-3,1.6580401E-3,4.837768E-3,0E0,0E0,2.3165757E-3,1.7734321E-3,3.5126228E-4,8.792859E-4,7.738279E-4,9.940481E-4,0E0,0E0,6.173682E-5,2.8833398E-4,3.8548216E-4,2.5614217E-4,1.2341741E-5,3.4358352E-5,0E0,0E0,3.5732024E-5,0E0,1.8881095E-5,9.786105E-5,1.241687E-4,3.898327E-5,0E0,0E0,0E0,0E0,0E0,3.812922E-6,0E0,0E0,5.372858E-7,2.30785E-6,0E0,0E0,0E0,1.3998506E-5,0E0,0E0,0E0,0E0,1.3387034E-7,0E0],"parents":[2147483647,0,0,2,2,3,3,4,4,7,7,8,8,9,9,10,10,11,11,12,12,15,15,16,16,17,17,18,18,19,19,20,20,23,23,25,25,26,26,27,27,28,28,34,34,38,38,42,42],"right_children":[2,-1,4,6,8,-1,-1,10,12,14,16,18,20,-1,-1,22,24,26,28,30,32,-1,-1,34,-1,36,38,40,42,-1,-1,-1,-1,-1,44,-1,-1,-1,46,-1,-1,-1,48,-1,-1,-1,-1,-1,-1],"split_conditions":[-1.47601E-3,-6.7058736E-3,-2.5857014E-7,-7.6013243E-6,6.114137E-5,5.5917306E-3,1.1142672E-3,-2.1775955E-2,2.1082431E-2,1.24134E-6,-5.9624743E-3,2.1382437E-5,1.5880781E-1,5.651355E-4,3.4082576E-3,-1.2261868E-5,5.828556E-1,-9.801787E-4,4.4594108E-5,2.0410625E-5,2.1329001E-6,-2.099102E-4,-1.4485278E-3,9.414956E-2,1.2494832E-3,2.519012E-5,5.884964E-5,3.2589578E-3,-1.5389142E-4,-1.4094512E-4,-5.389095E-4,-1.2947653E-3,-2.6661197E-3,1.0374487E-4,3.0000661E-3,-3.215535E-5,-5.527762E-4,8.991311E-4,1.1273697E-5,-1.2147946E-3,-4.2338466E-4,1.8390505E-4,1.6162674E-5,3.7630732E-4,6.633163E-4,2.8765202E-4,5.2505733E-5,-2.062923E-4,-4.3949104E-4],"split_indices":[253,0,517,12,1518,0,0,2051,2332,1,206,1959,1861,0,0,0,2105,87,1962,7,7,0,0,1041,0,4,956,647,12,0,0,0,0,0,147,0,0,0,0,0,0,0,2469,0,0,0,0,0,0],"split_type":[0,0,0,0,0,0,0,0,0,0,0,0,0,0,0,0,0,0,0,0,0,0,0,0,0,0,0,0,0,0,0,0,0,0,0,0,0,0,0,0,0,0,0,0,0,0,0,0,0],"sum_hessian":[9.1E1,1E0,9E1,4E0,8.6E1,2E0,2E0,2.9E1,5.7E1,4E0,2.5E1,4.3E1,1.4E1,1E0,3E0,2E0,2.3E1,1.5E1,2.8E1,6E0,8E0,1E0,1E0,1.6E1,7E0,4E0,1.1E1,1.1E1,1.7E1,2E0,4E0,4E0,4E0,3E0,1.3E1,1E0,3E0,5E0,6E0,6E0,5E0,1E0,1.6E1,8E0,5E0,5E0,1E0,9E0,7E0],"tree_param":{"num_deleted":"0","num_feature":"2700","num_nodes":"49","size_leaf_vector":"0"}},{"base_weights":[9.3538046E-4,-5.164454E-2,2.5519205E-3,-6.3705795E-2,-1.3761015E-2,-6.3960687E-3,8.176448E-3,-1.7049871E-2,-4.2651934E-3,4.696568E-3,3.3853173E-2,9.42864E-5,-4.8697526E-3,7.3446594E-3,-1.7712269E-2,5.218947E-2,1.6080761E-2,-7.55691E-4,1.747098E-3,-7.332259E-3,-3.5824995E-3,3.2197828E-3,1.8519718E-2,-2.0283666E-2,-2.4276436E-3,1.7720178E-2,4.761547E-3,-8.147572E-3,-2.985775E-3,-1.8898542E-3,-4.2938325E-3,4.9035046E-3,-6.2966966E-3,3.2528806E-2,8.679145E-3,2.6100874E-4,6.192963E-3,-2.5996615E-3,-9.127178E-3,1.1835599E-2,3.786862E-3,1.3055801E-3,-1.9151369E-3,4.5984075E-3,9.636334E-3,5.9470953E-3,2.7898788E-3,6.810435E-3,2.9494762E-3,8.9468557E-4,3.1518415E-3],"categories":[],"categories_nodes":[],"categories_segments":[],"categories_sizes":[],"default_left":[true,true,true,false,false,true,true,false,true,true,true,true,true,true,true,false,true,false,false,true,true,true,true,false,false,false,false,false,false,false,false,true,true,false,true,true,true,false,false,false,false,false,false,true,false,true,true,false,false,false,false],"id":46,"left_children":[1,3,5,-1,-1,7,9,-1,11,13,15,17,19,21,23,-1,25,-1,-1,27,29,31,33,-1,-1,-1,-1,-1,-1,-1,-1,35,37,-1,39,41,43,-1,-1,-1,-1,-1,-1,45,-1,47,49,-1,-1,-1,-1],"loss_changes":[8.54655E-3,4.9411133E-4,4.934134E-3,0E0,0E0,7.899521E-4,5.202122E-3,0E0,8.743268E-5,3.334485E-3,1.4419146E-3,8.344529E-6,6.5658416E-5,2.1990617E-3,1.8657534E-4,0E0,8.409144E-6,0E0,0E0,7.5669086E-6,1.7170009E-5,6.237307E-4,1.5098243E-3,0E0,0E0,0E0,0E0,0E0,0E0,4.499343E-7,0E0,1.899454E-4,3.9058752E-5,0E0,9.416061E-5,2.0685482E-5,9.295432E-5,0E0,0E0,0E0,0E0,4.4503395E-7,0E0,2.9752002E-5,0E0,5.792419E-6,4.03999E-6,0E0,0E0,0E0,0E0],"parents":[2147483647,0,0,1,1,2,2,5,5,6,6,8,8,9,9,10,10,11,11,12,12,13,13,14,14,16,16,19,19,20,20,21,21,22,22,31,31,32,32,34,34,35,35,36,36,43,43,45,45,46,46],"right_children":[2,4,6,-1,-1,8,10,-1,12,14,16,18,20,22,24,-1,26,-1,-1,28,30,32,34,-1,-1,-1,-1,-1,-1,-1,-1,36,38,-1,40,42,44,-1,-1,-1,-1,-1,-1,46,-1,48,50,-1,-1,-1,-1],"split_conditions":[-8.638916E-1,-4.7658436E-6,-9.252691E-4,-6.3705794E-3,-1.3761015E-3,5.196455E-3,4.5035984E-3,-1.7049871E-3,-4.3532555E-6,2.0890487E-3,-1.3946665E-4,1.6658797E-4,-8.4284163E-4,2.5828667E-2,2.9079136E-5,5.218947E-3,-3.1355316E-6,-7.556911E-5,1.7470981E-4,-2.5369463E-4,-7.423018E-7,2.2442353E-1,-5.875817E-3,-2.0283666E-3,-2.4276436E-4,1.7720178E-3,4.761547E-4,-8.1475725E-4,-2.985775E-4,-1.8898542E-4,-4.2938325E-4,-8.457138E-2,1.1775602E-4,3.2528806E-3,-2.1821873E-7,5.747951E-6,3.059158E-7,-2.5996615E-4,-9.1271783E-4,1.18356E-3,3.786862E-4,1.3055802E-4,-1.915137E-4,-4.250128E-3,9.636334E-4,5.4240134E-3,-1.0525956E-5,6.8104354E-4,2.9494762E-4,8.946856E-5,3.1518415E-4],"split_indices":[162,0,1582,0,0,2328,245,0,326,1738,21,7,2669,1420,0,0,0,0,0,20,296,2396,1241,0,0,0,0,0,0,0,0,1060,10,0,380,27,330,0,0,0,0,0,0,198,0,139,29,0,0,0,0],"split_type":[0,0,0,0,0,0,0,0,0,0,0,0,0,0,0,0,0,0,0,0,0,0,0,0,0,0,0,0,0,0,0,0,0,0,0,0,0,0,0,0,0,0,0,0,0,0,0,0,0,0,0],"sum_hessian":[9.8E1,2E0,9.6E1,1E0,1E0,3.7E1,5.9E1,5E0,3.2E1,5.3E1,6E0,4E0,2.8E1,4.8E1,5E0,2E0,4E0,3E0,1E0,8E0,2E1,3.6E1,1.2E1,4E0,1E0,3E0,1E0,6E0,2E0,7E0,1.3E1,3.1E1,5E0,4E0,8E0,7E0,2.4E1,3E0,2E0,4E0,4E0,5E0,2E0,1.8E1,6E0,9E0,9E0,6E0,3E0,2E0,7E0],"tree_param":{"num_deleted":"0","num_feature":"2700","num_nodes":"51","size_leaf_vector":"0"}},{"base_weights":[-1.6012115E-3,-6.0520504E-2,-3.9474896E-4,2.0914083E-2,-1.994395E-3,2.0240279E-5,2.9267574E-2,-6.1075096E-3,4.395928E-3,-7.681332E-4,7.984936E-4,-1.2367304E-2,-1.5091985E-3,2.2755817E-3,1.1797734E-2,-1.94072E-2,-3.7101433E-3,5.6803883E-3,-4.3246653E-3,3.4382443E-3,-4.2253803E-3,2.040565E-3,1.4710029E-2,-9.32077E-3,-2.672117E-2,7.4434996E-4,-8.288695E-3,7.2980598E-3,-5.268648E-4,-5.8132345E-3,-1.9016465E-3,6.086737E-3,1.6780577E-3,-5.1478795E-3,-2.6769124E-4,4.211644E-3,-1.4848966E-3,-9.023929E-3,-2.3062616E-3,1.1455417E-3,-1.9358388E-3,-2.5374037E-3,-6.4207423E-3,-2.4237598E-3,1.6597431E-3,7.3110857E-3,3.4001707E-3,2.3151676E-3,-2.066844E-3,-2.9384112E-3,-9.1717986E-4,1.2124777E-3,3.1284615E-3],"categories":[],"categories_nodes":[],"categories_segments":[],"categories_sizes":[],"default_left":[true,false,true,true,true,true,false,true,true,false,false,true,true,true,true,true,true,true,true,true,true,false,false,false,false,true,true,false,true,true,true,true,true,false,false,false,false,false,false,false,false,false,false,true,false,false,false,true,false,false,false,false,false],"id":47,"left_children":[1,-1,3,5,7,9,-1,11,13,-1,-1,15,17,19,21,23,25,27,29,31,33,-1,-1,-1,-1,35,37,-1,39,41,43,45,47,-1,-1,-1,-1,-1,-1,-1,-1,-1,-1,49,-1,-1,-1,51,-1,-1,-1,-1,-1],"loss_changes":[7.0845014E-3,0E0,3.4162833E-3,1.2211632E-3,2.4712721E-3,2.4540125E-6,0E0,1.6220508E-3,5.538458E-4,0E0,0E0,1.390689E-3,7.127953E-4,2.4128065E-4,1.973093E-4,7.0997234E-4,2.5091122E-4,1.0425804E-4,7.9116115E-5,1.1099398E-4,1.6876787E-5,0E0,0E0,0E0,0E0,6.0360035E-5,5.579408E-6,0E0,9.286716E-6,1.3559358E-5,2.4476758E-5,8.033996E-6,4.5345623E-5,0E0,0E0,0E0,0E0,0E0,0E0,0E0,0E0,0E0,0E0,5.058584E-6,0E0,0E0,0E0,9.658972E-6,0E0,0E0,0E0,5.4684097E-7,0E0],"parents":[2147483647,0,0,2,2,3,3,4,4,5,5,7,7,8,8,11,11,12,12,13,13,14,14,15,15,16,16,17,17,18,18,19,19,20,20,25,25,26,26,28,28,29,29,30,30,31,31,32,32,43,43,47,47],"right_children":[2,-1,4,6,8,10,-1,12,14,-1,-1,16,18,20,22,24,26,28,30,32,34,-1,-1,-1,-1,36,38,-1,40,42,44,46,48,-1,-1,-1,-1,-1,-1,-1,-1,-1,-1,50,-1,-1,-1,52,-1,-1,-1,-1,-1],"split_conditions":[-1.47601E-3,-6.0520503E-3,-2.9070238E-3,-2.2514407E-6,-1.329738E-5,8.391858E-5,2.9267573E-3,1.3177849E-2,5.373326E-2,-7.6813325E-5,7.9849364E-5,6.391261E-2,1.3637045E-1,1.2838614E-5,-1.5924839E-4,-1.51201375E-5,1.412821E-1,2.907901E-4,1.3840345E-6,-2.0454354E-4,1.890485E-4,2.040565E-4,1.4710029E-3,-9.3207706E-4,-2.672117E-3,-8.9735615E-5,-1.0503116E-4,7.2980596E-4,1.590403E-4,-5.8765057E-5,2.6479625E-4,3.2224923E-2,-1.1657879E-5,-5.14788E-4,-2.6769125E-5,4.211644E-4,-1.4848966E-4,-9.023929E-4,-2.3062616E-4,1.1455417E-4,-1.9358388E-4,-2.5374038E-4,-6.420742E-4,2.3952265E-7,1.6597431E-4,7.311086E-4,3.4001708E-4,4.704606E-2,-2.0668439E-4,-2.9384112E-4,-9.1717986E-5,1.2124777E-4,3.1284615E-4],"split_indices":[253,0,2333,13,1497,1,0,980,2327,0,0,1384,771,280,20,361,560,251,450,1566,1,0,0,0,0,16,3,0,2,611,9,228,30,0,0,0,0,0,0,0,0,0,0,436,0,0,0,244,0,0,0,0,0],"split_type":[0,0,0,0,0,0,0,0,0,0,0,0,0,0,0,0,0,0,0,0,0,0,0,0,0,0,0,0,0,0,0,0,0,0,0,0,0,0,0,0,0,0,0,0,0,0,0,0,0,0,0,0,0],"sum_hessian":[9.9E1,1E0,9.8E1,6E0,9.2E1,2E0,4E0,5.6E1,3.6E1,1E0,1E0,2.3E1,3.3E1,2.9E1,7E0,1.2E1,1.1E1,9E0,2.4E1,2.5E1,4E0,2E0,5E0,6E0,6E0,6E0,5E0,7E0,2E0,1.4E1,1E1,9E0,1.6E1,3E0,1E0,2E0,4E0,4E0,1E0,1E0,1E0,3E0,1.1E1,9E0,1E0,5E0,4E0,1.4E1,2E0,6E0,3E0,7E0,7E0],"tree_param":{"num_deleted":"0","num_feature":"2700","num_nodes":"53","size_leaf_vector":"0"}},{"base_weights":[1.2580506E-3,-1.2549749E-4,3.4840465E-2,-6.2550767E-3,3.6949865E-3,8.806318E-3,4.0583074E-2,-2.179757E-2,-3.7854433E-3,1.6486121E-3,1.9245787E-2,5.84472E-4,-5.9008147E-3,-8.695633E-3,3.5943482E-3,3.6619108E-3,2.4746954E-2,3.3719342E-3,-1.8882771E-3,-3.1374064E-3,-8.172488E-3,-1.4079647E-2,-3.6570188E-3,-3.4400723E-3,4.9113734E-3,1.2312134E-3,4.134491E-3,-6.102363E-4,-2.2774462E-3,-1.2903112E-3,-3.899665E-3,-8.624628E-3,-1.5994764E-3,-9.821653E-4,-3.9955564E-3,-4.27643E-3,-6.2066695E-4,7.0393197E-3,2.4314611E-3,-1.1898228E-5,-1.6069398E-3,3.2181058E-3,8.353265E-3,-5.842107E-5,3.5027266E-3,4.0281415E-3,9.559843E-3,6.708006E-4,-2.2168756E-3,4.748191E-3,1.9751042E-3],"categories":[],"categories_nodes":[],"categories_segments":[],"categories_sizes":[],"default_left":[true,true,true,true,true,false,false,false,true,true,true,true,true,true,true,false,false,true,true,true,true,false,true,true,true,false,false,false,false,true,false,false,false,false,false,false,false,true,true,false,false,false,true,true,true,false,false,false,false,false,false],"id":48,"left_children":[1,3,5,7,9,-1,-1,-1,11,13,15,17,19,21,23,-1,-1,25,27,29,31,-1,33,35,37,-1,-1,-1,-1,39,-1,-1,-1,-1,-1,-1,-1,41,43,-1,-1,-1,45,47,49,-1,-1,-1,-1,-1,-1],"loss_changes":[4.697124E-3,2.3180724E-3,2.4062814E-4,1.3760886E-3,1.9094592E-3,0E0,0E0,0E0,3.1774462E-4,1.1382496E-3,5.0948537E-4,8.907948E-5,1.1874351E-4,1.9266212E-4,4.5232743E-4,0E0,0E0,4.7040885E-6,2.0918378E-6,1.1863791E-5,2.1868094E-5,0E0,1.508939E-6,1.6210004E-5,1.9396894E-4,0E0,0E0,0E0,0E0,2.004791E-6,0E0,0E0,0E0,0E0,0E0,0E0,0E0,7.855648E-5,5.355112E-5,0E0,0E0,0E0,3.97705E-5,1.2505024E-5,1.7258237E-5,0E0,0E0,7.7799996E-8,0E0,0E0,0E0],"parents":[2147483647,0,0,1,1,2,2,3,3,4,4,8,8,9,9,10,10,11,11,12,12,13,13,14,14,17,17,18,18,19,19,20,20,22,22,23,23,24,24,29,29,37,37,38,38,42,42,43,43,44,44],"right_children":[2,4,6,8,10,-1,-1,-1,12,14,16,18,20,22,24,-1,-1,26,28,30,32,-1,34,36,38,-1,-1,-1,-1,40,-1,-1,-1,-1,-1,-1,-1,42,44,-1,-1,-1,46,48,50,-1,-1,-1,-1,-1,-1],"split_conditions":[2.0760663E-2,-8.3595936E-5,-2.2942622E-5,2.468421E-2,-1.4307974E-2,8.806318E-4,4.0583075E-3,-2.179757E-3,1.17137805E-1,-4.818323E-3,-5.236011E-7,-7.611813E-6,-4.95348E-3,7.852434E-6,-9.4142824E-4,3.661911E-4,2.4746954E-3,-2.5982865E-5,1.09129614E-4,-9.99641E-2,-7.8495505E-6,-1.4079647E-3,-2.1793836E-5,5.132899E-6,-2.860638E-6,1.2312135E-4,4.134491E-4,-6.102363E-5,-2.2774462E-4,-6.195723E-5,-3.899665E-4,-8.6246285E-4,-1.5994765E-4,-9.821654E-5,-3.9955563E-4,-4.2764298E-4,-6.20667E-5,-7.291312E-7,3.843118E-5,-1.1898228E-6,-1.6069399E-4,3.2181057E-4,-4.8177087E-1,6.874876E-5,-2.5107165E-6,4.0281416E-4,9.559843E-4,6.7080065E-5,-2.2168756E-4,4.7481913E-4,1.9751042E-4],"split_indices":[727,1517,16,574,2028,0,0,0,2240,687,11,98,1681,130,1582,0,0,0,9,1404,51,0,0,64,340,0,0,0,0,4,0,0,0,0,0,0,0,470,2631,0,0,0,1794,6,453,0,0,0,0,0,0],"split_type":[0,0,0,0,0,0,0,0,0,0,0,0,0,0,0,0,0,0,0,0,0,0,0,0,0,0,0,0,0,0,0,0,0,0,0,0,0,0,0,0,0,0,0,0,0,0,0,0,0,0,0],"sum_hessian":[1E2,9.7E1,3E0,3.7E1,6E1,1E0,2E0,4E0,3.3E1,5.4E1,6E0,1.1E1,2.2E1,8E0,4.6E1,2E0,4E0,5E0,6E0,1.1E1,1.1E1,3E0,5E0,7E0,3.9E1,2E0,3E0,2E0,4E0,4E0,7E0,1E1,1E0,1E0,4E0,5E0,2E0,2E1,1.9E1,1E0,3E0,6E0,1.4E1,6E0,1.3E1,4E0,1E1,5E0,1E0,6E0,7E0],"tree_param":{"num_deleted":"0","num_feature":"2700","num_nodes":"51","size_leaf_vector":"0"}},{"base_weights":[-2.0581824E-3,-5.6790497E-2,-9.084627E-4,-2.193833E-3,2.3181116E-2,-5.700844E-3,3.7806663E-3,5.143603E-3,3.3491593E-2,-1.6146483E-2,-3.984191E-3,1.8350384E-3,1.5087426E-2,-2.3456326E-2,-7.0693106E-3,-2.2878626E-3,-1.1834663E-2,-7.871799E-3,3.1561924E-3,-3.8432966E-3,4.1880803E-3,-1.4224369E-2,-2.3137971E-3,-3.1404495E-3,-1.1032923E-2,1.2120408E-3,5.647391E-3,-4.5242705E-3,-3.757933E-4,5.36137E-3,5.4378568E-5,1.9991142E-3,-1.8457264E-3,1.3169944E-3,6.944524E-3,-2.2834574E-3,-5.5305045E-3,2.364419E-4,-8.9408015E-4,1.0446608E-3,-9.6309296E-4,5.376041E-4,2.3488349E-3,1.3458729E-4,1.6662678E-3,-2.5855321E-3,-6.160809E-4,-6.6917115E-3,-2.9522297E-3,-3.2218103E-3,-5.325829E-4],"categories":[],"categories_nodes":[],"categories_segments":[],"categories_sizes":[],"default_left":[true,false,true,true,true,true,true,false,false,true,true,true,false,false,false,true,true,true,true,true,true,false,false,false,false,true,true,true,true,false,true,true,false,