{"learner":{"attributes":{"best_iteration":"99","best_ntree_limit":"100","scikit_learn":"{\"n_estimators\": 100, \"objective\": \"binary:logistic\", \"max_depth\": 10, \"learning_rate\": null, \"verbosity\": null, \"booster\": \"gbtree\", \"tree_method\": null, \"gamma\": null, \"min_child_weight\": 1, \"max_delta_step\": 0, \"subsample\": null, \"colsample_bytree\": null, \"colsample_bylevel\": null, \"colsample_bynode\": null, \"reg_alpha\": null, \"reg_lambda\": null, \"scale_pos_weight\": null, \"base_score\": null, \"missing\": NaN, \"num_parallel_tree\": null, \"random_state\": null, \"n_jobs\": null, \"monotone_constraints\": null, \"interaction_constraints\": null, \"importance_type\": null, \"gpu_id\": null, \"validate_parameters\": null, \"predictor\": null, \"enable_categorical\": false, \"kwargs\": {\"max_leaves\": 0, \"max_bin\": 256, \"eval_metric\": \"auc\"}, \"_estimator_type\": \"regressor\"}"},"feature_names":[],"feature_types":[],"gradient_booster":{"model":{"gbtree_model_param":{"num_trees":"100","size_leaf_vector":"0"},"tree_info":[0,0,0,0,0,0,0,0,0,0,0,0,0,0,0,0,0,0,0,0,0,0,0,0,0,0,0,0,0,0,0,0,0,0,0,0,0,0,0,0,0,0,0,0,0,0,0,0,0,0,0,0,0,0,0,0,0,0,0,0,0,0,0,0,0,0,0,0,0,0,0,0,0,0,0,0,0,0,0,0,0,0,0,0,0,0,0,0,0,0,0,0,0,0,0,0,0,0,0,0],"trees":[{"base_weights":[-8E-2,-8.235294E-1,1.3333334E0,-1.5789474E0,1.1764706E-1,1.75E0,-1E0,-2.2222222E-1,-1.7575758E0,1.4285715E0,-6.666667E-1,-1.3684211E0,1.1111112E0],"categories":[],"categories_nodes":[],"categories_segments":[],"categories_sizes":[],"default_left":[true,true,true,true,true,false,false,false,false,false,true,false,false],"id":0,"left_children":[1,3,5,7,9,-1,-1,-1,-1,-1,11,-1,-1],"loss_changes":[2.7369411E1,1.2272446E1,1.05E1,1.9117489E0,9.691876E0,0E0,0E0,0E0,0E0,0E0,9.005848E0,0E0,0E0],"parents":[2147483647,0,0,1,1,2,2,3,3,4,4,10,10],"right_children":[2,4,6,8,10,-1,-1,-1,-1,-1,12,-1,-1],"split_conditions":[-8.942062E-2,-5.4388776E-2,-1.9615147E-2,6.2749255E-1,1.4321458E-1,5.2500004E-1,-3E-1,-6.666667E-2,-5.2727276E-1,4.2857146E-1,4.6657938E-1,-4.1052634E-1,3.3333337E-1],"split_indices":[101,13585,2952,65,8045,0,0,0,0,0,20953,0,0],"split_type":[0,0,0,0,0,0,0,0,0,0,0,0,0],"sum_hessian":[2.4E1,1.6E1,8E0,8.5E0,7.5E0,7E0,1E0,1.25E0,7.25E0,2.5E0,5E0,3.75E0,1.25E0],"tree_param":{"num_deleted":"0","num_feature":"56280","num_nodes":"13","size_leaf_vector":"0"}},{"base_weights":[-6.0046203E-2,-6.246194E-1,1.0220864E0,-1.2398726E0,1.2803937E-1,1.3736966E0,-6.016846E-1,-1.4198864E0,-3.643259E-2,-1.0932959E0,6.7490643E-1,1.1782589E0,-4.4092134E-1],"categories":[],"categories_nodes":[],"categories_segments":[],"categories_sizes":[],"default_left":[true,true,true,true,true,false,false,false,false,false,true,false,false],"id":1,"left_children":[1,3,5,7,9,-1,-1,-1,-1,-1,11,-1,-1],"loss_changes":[1.5139061E1,7.6689353E0,5.6890755E0,1.9017105E0,6.2153034E0,0E0,0E0,0E0,0E0,0E0,4.0483E0,0E0,0E0],"parents":[2147483647,0,0,1,1,2,2,3,3,4,4,10,10],"right_children":[2,4,6,8,10,-1,-1,-1,-1,-1,12,-1,-1],"split_conditions":[-8.942062E-2,-5.4388776E-2,1.0666072E0,4.641757E-1,-1.7590703E-1,4.12109E-1,-1.8050538E-1,-4.2596593E-1,-1.0929777E-2,-3.279888E-1,-4.447144E-2,3.534777E-1,-1.322764E-1],"split_indices":[101,13585,2106,4064,100,0,0,0,0,0,124,0,0],"split_type":[0,0,0,0,0,0,0,0,0,0,0,0,0],"sum_hessian":[2.2734856E1,1.5218044E1,7.5168123E0,8.017168E0,7.2008753E0,6.305444E0,1.2113682E0,6.8175282E0,1.1996403E0,1.9180456E0,5.2828298E0,3.602006E0,1.6808236E0],"tree_param":{"num_deleted":"0","num_feature":"56280","num_nodes":"13","size_leaf_vector":"0"}},{"base_weights":[-6.082974E-2,5.946753E-1,-7.744961E-1,1.0312548E0,-6.020639E-1,8.124942E-1,-1.0421436E0,1.2220316E0,-2.0421456E-1,-9.575865E-1,1.7338648E-1,9.7697526E-2,-1.2359753E0],"categories":[],"categories_nodes":[],"categories_segments":[],"categories_sizes":[],"default_left":[true,true,true,true,true,false,true,false,false,false,false,false,false],"id":2,"left_children":[1,3,5,7,9,-1,11,-1,-1,-1,-1,-1,-1],"loss_changes":[1.0521434E1,6.773278E0,5.404625E0,2.3700476E0,1.2078503E0,0E0,2.2462072E0,0E0,0E0,0E0,0E0,0E0,0E0],"parents":[2147483647,0,0,1,1,2,2,3,3,4,4,6,6],"right_children":[2,4,6,8,10,-1,12,-1,-1,-1,-1,-1,-1],"split_conditions":[1.5654912E0,1.4844186E0,1.4108937E0,5.899961E-1,3.4629744E-1,2.4374828E-1,6.978971E-1,3.6660948E-1,-6.126437E-2,-2.8727597E-1,5.201595E-2,2.930926E-2,-3.707926E-1],"split_indices":[11355,27033,8541,2471,30,0,4092,0,0,0,0,0,0],"split_type":[0,0,0,0,0,0,0,0,0,0,0,0,0],"sum_hessian":[2.050621E1,1.0775557E1,9.730655E0,7.996611E0,2.778945E0,1.1104804E0,8.620174E0,6.9363947E0,1.0602167E0,1.7443368E0,1.0346081E0,1.3249103E0,7.295264E0],"tree_param":{"num_deleted":"0","num_feature":"56280","num_nodes":"13","size_leaf_vector":"0"}},{"base_weights":[-5.030915E-2,-1.0304482E0,3.314699E-1,-2.253863E-1,9.512189E-1,4.5243597E-1,-8.248239E-1,1.1650605E0,-1.7668264E-1,-7.048005E-1,1.0169348E0,-1.0459063E0,-9.082641E-3],"categories":[],"categories_nodes":[],"categories_segments":[],"categories_sizes":[],"default_left":[true,false,true,true,true,true,true,false,false,false,false,false,false],"id":3,"left_children":[1,-1,3,5,7,9,11,-1,-1,-1,-1,-1,-1],"loss_changes":[7.5389543E0,0E0,5.252681E0,3.8260784E0,1.9185266E0,3.743991E0,8.677137E-1,0E0,0E0,0E0,0E0,0E0,0E0],"parents":[2147483647,0,0,2,2,3,3,4,4,5,5,6,6],"right_children":[2,-1,4,6,8,10,12,-1,-1,-1,-1,-1,-1],"split_conditions":[-1.7590703E-1,-3.0913448E-1,-2.4927747E-2,7.5951874E-1,2.4436744E-2,7.259949E-1,6.1554415E-3,3.4951818E-1,-5.3004794E-2,-2.1144016E-1,3.0508044E-1,-3.137719E-1,-2.7247926E-3],"split_indices":[100,0,2348,14549,2766,4899,3566,0,0,0,0,0,0],"split_type":[0,0,0,0,0,0,0,0,0,0,0,0,0],"sum_hessian":[1.8234255E1,4.635218E0,1.3599037E1,7.498142E0,6.1008954E0,3.6340842E0,3.8640575E0,5.100865E0,1.0000306E0,1.1100048E0,2.5240793E0,2.8181324E0,1.045925E0],"tree_param":{"num_deleted":"0","num_feature":"56280","num_nodes":"13","size_leaf_vector":"0"}},{"base_weights":[-5.2758273E-2,7.7067274E-1,-4.0869793E-1,9.5994836E-1,-3.459617E-2,-8.387148E-1,1.9949287E-1,-1.044904E0,2.4102627E-1,6.920428E-1,-6.6449016E-1,-1.1254919E-1,9.7187644E-1],"categories":[],"categories_nodes":[],"categories_segments":[],"categories_sizes":[],"default_left":[true,true,true,false,false,true,true,false,false,true,false,false,false],"id":4,"left_children":[1,3,5,-1,-1,7,9,-1,-1,11,-1,-1,-1],"loss_changes":[5.260056E0,8.6215425E-1,3.4190807E0,0E0,0E0,1.9161944E0,2.995184E0,0E0,0E0,1.0740104E0,0E0,0E0,0E0],"parents":[2147483647,0,0,1,1,2,2,5,5,6,6,9,9],"right_children":[2,4,6,-1,-1,8,10,-1,-1,12,-1,-1,-1],"split_conditions":[1.4365342E0,9.3432404E-2,-1.7696574E-2,2.8798452E-1,-1.0378852E-2,6.095244E-1,-8.290912E-3,-3.134712E-1,7.2307885E-2,3.2748675E-1,-1.9934706E-1,-3.376476E-2,2.9156294E-1],"split_indices":[12561,9038,13808,0,0,7700,1946,0,0,8068,0,0,0],"split_type":[0,0,0,0,0,0,0,0,0,0,0,0,0],"sum_hessian":[1.5872132E1,4.4386287E0,1.1433504E1,3.4383683E0,1.0002604E0,6.475803E0,4.957701E0,5.4645476E0,1.011255E0,3.284336E0,1.6733654E0,1.0017766E0,2.2825594E0],"tree_param":{"num_deleted":"0","num_feature":"56280","num_nodes":"13","size_leaf_vector":"0"}},{"base_weights":[-3.693454E-2,4.7198015E-1,-5.323715E-1,7.546121E-1,-4.7781572E-1,-8.8430434E-1,1.785764E-1,-1.5697187E-1,9.5243067E-1,-9.635479E-1,-2.6847336E-1,7.726141E-1,-5.1773727E-1],"categories":[],"categories_nodes":[],"categories_segments":[],"categories_sizes":[],"default_left":[true,true,true,true,false,true,true,false,false,false,false,false,false],"id":5,"left_children":[1,3,5,7,-1,9,11,-1,-1,-1,-1,-1,-1],"loss_changes":[4.011871E0,2.4779077E0,2.1664493E0,1.3155737E0,0E0,1.1547565E-2,1.8436025E0,0E0,0E0,0E0,0E0,0E0,0E0],"parents":[2147483647,0,0,1,1,2,2,3,3,5,5,6,6],"right_children":[2,4,6,8,-1,10,12,-1,-1,-1,-1,-1,-1],"split_conditions":[1.5092653E0,-8.248781E-4,5.8659035E-1,-1.18278354E-1,-1.4334472E-1,2.7982572E-1,7.8716666E-1,-4.7091562E-2,2.857292E-1,-2.8906438E-1,-8.054201E-2,2.3178424E-1,-1.5532118E-1],"split_indices":[12963,10198,1265,13784,0,21,80,0,0,0,0,0,0],"split_type":[0,0,0,0,0,0,0,0,0,0,0,0,0],"sum_hessian":[1.3915024E1,6.887502E0,7.027522E0,5.466369E0,1.4211332E0,4.537523E0,2.489999E0,1.0115321E0,4.454837E0,3.519954E0,1.0175688E0,1.2845492E0,1.2054498E0],"tree_param":{"num_deleted":"0","num_feature":"56280","num_nodes":"13","size_leaf_vector":"0"}},{"base_weights":[-4.2617735E-2,-3.6326873E-1,6.1177456E-1,-6.8269503E-1,2.4804711E-1,-1.4134131E-1,8.531448E-1,-9.367313E-1,7.300245E-2,-3.6956167E-1,7.562374E-1],"categories":[],"categories_nodes":[],"categories_segments":[],"categories_sizes":[],"default_left":[true,true,true,true,true,false,false,false,false,false,false],"id":6,"left_children":[1,3,5,7,9,-1,-1,-1,-1,-1,-1],"loss_changes":[2.9985456E0,2.0258524E0,9.7926307E-1,1.3183305E0,1.5337936E0,0E0,0E0,0E0,0E0,0E0,0E0],"parents":[2147483647,0,0,1,1,2,2,3,3,4,4],"right_children":[2,4,6,8,10,-1,-1,-1,-1,-1,-1],"split_conditions":[-8.942062E-2,5.8659035E-1,5.202011E-2,-3.6174126E-2,-1.7686787E-1,-4.2402394E-2,2.5594345E-1,-2.810194E-1,2.1900736E-2,-1.10868506E-1,2.2687122E-1],"split_indices":[101,1265,2993,6353,4530,0,0,0,0,0,0],"split_type":[0,0,0,0,0,0,0,0,0,0,0],"sum_hessian":[1.2231123E1,8.507393E0,3.7237303E0,5.5110054E0,2.9963875E0,1.0043645E0,2.7193658E0,3.9452174E0,1.5657878E0,1.4757193E0,1.520668E0],"tree_param":{"num_deleted":"0","num_feature":"56280","num_nodes":"11","size_leaf_vector":"0"}},{"base_weights":[-2.9684981E-2,-7.2720534E-1,2.4203005E-1,-2.9988474E-1,5.767203E-1,3.5446143E-1,-6.871074E-1,8.034821E-1,-1.5005483E-1],"categories":[],"categories_nodes":[],"categories_segments":[],"categories_sizes":[],"default_left":[true,false,true,true,true,false,false,false,false],"id":7,"left_children":[1,-1,3,5,7,-1,-1,-1,-1],"loss_changes":[2.402737E0,0E0,1.8425856E0,1.3007941E0,1.1148202E0,0E0,0E0,0E0,0E0],"parents":[2147483647,0,0,2,2,3,3,4,4],"right_children":[2,-1,4,6,8,-1,-1,-1,-1],"split_conditions":[-1.7590703E-1,-2.1816161E-1,-5.6777738E-2,1.47214E-1,-1.2493639E-2,1.06338434E-1,-2.0613222E-1,2.4104464E-1,-4.501645E-2],"split_indices":[100,0,1527,8239,7573,0,0,0,0],"split_type":[0,0,0,0,0,0,0,0,0],"sum_hessian":[1.0748901E1,2.543394E0,8.205506E0,3.1725903E0,5.0329165E0,1.2109233E0,1.961667E0,3.7555878E0,1.2773287E0],"tree_param":{"num_deleted":"0","num_feature":"56280","num_nodes":"9","size_leaf_vector":"0"}},{"base_weights":[-3.4221616E-2,3.6215878E-1,-4.6063134E-1,7.2869915E-1,-1.9888651E-1,-7.288562E-1,1.8632908E-1,2.8523692E-1,-5.5900425E-1],"categories":[],"categories_nodes":[],"categories_segments":[],"categories_sizes":[],"default_left":[true,true,true,false,true,false,false,false,false],"id":8,"left_children":[1,3,5,-1,7,-1,-1,-1,-1],"loss_changes":[1.9531245E0,1.3864079E0,1.095707E0,0E0,7.123084E-1,0E0,0E0,0E0,0E0],"parents":[2147483647,0,0,1,1,2,2,4,4],"right_children":[2,4,6,-1,8,-1,-1,-1,-1],"split_conditions":[1.5654912E0,8.0335546E-1,6.0937953E-1,2.1860975E-1,-5.49243E-4,-2.1865687E-1,5.5898726E-2,8.557108E-2,-1.6770127E-1],"split_indices":[11355,7316,1268,0,5777,0,0,0,0],"split_type":[0,0,0,0,0,0,0,0,0],"sum_hessian":[9.568561E0,5.036981E0,4.53158E0,2.8658495E0,2.1711318E0,3.1139672E0,1.4176126E0,1.0148094E0,1.1563225E0],"tree_param":{"num_deleted":"0","num_feature":"56280","num_nodes":"9","size_leaf_vector":"0"}},{"base_weights":[-3.037661E-2,5.769839E-1,-2.707536E-1,1.6628744E-1,-6.366262E-1,5.589677E-1,-4.1535208E-1,-7.8116107E-1,-1.17565244E-1],"categories":[],"categories_nodes":[],"categories_segments":[],"categories_sizes":[],"default_left":[true,false,true,true,true,false,false,false,false],"id":9,"left_children":[1,-1,3,5,7,-1,-1,-1,-1],"loss_changes":[1.5592034E0,0E0,1.3156002E0,1.2006601E0,2.326467E-1,0E0,0E0,0E0,0E0],"parents":[2147483647,0,0,2,2,3,3,4,4],"right_children":[2,-1,4,6,8,-1,-1,-1,-1],"split_conditions":[4.6090424E-1,1.7309518E-1,1.40923E0,1.16883874E-1,4.6698797E-1,1.6769032E-1,-1.24605626E-1,-2.3434833E-1,-3.5269573E-2],"split_indices":[13315,0,21807,2414,8893,0,0,0,0],"split_type":[0,0,0,0,0,0,0,0,0],"sum_hessian":[8.609769E0,2.0442452E0,6.5655236E0,3.2403615E0,3.3251622E0,1.9576674E0,1.2826941E0,2.2059536E0,1.1192085E0],"tree_param":{"num_deleted":"0","num_feature":"56280","num_nodes":"9","size_leaf_vector":"0"}},{"base_weights":[-3.141304E-2,-2.8084382E-1,4.7498187E-1,-6.348524E-1,1.2438895E-1,7.565793E-2,6.172308E-1,4.628598E-1,-3.9994237E-1],"categories":[],"categories_nodes":[],"categories_segments":[],"categories_sizes":[],"default_left":[true,true,true,false,true,false,false,false,false],"id":10,"left_children":[1,3,5,-1,7,-1,-1,-1,-1],"loss_changes":[1.2458305E0,1.0156091E0,1.3950461E-1,0E0,8.737884E-1,0E0,0E0,0E0,0E0],"parents":[2147483647,0,0,1,1,2,2,4,4],"right_children":[2,4,6,-1,8,-1,-1,-1,-1],"split_conditions":[-8.942062E-2,-5.4388776E-2,-1.2911214E-1,-1.9045573E-1,-2.1554738E-2,2.2697378E-2,1.8516923E-1,1.3885795E-1,-1.1998271E-1],"split_indices":[101,13585,13366,0,7373,0,0,0,0],"split_type":[0,0,0,0,0,0,0,0,0],"sum_hessian":[7.807146E0,5.529119E0,2.278027E0,2.6486447E0,2.8804743E0,1.0007031E0,1.277324E0,1.821732E0,1.0587423E0],"tree_param":{"num_deleted":"0","num_feature":"56280","num_nodes":"9","size_leaf_vector":"0"}},{"base_weights":[-2.0526735E-2,3.3922344E-1,-3.453079E-1,-1.4504083E-1,6.583149E-1,2.0540306E-1,-6.057144E-1],"categories":[],"categories_nodes":[],"categories_segments":[],"categories_sizes":[],"default_left":[true,true,true,false,false,false,false],"id":11,"left_children":[1,3,5,-1,-1,-1,-1],"loss_changes":[1.0682486E0,7.702399E-1,8.089947E-1,0E0,0E0,0E0,0E0],"parents":[2147483647,0,0,1,1,2,2],"right_children":[2,4,6,-1,-1,-1,-1],"split_conditions":[1.5092653E0,-5.365175E-2,2.4796026E-2,-4.3512248E-2,1.9749448E-1,6.162092E-2,-1.8171433E-1],"split_indices":[12963,23235,2576,0,0,0,0],"split_type":[0,0,0,0,0,0,0],"sum_hessian":[7.14029E0,3.3666673E0,3.7736225E0,1.5538886E0,1.8127787E0,1.2793206E0,2.4943018E0],"tree_param":{"num_deleted":"0","num_feature":"56280","num_nodes":"7","size_leaf_vector":"0"}},{"base_weights":[-1.0750146E-2,3.0416015E-1,-3.4595233E-1,5.594372E-1,-2.2172758E-1,-5.771603E-1,1.8357188E-1],"categories":[],"categories_nodes":[],"categories_segments":[],"categories_sizes":[],"default_left":[true,true,true,false,false,false,false],"id":12,"left_children":[1,3,5,-1,-1,-1,-1],"loss_changes":[9.06509E-1,7.2091264E-1,6.134037E-1,0E0,0E0,0E0,0E0],"parents":[2147483647,0,0,1,1,2,2],"right_children":[2,4,6,-1,-1,-1,-1],"split_conditions":[1.5654912E0,1.0947933E0,-2.71286E-2,1.6783117E-1,-6.651828E-2,-1.731481E-1,5.5071566E-2],"split_indices":[11355,9746,11183,0,0,0,0],"split_type":[0,0,0,0,0,0,0],"sum_hessian":[6.590893E0,3.4460554E0,3.1448371E0,2.27697E0,1.1690855E0,2.1264138E0,1.0184234E0],"tree_param":{"num_deleted":"0","num_feature":"56280","num_nodes":"7","size_leaf_vector":"0"}},{"base_weights":[-1.0726955E-2,-5.1347923E-1,1.87493E-1,-1.6226882E-1,5.355453E-1,2.4410461E-1,-4.6433932E-1],"categories":[],"categories_nodes":[],"categories_segments":[],"categories_sizes":[],"default_left":[true,false,true,true,false,false,false],"id":13,"left_children":[1,-1,3,5,-1,-1,-1],"loss_changes":[8.0634636E-1,0E0,7.9819256E-1,5.6529653E-1,0E0,0E0,0E0],"parents":[2147483647,0,0,2,2,3,3],"right_children":[2,-1,4,6,-1,-1,-1],"split_conditions":[-1.7590703E-1,-1.5404378E-1,-2.4927747E-2,7.5951874E-1,1.6066359E-1,7.3231384E-2,-1.393018E-1],"split_indices":[100,0,2348,14549,0,0,0],"split_type":[0,0,0,0,0,0,0],"sum_hessian":[6.12527E0,1.2823496E0,4.8429203E0,2.6817644E0,2.161156E0,1.2252879E0,1.4564764E0],"tree_param":{"num_deleted":"0","num_feature":"56280","num_nodes":"7","size_leaf_vector":"0"}},{"base_weights":[-1.7261451E-2,-2.570413E-1,3.838496E-1,-4.5694408E-1,2.2420067E-1,-6.116152E-1,-4.673879E-2],"categories":[],"categories_nodes":[],"categories_segments":[],"categories_sizes":[],"default_left":[true,true,false,true,false,false,false],"id":14,"left_children":[1,3,-1,5,-1,-1,-1],"loss_changes":[7.384569E-1,5.6058526E-1,0E0,2.057733E-1,0E0,0E0,0E0],"parents":[2147483647,0,0,1,1,3,3],"right_children":[2,4,-1,6,-1,-1,-1],"split_conditions":[-1.4553788E-1,5.998167E-1,1.15154885E-1,3.3261245E-1,6.7260206E-2,-1.8348455E-1,-1.4021637E-2],"split_indices":[100,11719,0,28,0,0,0],"split_type":[0,0,0,0,0,0,0],"sum_hessian":[5.652138E0,3.7622702E0,1.889868E0,2.693789E0,1.0684812E0,1.5996362E0,1.0941528E0],"tree_param":{"num_deleted":"0","num_feature":"56280","num_nodes":"7","size_leaf_vector":"0"}},{"base_weights":[-1.702081E-2,1.8976094E-1,-4.6747673E-1,-2.4653615E-1,4.5691514E-1,6.3330233E-1,2.0998249E-2],"categories":[],"categories_nodes":[],"categories_segments":[],"categories_sizes":[],"default_left":[true,true,false,false,true,false,false],"id":15,"left_children":[1,3,-1,-1,5,-1,-1],"loss_changes":[6.795146E-1,7.0225537E-1,0E0,0E0,2.548834E-1,0E0,0E0],"parents":[2147483647,0,0,1,1,4,4],"right_children":[2,4,-1,-1,6,-1,-1],"split_conditions":[1.801236E-2,4.635121E-2,-1.4024302E-1,-7.396085E-2,-5.817461E-3,1.8999071E-1,6.2994747E-3],"split_indices":[6783,7611,0,0,5774,0,0],"split_type":[0,0,0,0,0,0,0],"sum_hessian":[5.342788E0,4.0584793E0,1.2843088E0,1.5706246E0,2.487855E0,1.4488105E0,1.0390444E0],"tree_param":{"num_deleted":"0","num_feature":"56280","num_nodes":"7","size_leaf_vector":"0"}},{"base_weights":[-1.3633871E-2,1.6551597E-1,-4.4721922E-1,4.9444506E-1,-2.041737E-1,-5.210059E-1,2.1590266E-1],"categories":[],"categories_nodes":[],"categories_segments":[],"categories_sizes":[],"default_left":[true,true,false,false,true,false,false],"id":16,"left_children":[1,3,-1,-1,5,-1,-1],"loss_changes":[5.4032E-1,7.062583E-1,0E0,0E0,5.186115E-1,0E0,0E0],"parents":[2147483647,0,0,1,1,4,4],"right_children":[2,4,-1,-1,6,-1,-1],"split_conditions":[-8.243092E-3,1.5065508E0,-1.3416578E-1,1.4833352E-1,5.572737E-2,-1.5630178E-1,6.47708E-2],"split_indices":[7574,21405,0,0,380,0,0],"split_type":[0,0,0,0,0,0,0],"sum_hessian":[5.003058E0,3.977774E0,1.0252842E0,1.9263533E0,2.0514205E0,1.0324533E0,1.0189673E0],"tree_param":{"num_deleted":"0","num_feature":"56280","num_nodes":"7","size_leaf_vector":"0"}},{"base_weights":[-2.4592908E-2,3.704941E-1,-2.053441E-1,-4.9244732E-1,1.5772165E-1],"categories":[],"categories_nodes":[],"categories_segments":[],"categories_sizes":[],"default_left":[true,false,true,false,false],"id":17,"left_children":[1,-1,3,-1,-1],"loss_changes":[4.7782987E-1,0E0,5.4708105E-1,0E0,0E0],"parents":[2147483647,0,0,2,2],"right_children":[2,-1,4,-1,-1],"split_conditions":[1.4365342E0,1.1114823E-1,-1.7696574E-2,-1.477342E-1,4.73165E-2],"split_indices":[12561,0,13808,0,0],"split_type":[0,0,0,0,0],"sum_hessian":[4.6257854E0,1.1224912E0,3.5032942E0,1.7573041E0,1.7459902E0],"tree_param":{"num_deleted":"0","num_feature":"56280","num_nodes":"5","size_leaf_vector":"0"}},{"base_weights":[-1.723949E-2,1.8785173E-1,-3.5163137E-1,-1.5092401E-1,4.0295705E-1],"categories":[],"categories_nodes":[],"categories_segments":[],"categories_sizes":[],"default_left":[true,true,false,false,false],"id":18,"left_children":[1,3,-1,-1,-1],"loss_changes":[4.3592343E-1,3.519188E-1,0E0,0E0,0E0],"parents":[2147483647,0,0,1,1],"right_children":[2,4,-1,-1,-1],"split_conditions":[-1.297483E-2,8.6874974E-1,-1.0548942E-1,-4.5277204E-2,1.2088712E-1],"split_indices":[2749,12147,0,0,0],"split_type":[0,0,0,0,0],"sum_hessian":[4.3931813E0,2.9946895E0,1.398492E0,1.2788937E0,1.7157958E0],"tree_param":{"num_deleted":"0","num_feature":"56280","num_nodes":"5","size_leaf_vector":"0"}},{"base_weights":[-1.7792277E-2,2.1779059E-1,-3.1453007E-1,4.4651943E-1,-1.7222264E-1],"categories":[],"categories_nodes":[],"categories_segments":[],"categories_sizes":[],"default_left":[true,true,false,false,false],"id":19,"left_children":[1,3,-1,-1,-1],"loss_changes":[4.3342248E-1,3.8919663E-1,0E0,0E0,0E0],"parents":[2147483647,0,0,1,1],"right_children":[2,4,-1,-1,-1],"split_conditions":[1.16333365E-1,1.4421E0,-9.4359025E-2,1.3395584E-1,-5.1666796E-2],"split_indices":[2414,20601,0,0,0],"split_type":[0,0,0,0,0],"sum_hessian":[4.220139E0,2.5007896E0,1.7193493E0,1.4850045E0,1.015785E0],"tree_param":{"num_deleted":"0","num_feature":"56280","num_nodes":"5","size_leaf_vector":"0"}},{"base_weights":[-1.445132E-2,2.555201E-1,-2.5208616E-1,8.915264E-2,-4.7313035E-1],"categories":[],"categories_nodes":[],"categories_segments":[],"categories_sizes":[],"default_left":[true,false,true,false,false],"id":20,"left_children":[1,-1,3,-1,-1],"loss_changes":[3.8754725E-1,0E0,2.8221178E-1,0E0,0E0],"parents":[2147483647,0,0,2,2],"right_children":[2,-1,4,-1,-1],"split_conditions":[1.5092653E0,7.6656036E-2,7.8716666E-1,2.6745794E-2,-1.419391E-1],"split_indices":[12963,0,4904,0,0],"split_type":[0,0,0,0,0],"sum_hessian":[4.0368032E0,1.8545868E0,2.1822166E0,1.0924354E0,1.0897812E0],"tree_param":{"num_deleted":"0","num_feature":"56280","num_nodes":"5","size_leaf_vector":"0"}},{"base_weights":[-1.9562572E-2,-2.1430705E-1,2.9293808E-1,1.10308684E-1,-4.0196684E-1],"categories":[],"categories_nodes":[],"categories_segments":[],"categories_sizes":[],"default_left":[true,true,false,false,false],"id":21,"left_children":[1,3,-1,-1,-1],"loss_changes":[3.598344E-1,2.6270807E-1,0E0,0E0,0E0],"parents":[2147483647,0,0,1,1],"right_children":[2,4,-1,-1,-1],"split_conditions":[-1.4553788E-1,8.581826E-1,8.788143E-2,3.3092607E-2,-1.2059005E-1],"split_indices":[100,1694,0,0,0],"split_type":[0,0,0,0,0],"sum_hessian":[3.8811452E0,2.5846558E0,1.2964895E0,1.0978214E0,1.4868343E0],"tree_param":{"num_deleted":"0","num_feature":"56280","num_nodes":"5","size_leaf_vector":"0"}},{"base_weights":[-1.4732548E-2,-2.5303E-1,2.3747143E-1],"categories":[],"categories_nodes":[],"categories_segments":[],"categories_sizes":[],"default_left":[true,false,false],"id":22,"left_children":[1,-1,-1],"loss_changes":[3.4491935E-1,0E0,0E0],"parents":[2147483647,0,0],"right_children":[2,-1,-1],"split_conditions":[-5.4388776E-2,-7.5909E-2,7.124143E-2],"split_indices":[13585,0,0],"split_type":[0,0,0],"sum_hessian":[3.739334E0,1.9209911E0,1.818343E0],"tree_param":{"num_deleted":"0","num_feature":"56280","num_nodes":"3","size_leaf_vector":"0"}},{"base_weights":[-1.1581158E-2,2.226301E-1,-2.4713734E-1],"categories":[],"categories_nodes":[],"categories_segments":[],"categories_sizes":[],"default_left":[true,false,false],"id":23,"left_children":[1,-1,-1],"loss_changes":[3.1205094E-1,0E0,0E0],"parents":[2147483647,0,0],"right_children":[2,-1,-1],"split_conditions":[1.5654912E0,6.678903E-2,-7.4141204E-2],"split_indices":[11355,0,0],"split_type":[0,0,0],"sum_hessian":[3.6588936E0,1.8622003E0,1.7966933E0],"tree_param":{"num_deleted":"0","num_feature":"56280","num_nodes":"3","size_leaf_vector":"0"}},{"base_weights":[-9.952976E-3,-1.8817905E-1,2.746117E-1,1.0724081E-1,-4.3714336E-1],"categories":[],"categories_nodes":[],"categories_segments":[],"categories_sizes":[],"default_left":[true,true,false,false,false],"id":24,"left_children":[1,3,-1,-1,-1],"loss_changes":[2.8395525E-1,2.9764652E-1,0E0,0E0,0E0],"parents":[2147483647,0,0,1,1],"right_children":[2,4,-1,-1,-1],"split_conditions":[-2.0485353E-2,7.5400256E-2,8.238351E-2,3.2172244E-2,-1.3114302E-1],"split_indices":[11993,12252,0,0,0],"split_type":[0,0,0,0,0],"sum_hessian":[3.5799198E0,2.4095218E0,1.1703981E0,1.3622887E0,1.047233E0],"tree_param":{"num_deleted":"0","num_feature":"56280","num_nodes":"5","size_leaf_vector":"0"}},{"base_weights":[-1.1906844E-2,-2.0014778E-1,2.6623714E-1,1.1112502E-1,-3.9852145E-1],"categories":[],"categories_nodes":[],"categories_segments":[],"categories_sizes":[],"default_left":[true,true,false,false,false],"id":25,"left_children":[1,3,-1,-1,-1],"loss_changes":[2.8603902E-1,2.4323937E-1,0E0,0E0,0E0],"parents":[2147483647,0,0,1,1],"right_children":[2,4,-1,-1,-1],"split_conditions":[5.2785003E-1,6.824121E-3,7.987115E-2,3.3337507E-2,-1.1955644E-1],"split_indices":[20959,3369,0,0,0],"split_type":[0,0,0,0,0],"sum_hessian":[3.4453926E0,2.2220087E0,1.2233837E0,1.0360843E0,1.1859245E0],"tree_param":{"num_deleted":"0","num_feature":"56280","num_nodes":"5","size_leaf_vector":"0"}},{"base_weights":[-1.0886E-2,-2.8968123E-1,1.6980748E-1,3.592991E-1,-1.2632474E-1],"categories":[],"categories_nodes":[],"categories_segments":[],"categories_sizes":[],"default_left":[true,false,true,false,false],"id":26,"left_children":[1,-1,3,-1,-1],"loss_changes":[2.666017E-1,0E0,2.2770578E-1,0E0,0E0],"parents":[2147483647,0,0,2,2],"right_children":[2,-1,4,-1,-1],"split_conditions":[-3.360086E-2,-8.690437E-2,1.0988528E-2,1.0778973E-1,-3.7897423E-2],"split_indices":[6364,0,11207,0,0],"split_type":[0,0,0,0,0],"sum_hessian":[3.3157377E0,1.066717E0,2.2490206E0,1.2413735E0,1.007647E0],"tree_param":{"num_deleted":"0","num_feature":"56280","num_nodes":"5","size_leaf_vector":"0"}},{"base_weights":[-1.1461366E-2,-2.5394386E-1,1.7169398E-1],"categories":[],"categories_nodes":[],"categories_segments":[],"categories_sizes":[],"default_left":[true,false,false],"id":27,"left_children":[1,-1,-1],"loss_changes":[2.3009013E-1,0E0,0E0],"parents":[2147483647,0,0],"right_children":[2,-1,-1],"split_conditions":[6.565566E-2,-7.618316E-2,5.1508196E-2],"split_indices":[187,0,0],"split_type":[0,0,0],"sum_hessian":[3.1990821E0,1.2102787E0,1.9888033E0],"tree_param":{"num_deleted":"0","num_feature":"56280","num_nodes":"3","size_leaf_vector":"0"}},{"base_weights":[-1.4252873E-2,-2.188822E-1,2.0651065E-1],"categories":[],"categories_nodes":[],"categories_segments":[],"categories_sizes":[],"default_left":[true,false,false],"id":28,"left_children":[1,-1,-1],"loss_changes":[2.3260023E-1,0E0,0E0],"parents":[2147483647,0,0],"right_children":[2,-1,-1],"split_conditions":[6.0616696E-1,-6.5664664E-2,6.19532E-2],"split_indices":[6897,0,0],"split_type":[0,0,0],"sum_hessian":[3.1483119E0,1.6382827E0,1.5100292E0],"tree_param":{"num_deleted":"0","num_feature":"56280","num_nodes":"3","size_leaf_vector":"0"}},{"base_weights":[-1.1069442E-2,2.102795E-1,-2.0408072E-1],"categories":[],"categories_nodes":[],"categories_segments":[],"categories_sizes":[],"default_left":[true,false,false],"id":29,"left_children":[1,-1,-1],"loss_changes":[2.1783234E-1,0E0,0E0],"parents":[2147483647,0,0],"right_children":[2,-1,-1],"split_conditions":[1.5079424E0,6.308385E-2,-6.122422E-2],"split_indices":[7335,0,0],"split_type":[0,0,0],"sum_hessian":[3.0942585E0,1.3996483E0,1.6946104E0],"tree_param":{"num_deleted":"0","num_feature":"56280","num_nodes":"3","size_leaf_vector":"0"}},{"base_weights":[-7.404606E-3,-1.7024542E-1,2.4220616E-1,-3.525151E-1,9.921417E-2],"categories":[],"categories_nodes":[],"categories_segments":[],"categories_sizes":[],"default_left":[true,true,false,false,false],"id":30,"left_children":[1,3,-1,-1,-1],"loss_changes":[2.0541899E-1,1.8387772E-1,0E0,0E0,0E0],"parents":[2147483647,0,0,1,1],"right_children":[2,4,-1,-1,-1],"split_conditions":[-2.0485353E-2,-6.801337E-2,7.266185E-2,-1.0575453E-1,2.9764252E-2],"split_indices":[11993,12171,0,0,0],"split_type":[0,0,0,0,0],"sum_hessian":[3.039295E0,2.0317686E0,1.0075265E0,1.0281024E0,1.003666E0],"tree_param":{"num_deleted":"0","num_feature":"56280","num_nodes":"5","size_leaf_vector":"0"}},{"base_weights":[-6.7136185E-3,2.1404722E-1,-1.8757804E-1],"categories":[],"categories_nodes":[],"categories_segments":[],"categories_sizes":[],"default_left":[true,false,false],"id":31,"left_children":[1,-1,-1],"loss_changes":[1.9765905E-1,0E0,0E0],"parents":[2147483647,0,0],"right_children":[2,-1,-1],"split_conditions":[5.99813E-1,6.421417E-2,-5.6273412E-2],"split_indices":[12121,0,0],"split_type":[0,0,0],"sum_hessian":[2.9448347E0,1.2435298E0,1.7013048E0],"tree_param":{"num_deleted":"0","num_feature":"56280","num_nodes":"3","size_leaf_vector":"0"}},{"base_weights":[-2.6856984E-3,-2.1657993E-1,1.6611682E-1],"categories":[],"categories_nodes":[],"categories_segments":[],"categories_sizes":[],"default_left":[true,false,false],"id":32,"left_children":[1,-1,-1],"loss_changes":[1.766069E-1,0E0,0E0],"parents":[2147483647,0,0],"right_children":[2,-1,-1],"split_conditions":[6.0264885E-1,-6.497398E-2,4.983505E-2],"split_indices":[12525,0,0],"split_type":[0,0,0],"sum_hessian":[2.8949142E0,1.1520646E0,1.7428496E0],"tree_param":{"num_deleted":"0","num_feature":"56280","num_nodes":"3","size_leaf_vector":"0"}},{"base_weights":[-5.923899E-3,-2.2334507E-1,1.5769757E-1],"categories":[],"categories_nodes":[],"categories_segments":[],"categories_sizes":[],"default_left":[true,false,false],"id":33,"left_children":[1,-1,-1],"loss_changes":[1.7233098E-1,0E0,0E0],"parents":[2147483647,0,0],"right_children":[2,-1,-1],"split_conditions":[6.565566E-2,-6.7003526E-2,4.7309276E-2],"split_indices":[187,0,0],"split_type":[0,0,0],"sum_hessian":[2.8541358E0,1.0688417E0,1.7852939E0],"tree_param":{"num_deleted":"0","num_feature":"56280","num_nodes":"3","size_leaf_vector":"0"}},{"base_weights":[-9.472859E-3,1.9424036E-1,-1.8364063E-1],"categories":[],"categories_nodes":[],"categories_segments":[],"categories_sizes":[],"default_left":[true,false,false],"id":34,"left_children":[1,-1,-1],"loss_changes":[1.7102884E-1,0E0,0E0],"parents":[2147483647,0,0],"right_children":[2,-1,-1],"split_conditions":[-4.0625848E-2,5.8272112E-2,-5.509219E-2],"split_indices":[10779,0,0],"split_type":[0,0,0],"sum_hessian":[2.8150327E0,1.2443478E0,1.5706849E0],"tree_param":{"num_deleted":"0","num_feature":"56280","num_nodes":"3","size_leaf_vector":"0"}},{"base_weights":[-5.8630165E-3,-1.8419743E-1,1.9887644E-1],"categories":[],"categories_nodes":[],"categories_segments":[],"categories_sizes":[],"default_left":[true,false,false],"id":35,"left_children":[1,-1,-1],"loss_changes":[1.7437726E-1,0E0,0E0],"parents":[2147483647,0,0],"right_children":[2,-1,-1],"split_conditions":[-2.7015053E-2,-5.525923E-2,5.9662934E-2],"split_indices":[2346,0,0],"split_type":[0,0,0],"sum_hessian":[2.7725782E0,1.5354694E0,1.237109E0],"tree_param":{"num_deleted":"0","num_feature":"56280","num_nodes":"3","size_leaf_vector":"0"}},{"base_weights":[-2.9607075E-3,2.0715179E-1,-1.6947205E-1],"categories":[],"categories_nodes":[],"categories_segments":[],"categories_sizes":[],"default_left":[true,false,false],"id":36,"left_children":[1,-1,-1],"loss_changes":[1.6561523E-1,0E0,0E0],"parents":[2147483647,0,0],"right_children":[2,-1,-1],"split_conditions":[1.9918527E-2,6.214554E-2,-5.084162E-2],"split_indices":[12221,0,0],"split_type":[0,0,0],"sum_hessian":[2.730302E0,1.0992024E0,1.6310996E0],"tree_param":{"num_deleted":"0","num_feature":"56280","num_nodes":"3","size_leaf_vector":"0"}},{"base_weights":[1.0175814E-3,1.9711237E-1,-1.7717788E-1],"categories":[],"categories_nodes":[],"categories_segments":[],"categories_sizes":[],"default_left":[true,false,false],"id":37,"left_children":[1,-1,-1],"loss_changes":[1.6391994E-1,0E0,0E0],"parents":[2147483647,0,0],"right_children":[2,-1,-1],"split_conditions":[1.5092653E0,5.9133712E-2,-5.3153366E-2],"split_indices":[12963,0,0],"split_type":[0,0,0],"sum_hessian":[2.691591E0,1.230896E0,1.4606949E0],"tree_param":{"num_deleted":"0","num_feature":"56280","num_nodes":"3","size_leaf_vector":"0"}},{"base_weights":[2.3903449E-3,-1.8190613E-1,1.8809451E-1],"categories":[],"categories_nodes":[],"categories_segments":[],"categories_sizes":[],"default_left":[true,false,false],"id":38,"left_children":[1,-1,-1],"loss_changes":[1.5905853E-1,0E0,0E0],"parents":[2147483647,0,0],"right_children":[2,-1,-1],"split_conditions":[-5.4388776E-2,-5.457184E-2,5.6428354E-2],"split_indices":[13585,0,0],"split_type":[0,0,0],"sum_hessian":[2.6477532E0,1.3391783E0,1.3085748E0],"tree_param":{"num_deleted":"0","num_feature":"56280","num_nodes":"3","size_leaf_vector":"0"}},{"base_weights":[2.2097642E-3,1.9518289E-1,-1.6767915E-1],"categories":[],"categories_nodes":[],"categories_segments":[],"categories_sizes":[],"default_left":[true,false,false],"id":39,"left_children":[1,-1,-1],"loss_changes":[1.510163E-1,0E0,0E0],"parents":[2147483647,0,0],"right_children":[2,-1,-1],"split_conditions":[1.7785478E-1,5.855487E-2,-5.0303746E-2],"split_indices":[8049,0,0],"split_type":[0,0,0],"sum_hessian":[2.6081078E0,1.1513871E0,1.4567208E0],"tree_param":{"num_deleted":"0","num_feature":"56280","num_nodes":"3","size_leaf_vector":"0"}},{"base_weights":[3.9077634E-3,1.8202E-1,-1.7606002E-1],"categories":[],"categories_nodes":[],"categories_segments":[],"categories_sizes":[],"default_left":[true,false,false],"id":40,"left_children":[1,-1,-1],"loss_changes":[1.4658949E-1,0E0,0E0],"parents":[2147483647,0,0],"right_children":[2,-1,-1],"split_conditions":[1.5065508E0,5.4606E-2,-5.2818008E-2],"split_indices":[21405,0,0],"split_type":[0,0,0],"sum_hessian":[2.573388E0,1.2876304E0,1.2857577E0],"tree_param":{"num_deleted":"0","num_feature":"56280","num_nodes":"3","size_leaf_vector":"0"}},{"base_weights":[3.2770252E-3,1.9801815E-1,-1.659853E-1],"categories":[],"categories_nodes":[],"categories_segments":[],"categories_sizes":[],"default_left":[true,false,false],"id":41,"left_children":[1,-1,-1],"loss_changes":[1.4942801E-1,0E0,0E0],"parents":[2147483647,0,0],"right_children":[2,-1,-1],"split_conditions":[-4.0625848E-2,5.9405446E-2,-4.9795594E-2],"split_indices":[10779,0,0],"split_type":[0,0,0],"sum_hessian":[2.536154E0,1.100318E0,1.4358362E0],"tree_param":{"num_deleted":"0","num_feature":"56280","num_nodes":"3","size_leaf_vector":"0"}},{"base_weights":[5.1155696E-3,1.8917023E-1,-1.4738896E-1],"categories":[],"categories_nodes":[],"categories_segments":[],"categories_sizes":[],"default_left":[true,false,false],"id":42,"left_children":[1,-1,-1],"loss_changes":[1.260928E-1,0E0,0E0],"parents":[2147483647,0,0],"right_children":[2,-1,-1],"split_conditions":[1.9918527E-2,5.675107E-2,-4.4216692E-2],"split_indices":[12221,0,0],"split_type":[0,0,0],"sum_hessian":[2.4988997E0,1.0233798E0,1.47552E0],"tree_param":{"num_deleted":"0","num_feature":"56280","num_nodes":"3","size_leaf_vector":"0"}},{"base_weights":[7.280924E-3,1.7525344E-1,-1.6567135E-1],"categories":[],"categories_nodes":[],"categories_segments":[],"categories_sizes":[],"default_left":[true,false,false],"id":43,"left_children":[1,-1,-1],"loss_changes":[1.2980999E-1,0E0,0E0],"parents":[2147483647,0,0],"right_children":[2,-1,-1],"split_conditions":[1.5654912E0,5.257603E-2,-4.9701408E-2],"split_indices":[11355,0,0],"split_type":[0,0,0],"sum_hessian":[2.4688904E0,1.2457265E0,1.223164E0],"tree_param":{"num_deleted":"0","num_feature":"56280","num_nodes":"3","size_leaf_vector":"0"}},{"base_weights":[6.0009025E-3,-1.5810804E-1,1.8959221E-1],"categories":[],"categories_nodes":[],"categories_segments":[],"categories_sizes":[],"default_left":[true,false,false],"id":44,"left_children":[1,-1,-1],"loss_changes":[1.3345514E-1,0E0,0E0],"parents":[2147483647,0,0],"right_children":[2,-1,-1],"split_conditions":[5.4702003E-2,-4.7432415E-2,5.6877665E-2],"split_indices":[6409,0,0],"split_type":[0,0,0],"sum_hessian":[2.4345374E0,1.3587658E0,1.0757717E0],"tree_param":{"num_deleted":"0","num_feature":"56280","num_nodes":"3","size_leaf_vector":"0"}},{"base_weights":[7.06232E-3,-1.6426843E-1,1.7592604E-1],"categories":[],"categories_nodes":[],"categories_segments":[],"categories_sizes":[],"default_left":[true,false,false],"id":45,"left_children":[1,-1,-1],"loss_changes":[1.2733468E-1,0E0,0E0],"parents":[2147483647,0,0],"right_children":[2,-1,-1],"split_conditions":[-5.4388776E-2,-4.928053E-2,5.2777816E-2],"split_indices":[13585,0,0],"split_type":[0,0,0],"sum_hessian":[2.4023614E0,1.2059778E0,1.1963836E0],"tree_param":{"num_deleted":"0","num_feature":"56280","num_nodes":"3","size_leaf_vector":"0"}},{"base_weights":[6.0467743E-3,1.6613036E-1,-1.7329536E-1],"categories":[],"categories_nodes":[],"categories_segments":[],"categories_sizes":[],"default_left":[true,false,false],"id":46,"left_children":[1,-1,-1],"loss_changes":[1.255399E-1,0E0,0E0],"parents":[2147483647,0,0],"right_children":[2,-1,-1],"split_conditions":[6.306939E-1,4.9839113E-2,-5.1988613E-2],"split_indices":[12124,0,0],"split_type":[0,0,0],"sum_hessian":[2.3699474E0,1.2911314E0,1.078816E0],"tree_param":{"num_deleted":"0","num_feature":"56280","num_nodes":"3","size_leaf_vector":"0"}},{"base_weights":[3.6178445E-3,1.8161556E-1,-1.5449928E-1],"categories":[],"categories_nodes":[],"categories_segments":[],"categories_sizes":[],"default_left":[true,false,false],"id":47,"left_children":[1,-1,-1],"loss_changes":[1.22041784E-1,0E0,0E0],"parents":[2147483647,0,0],"right_children":[2,-1,-1],"split_conditions":[-5.606918E-2,5.448467E-2,-4.6349786E-2],"split_indices":[5946,0,0],"split_type":[0,0,0],"sum_hessian":[2.3392794E0,1.0305457E0,1.3087338E0],"tree_param":{"num_deleted":"0","num_feature":"56280","num_nodes":"3","size_leaf_vector":"0"}},{"base_weights":[5.0502545E-3,1.5397929E-1,-1.6464233E-1],"categories":[],"categories_nodes":[],"categories_segments":[],"categories_sizes":[],"default_left":[true,false,false],"id":48,"left_children":[1,-1,-1],"loss_changes":[1.0897652E-1,0E0,0E0],"parents":[2147483647,0,0],"right_children":[2,-1,-1],"split_conditions":[1.4270573E0,4.6193786E-2,-4.9392704E-2],"split_indices":[20601,0,0],"split_type":[0,0,0],"sum_hessian":[2.308978E0,1.27904E0,1.0299382E0],"tree_param":{"num_deleted":"0","num_feature":"56280","num_nodes":"3","size_leaf_vector":"0"}},{"base_weights":[2.5745502E-3,1.5775463E-1,-1.6406696E-1],"categories":[],"categories_nodes":[],"categories_segments":[],"categories_sizes":[],"default_left":[true,false,false],"id":49,"left_children":[1,-1,-1],"loss_changes":[1.1073258E-1,0E0,0E0],"parents":[2147483647,0,0],"right_children":[2,-1,-1],"split_conditions":[1.1850628E-1,4.732639E-2,-4.922009E-2],"split_indices":[8042,0,0],"split_type":[0,0,0],"sum_hessian":[2.2812097E0,1.2088408E0,1.0723689E0],"tree_param":{"num_deleted":"0","num_feature":"56280","num_nodes":"3","size_leaf_vector":"0"}},{"base_weights":[1.2244731E-3,-1.5616079E-1,1.582149E-1],"categories":[],"categories_nodes":[],"categories_segments":[],"categories_sizes":[],"default_left":[true,false,false],"id":50,"left_children":[1,-1,-1],"loss_changes":[1.0510435E-1,0E0,0E0],"parents":[2147483647,0,0],"right_children":[2,-1,-1],"split_conditions":[5.023695E-1,-4.6848238E-2,4.746447E-2],"split_indices":[20957,0,0],"split_type":[0,0,0],"sum_hessian":[2.2539039E0,1.1281756E0,1.1257282E0],"tree_param":{"num_deleted":"0","num_feature":"56280","num_nodes":"3","size_leaf_vector":"0"}},{"base_weights":[1.0542145E-3,-1.5588167E-1,1.5777571E-1],"categories":[],"categories_nodes":[],"categories_segments":[],"categories_sizes":[],"default_left":[true,false,false],"id":51,"left_children":[1,-1,-1],"loss_changes":[1.0395945E-1,0E0,0E0],"parents":[2147483647,0,0],"right_children":[2,-1,-1],"split_conditions":[-5.4388776E-2,-4.6764504E-2,4.7332715E-2],"split_indices":[13585,0,0],"split_type":[0,0,0],"sum_hessian":[2.2268496E0,1.1153413E0,1.1115084E0],"tree_param":{"num_deleted":"0","num_feature":"56280","num_nodes":"3","size_leaf_vector":"0"}},{"base_weights":[9.1970526E-4,1.6582593E-1,-1.5673304E-1],"categories":[],"categories_nodes":[],"categories_segments":[],"categories_sizes":[],"default_left":[true,false,false],"id":52,"left_children":[1,-1,-1],"loss_changes":[1.091826E-1,0E0,0E0],"parents":[2147483647,0,0],"right_children":[2,-1,-1],"split_conditions":[-2.2129979E-2,4.9747784E-2,-4.7019914E-2],"split_indices":[7572,0,0],"split_type":[0,0,0],"sum_hessian":[2.1999562E0,1.0499039E0,1.1500523E0],"tree_param":{"num_deleted":"0","num_feature":"56280","num_nodes":"3","size_leaf_vector":"0"}},{"base_weights":[1.5165355E-3,1.5028645E-1,-1.5270601E-1],"categories":[],"categories_nodes":[],"categories_segments":[],"categories_sizes":[],"default_left":[true,false,false],"id":53,"left_children":[1,-1,-1],"loss_changes":[9.576213E-2,0E0,0E0],"parents":[2147483647,0,0],"right_children":[2,-1,-1],"split_conditions":[8.428149E-1,4.5085937E-2,-4.5811806E-2],"split_indices":[9733,0,0],"split_type":[0,0,0],"sum_hessian":[2.1735322E0,1.1193143E0,1.0542179E0],"tree_param":{"num_deleted":"0","num_feature":"56280","num_nodes":"3","size_leaf_vector":"0"}},{"base_weights":[8.326587E-4,1.4996926E-1,-1.5402777E-1],"categories":[],"categories_nodes":[],"categories_segments":[],"categories_sizes":[],"default_left":[true,false,false],"id":54,"left_children":[1,-1,-1],"loss_changes":[9.5864765E-2,0E0,0E0],"parents":[2147483647,0,0],"right_children":[2,-1,-1],"split_conditions":[7.2816736E-1,4.499078E-2,-4.6208333E-2],"split_indices":[14546,0,0],"split_type":[0,0,0],"sum_hessian":[2.150647E0,1.1116599E0,1.038987E0],"tree_param":{"num_deleted":"0","num_feature":"56280","num_nodes":"3","size_leaf_vector":"0"}},{"base_weights":[1.8903133E-4,1.5215896E-1,-1.540916E-1],"categories":[],"categories_nodes":[],"categories_segments":[],"categories_sizes":[],"default_left":[true,false,false],"id":55,"left_children":[1,-1,-1],"loss_changes":[9.677732E-2,0E0,0E0],"parents":[2147483647,0,0],"right_children":[2,-1,-1],"split_conditions":[1.5654912E0,4.564769E-2,-4.622748E-2],"split_indices":[11355,0,0],"split_type":[0,0,0],"sum_hessian":[2.1276486E0,1.0787789E0,1.0488697E0],"tree_param":{"num_deleted":"0","num_feature":"56280","num_nodes":"3","size_leaf_vector":"0"}},{"base_weights":[-6.0691335E-5,-1.5347046E-1,1.5463755E-1],"categories":[],"categories_nodes":[],"categories_segments":[],"categories_sizes":[],"default_left":[true,false,false],"id":56,"left_children":[1,-1,-1],"loss_changes":[9.734599E-2,0E0,0E0],"parents":[2147483647,0,0],"right_children":[2,-1,-1],"split_conditions":[-5.4388776E-2,-4.604114E-2,4.6391264E-2],"split_indices":[13585,0,0],"split_type":[0,0,0],"sum_hessian":[2.1018467E0,1.059303E0,1.0425436E0],"tree_param":{"num_deleted":"0","num_feature":"56280","num_nodes":"3","size_leaf_vector":"0"}},{"base_weights":[6.744112E-5,-1.4244792E-1,1.4609112E-1],"categories":[],"categories_nodes":[],"categories_segments":[],"categories_sizes":[],"default_left":[true,false,false],"id":57,"left_children":[1,-1,-1],"loss_changes":[8.4839046E-2,0E0,0E0],"parents":[2147483647,0,0],"right_children":[2,-1,-1],"split_conditions":[-1.3902041E-1,-4.2734377E-2,4.3827336E-2],"split_indices":[11356,0,0],"split_type":[0,0,0],"sum_hessian":[2.0767312E0,1.0633836E0,1.0133475E0],"tree_param":{"num_deleted":"0","num_feature":"56280","num_nodes":"3","size_leaf_vector":"0"}},{"base_weights":[4.053938E-4,1.4925604E-1,-1.484925E-1],"categories":[],"categories_nodes":[],"categories_segments":[],"categories_sizes":[],"default_left":[true,false,false],"id":58,"left_children":[1,-1,-1],"loss_changes":[8.986946E-2,0E0,0E0],"parents":[2147483647,0,0],"right_children":[2,-1,-1],"split_conditions":[1.5065508E0,4.4776812E-2,-4.454775E-2],"split_indices":[21405,0,0],"split_type":[0,0,0],"sum_hessian":[2.054839E0,1.0263796E0,1.0284592E0],"tree_param":{"num_deleted":"0","num_feature":"56280","num_nodes":"3","size_leaf_vector":"0"}},{"base_weights":[3.581942E-4,1.437383E-1,-1.4277458E-1],"categories":[],"categories_nodes":[],"categories_segments":[],"categories_sizes":[],"default_left":[true,false,false],"id":59,"left_children":[1,-1,-1],"loss_changes":[8.273421E-2,0E0,0E0],"parents":[2147483647,0,0],"right_children":[2,-1,-1],"split_conditions":[2.8579205E-2,4.312149E-2,-4.2832375E-2],"split_indices":[166,0,0],"split_type":[0,0,0],"sum_hessian":[2.0314221E0,1.012721E0,1.0187013E0],"tree_param":{"num_deleted":"0","num_feature":"56280","num_nodes":"3","size_leaf_vector":"0"}},{"base_weights":[3.4605467E-4,1.3689938E-1,-1.3596115E-1],"categories":[],"categories_nodes":[],"categories_segments":[],"categories_sizes":[],"default_left":[true,false,false],"id":60,"left_children":[1,-1,-1],"loss_changes":[7.466722E-2,0E0,0E0],"parents":[2147483647,0,0],"right_children":[2,-1,-1],"split_conditions":[8.5218483E-1,4.1069817E-2,-4.0788345E-2],"split_indices":[9734,0,0],"split_type":[0,0,0],"sum_hessian":[2.0115302E0,1.0026876E0,1.0088426E0],"tree_param":{"num_deleted":"0","num_feature":"56280","num_nodes":"3","size_leaf_vector":"0"}},{"base_weights":[3.360621E-4],"categories":[],"categories_nodes":[],"categories_segments":[],"categories_sizes":[],"default_left":[false],"id":61,"left_children":[-1],"loss_changes":[0E0],"parents":[2147483647],"right_children":[-1],"split_conditions":[1.0081864E-4],"split_indices":[0],"split_type":[0],"sum_hessian":[1.9936682E0],"tree_param":{"num_deleted":"0","num_feature":"56280","num_nodes":"1","size_leaf_vector":"0"}},{"base_weights":[2.6879142E-4],"categories":[],"categories_nodes":[],"categories_segments":[],"categories_sizes":[],"default_left":[false],"id":62,"left_children":[-1],"loss_changes":[0E0],"parents":[2147483647],"right_children":[-1],"split_conditions":[8.063743E-5],"split_indices":[0],"split_type":[0],"sum_hessian":[1.9936688E0],"tree_param":{"num_deleted":"0","num_feature":"56280","num_nodes":"1","size_leaf_vector":"0"}},{"base_weights":[2.1525644E-4],"categories":[],"categories_nodes":[],"categories_segments":[],"categories_sizes":[],"default_left":[false],"id":63,"left_children":[-1],"loss_changes":[0E0],"parents":[2147483647],"right_children":[-1],"split_conditions":[6.457693E-5],"split_indices":[0],"split_type":[0],"sum_hessian":[1.99367E0],"tree_param":{"num_deleted":"0","num_feature":"56280","num_nodes":"1","size_leaf_vector":"0"}},{"base_weights":[1.7228765E-4],"categories":[],"categories_nodes":[],"categories_segments":[],"categories_sizes":[],"default_left":[false],"id":64,"left_children":[-1],"loss_changes":[0E0],"parents":[2147483647],"right_children":[-1],"split_conditions":[5.1686297E-5],"split_indices":[0],"split_type":[0],"sum_hessian":[1.9936707E0],"tree_param":{"num_deleted":"0","num_feature":"56280","num_nodes":"1","size_leaf_vector":"0"}},{"base_weights":[1.3785322E-4],"categories":[],"categories_nodes":[],"categories_segments":[],"categories_sizes":[],"default_left":[false],"id":65,"left_children":[-1],"loss_changes":[0E0],"parents":[2147483647],"right_children":[-1],"split_conditions":[4.135597E-5],"split_indices":[0],"split_type":[0],"sum_hessian":[1.9936712E0],"tree_param":{"num_deleted":"0","num_feature":"56280","num_nodes":"1","size_leaf_vector":"0"}},{"base_weights":[1.1037056E-4],"categories":[],"categories_nodes":[],"categories_segments":[],"categories_sizes":[],"default_left":[false],"id":66,"left_children":[-1],"loss_changes":[0E0],"parents":[2147483647],"right_children":[-1],"split_conditions":[3.311117E-5],"split_indices":[0],"split_type":[0],"sum_hessian":[1.9936718E0],"tree_param":{"num_deleted":"0","num_feature":"56280","num_nodes":"1","size_leaf_vector":"0"}},{"base_weights":[8.8190114E-5],"categories":[],"categories_nodes":[],"categories_segments":[],"categories_sizes":[],"default_left":[false],"id":67,"left_children":[-1],"loss_changes":[0E0],"parents":[2147483647],"right_children":[-1],"split_conditions":[2.6457035E-5],"split_indices":[0],"split_type":[0],"sum_hessian":[1.9936717E0],"tree_param":{"num_deleted":"0","num_feature":"56280","num_nodes":"1","size_leaf_vector":"0"}},{"base_weights":[7.077084E-5],"categories":[],"categories_nodes":[],"categories_segments":[],"categories_sizes":[],"default_left":[false],"id":68,"left_children":[-1],"loss_changes":[0E0],"parents":[2147483647],"right_children":[-1],"split_conditions":[2.1231252E-5],"split_indices":[0],"split_type":[0],"sum_hessian":[1.9936724E0],"tree_param":{"num_deleted":"0","num_feature":"56280","num_nodes":"1","size_leaf_vector":"0"}},{"base_weights":[5.633688E-5],"categories":[],"categories_nodes":[],"categories_segments":[],"categories_sizes":[],"default_left":[false],"id":69,"left_children":[-1],"loss_changes":[0E0],"parents":[2147483647],"right_children":[-1],"split_conditions":[1.6901065E-5],"split_indices":[0],"split_type":[0],"sum_hessian":[1.9936719E0],"tree_param":{"num_deleted":"0","num_feature":"56280","num_nodes":"1","size_leaf_vector":"0"}},{"base_weights":[4.528126E-5],"categories":[],"categories_nodes":[],"categories_segments":[],"categories_sizes":[],"default_left":[false],"id":70,"left_children":[-1],"loss_changes":[0E0],"parents":[2147483647],"right_children":[-1],"split_conditions":[1.3584378E-5],"split_indices":[0],"split_type":[0],"sum_hessian":[1.9936725E0],"tree_param":{"num_deleted":"0","num_feature":"56280","num_nodes":"1","size_leaf_vector":"0"}},{"base_weights":[3.625509E-5],"categories":[],"categories_nodes":[],"categories_segments":[],"categories_sizes":[],"default_left":[false],"id":71,"left_children":[-1],"loss_changes":[0E0],"parents":[2147483647],"right_children":[-1],"split_conditions":[1.0876527E-5],"split_indices":[0],"split_type":[0],"sum_hessian":[1.9936726E0],"tree_param":{"num_deleted":"0","num_feature":"56280","num_nodes":"1","size_leaf_vector":"0"}},{"base_weights":[2.8894225E-5],"categories":[],"categories_nodes":[],"categories_segments":[],"categories_sizes":[],"default_left":[false],"id":72,"left_children":[-1],"loss_changes":[0E0],"parents":[2147483647],"right_children":[-1],"split_conditions":[8.668268E-6],"split_indices":[0],"split_type":[0],"sum_hessian":[1.9936725E0],"tree_param":{"num_deleted":"0","num_feature":"56280","num_nodes":"1","size_leaf_vector":"0"}},{"base_weights":[2.318186E-5],"categories":[],"categories_nodes":[],"categories_segments":[],"categories_sizes":[],"default_left":[false],"id":73,"left_children":[-1],"loss_changes":[0E0],"parents":[2147483647],"right_children":[-1],"split_conditions":[6.954558E-6],"split_indices":[0],"split_type":[0],"sum_hessian":[1.9936726E0],"tree_param":{"num_deleted":"0","num_feature":"56280","num_nodes":"1","size_leaf_vector":"0"}},{"base_weights":[1.8517427E-5],"categories":[],"categories_nodes":[],"categories_segments":[],"categories_sizes":[],"default_left":[false],"id":74,"left_children":[-1],"loss_changes":[0E0],"parents":[2147483647],"right_children":[-1],"split_conditions":[5.555228E-6],"split_indices":[0],"split_type":[0],"sum_hessian":[1.9936727E0],"tree_param":{"num_deleted":"0","num_feature":"56280","num_nodes":"1","size_leaf_vector":"0"}},{"base_weights":[1.50144715E-5],"categories":[],"categories_nodes":[],"categories_segments":[],"categories_sizes":[],"default_left":[false],"id":75,"left_children":[-1],"loss_changes":[0E0],"parents":[2147483647],"right_children":[-1],"split_conditions":[4.5043416E-6],"split_indices":[0],"split_type":[0],"sum_hessian":[1.9936733E0],"tree_param":{"num_deleted":"0","num_feature":"56280","num_nodes":"1","size_leaf_vector":"0"}},{"base_weights":[1.1778444E-5],"categories":[],"categories_nodes":[],"categories_segments":[],"categories_sizes":[],"default_left":[false],"id":76,"left_children":[-1],"loss_changes":[0E0],"parents":[2147483647],"right_children":[-1],"split_conditions":[3.5335333E-6],"split_indices":[0],"split_type":[0],"sum_hessian":[1.9936726E0],"tree_param":{"num_deleted":"0","num_feature":"56280","num_nodes":"1","size_leaf_vector":"0"}},{"base_weights":[9.475392E-6],"categories":[],"categories_nodes":[],"categories_segments":[],"categories_sizes":[],"default_left":[false],"id":77,"left_children":[-1],"loss_changes":[0E0],"parents":[2147483647],"right_children":[-1],"split_conditions":[2.8426177E-6],"split_indices":[0],"split_type":[0],"sum_hessian":[1.9936727E0],"tree_param":{"num_deleted":"0","num_feature":"56280","num_nodes":"1","size_leaf_vector":"0"}},{"base_weights":[7.702605E-6],"categories":[],"categories_nodes":[],"categories_segments":[],"categories_sizes":[],"default_left":[false],"id":78,"left_children":[-1],"loss_changes":[0E0],"parents":[2147483647],"right_children":[-1],"split_conditions":[2.3107816E-6],"split_indices":[0],"split_type":[0],"sum_hessian":[1.9936731E0],"tree_param":{"num_deleted":"0","num_feature":"56280","num_nodes":"1","size_leaf_vector":"0"}},{"base_weights":[6.1741853E-6],"categories":[],"categories_nodes":[],"categories_segments":[],"categories_sizes":[],"default_left":[false],"id":79,"left_children":[-1],"loss_changes":[0E0],"parents":[2147483647],"right_children":[-1],"split_conditions":[1.8522557E-6],"split_indices":[0],"split_type":[0],"sum_hessian":[1.9936733E0],"tree_param":{"num_deleted":"0","num_feature":"56280","num_nodes":"1","size_leaf_vector":"0"}},{"base_weights":[4.859023E-6],"categories":[],"categories_nodes":[],"categories_segments":[],"categories_sizes":[],"default_left":[false],"id":80,"left_children":[-1],"loss_changes":[0E0],"parents":[2147483647],"right_children":[-1],"split_conditions":[1.4577071E-6],"split_indices":[0],"split_type":[0],"sum_hessian":[1.9936732E0],"tree_param":{"num_deleted":"0","num_feature":"56280","num_nodes":"1","size_leaf_vector":"0"}},{"base_weights":[3.8619573E-6],"categories":[],"categories_nodes":[],"categories_segments":[],"categories_sizes":[],"default_left":[false],"id":81,"left_children":[-1],"loss_changes":[0E0],"parents":[2147483647],"right_children":[-1],"split_conditions":[1.1585872E-6],"split_indices":[0],"split_type":[0],"sum_hessian":[1.9936731E0],"tree_param":{"num_deleted":"0","num_feature":"56280","num_nodes":"1","size_leaf_vector":"0"}},{"base_weights":[3.064305E-6],"categories":[],"categories_nodes":[],"categories_segments":[],"categories_sizes":[],"default_left":[false],"id":82,"left_children":[-1],"loss_changes":[0E0],"parents":[2147483647],"right_children":[-1],"split_conditions":[9.1929155E-7],"split_indices":[0],"split_type":[0],"sum_hessian":[1.993673E0],"tree_param":{"num_deleted":"0","num_feature":"56280","num_nodes":"1","size_leaf_vector":"0"}},{"base_weights":[2.4554884E-6],"categories":[],"categories_nodes":[],"categories_segments":[],"categories_sizes":[],"default_left":[false],"id":83,"left_children":[-1],"loss_changes":[0E0],"parents":[2147483647],"right_children":[-1],"split_conditions":[7.3664654E-7],"split_indices":[0],"split_type":[0],"sum_hessian":[1.9936731E0],"tree_param":{"num_deleted":"0","num_feature":"56280","num_nodes":"1","size_leaf_vector":"0"}},{"base_weights":[2.0135749E-6],"categories":[],"categories_nodes":[],"categories_segments":[],"categories_sizes":[],"default_left":[false],"id":84,"left_children":[-1],"loss_changes":[0E0],"parents":[2147483647],"right_children":[-1],"split_conditions":[6.040725E-7],"split_indices":[0],"split_type":[0],"sum_hessian":[1.9936733E0],"tree_param":{"num_deleted":"0","num_feature":"56280","num_nodes":"1","size_leaf_vector":"0"}},{"base_weights":[1.6024603E-6],"categories":[],"categories_nodes":[],"categories_segments":[],"categories_sizes":[],"default_left":[false],"id":85,"left_children":[-1],"loss_changes":[0E0],"parents":[2147483647],"right_children":[-1],"split_conditions":[4.807381E-7],"split_indices":[0],"split_type":[0],"sum_hessian":[1.9936733E0],"tree_param":{"num_deleted":"0","num_feature":"56280","num_nodes":"1","size_leaf_vector":"0"}},{"base_weights":[1.1241489E-6],"categories":[],"categories_nodes":[],"categories_segments":[],"categories_sizes":[],"default_left":[false],"id":86,"left_children":[-1],"loss_changes":[0E0],"parents":[2147483647],"right_children":[-1],"split_conditions":[3.3724467E-7],"split_indices":[0],"split_type":[0],"sum_hessian":[1.9936728E0],"tree_param":{"num_deleted":"0","num_feature":"56280","num_nodes":"1","size_leaf_vector":"0"}},{"base_weights":[9.748223E-7],"categories":[],"categories_nodes":[],"categories_segments":[],"categories_sizes":[],"default_left":[false],"id":87,"left_children":[-1],"loss_changes":[0E0],"parents":[2147483647],"right_children":[-1],"split_conditions":[2.924467E-7],"split_indices":[0],"split_type":[0],"sum_hessian":[1.9936731E0],"tree_param":{"num_deleted":"0","num_feature":"56280","num_nodes":"1","size_leaf_vector":"0"}},{"base_weights":[7.135009E-7],"categories":[],"categories_nodes":[],"categories_segments":[],"categories_sizes":[],"default_left":[false],"id":88,"left_children":[-1],"loss_changes":[0E0],"parents":[2147483647],"right_children":[-1],"split_conditions":[2.1405029E-7],"split_indices":[0],"split_type":[0],"sum_hessian":[1.993673E0],"tree_param":{"num_deleted":"0","num_feature":"56280","num_nodes":"1","size_leaf_vector":"0"}},{"base_weights":[6.556368E-7],"categories":[],"categories_nodes":[],"categories_segments":[],"categories_sizes":[],"default_left":[false],"id":89,"left_children":[-1],"loss_changes":[0E0],"parents":[2147483647],"right_children":[-1],"split_conditions":[1.9669106E-7],"split_indices":[0],"split_type":[0],"sum_hessian":[1.9936731E0],"tree_param":{"num_deleted":"0","num_feature":"56280","num_nodes":"1","size_leaf_vector":"0"}},{"base_weights":[4.8577795E-7],"categories":[],"categories_nodes":[],"categories_segments":[],"categories_sizes":[],"default_left":[false],"id":90,"left_children":[-1],"loss_changes":[0E0],"parents":[2147483647],"right_children":[-1],"split_conditions":[1.457334E-7],"split_indices":[0],"split_type":[0],"sum_hessian":[1.9936728E0],"tree_param":{"num_deleted":"0","num_feature":"56280","num_nodes":"1","size_leaf_vector":"0"}},{"base_weights":[4.266695E-7],"categories":[],"categories_nodes":[],"categories_segments":[],"categories_sizes":[],"default_left":[false],"id":91,"left_children":[-1],"loss_changes":[0E0],"parents":[2147483647],"right_children":[-1],"split_conditions":[1.2800085E-7],"split_indices":[0],"split_type":[0],"sum_hessian":[1.9936731E0],"tree_param":{"num_deleted":"0","num_feature":"56280","num_nodes":"1","size_leaf_vector":"0"}},{"base_weights":[3.5636154E-7],"categories":[],"categories_nodes":[],"categories_segments":[],"categories_sizes":[],"default_left":[false],"id":92,"left_children":[-1],"loss_changes":[0E0],"parents":[2147483647],"right_children":[-1],"split_conditions":[1.06908466E-7],"split_indices":[0],"split_type":[0],"sum_hessian":[1.9936732E0],"tree_param":{"num_deleted":"0","num_feature":"56280","num_nodes":"1","size_leaf_vector":"0"}},{"base_weights":[3.5636154E-7],"categories":[],"categories_nodes":[],"categories_segments":[],"categories_sizes":[],"default_left":[false],"id":93,"left_children":[-1],"loss_changes":[0E0],"parents":[2147483647],"right_children":[-1],"split_conditions":[1.06908466E-7],"split_indices":[0],"split_type":[0],"sum_hessian":[1.9936732E0],"tree_param":{"num_deleted":"0","num_feature":"56280","num_nodes":"1","size_leaf_vector":"0"}},{"base_weights":[3.5636154E-7],"categories":[],"categories_nodes":[],"categories_segments":[],"categories_sizes":[],"default_left":[false],"id":94,"left_children":[-1],"loss_changes":[0E0],"parents":[2147483647],"right_children":[-1],"split_conditions":[1.06908466E-7],"split_indices":[0],"split_type":[0],"sum_hessian":[1.9936732E0],"tree_param":{"num_deleted":"0","num_feature":"56280","num_nodes":"1","size_leaf_vector":"0"}},{"base_weights":[3.5636154E-7],"categories":[],"categories_nodes":[],"categories_segments":[],"categories_sizes":[],"default_left":[false],"id":95,"left_children":[-1],"loss_changes":[0E0],"parents":[2147483647],"right_children":[-1],"split_conditions":[1.06908466E-7],"split_indices":[0],"split_type":[0],"sum_hessian":[1.9936732E0],"tree_param":{"num_deleted":"0","num_feature":"56280","num_nodes":"1","size_leaf_vector":"0"}},{"base_weights":[3.5636154E-7],"categories":[],"categories_nodes":[],"categories_segments":[],"categories_sizes":[],"default_left":[false],"id":96,"left_children":[-1],"loss_changes":[0E0],"parents":[2147483647],"right_children":[-1],"split_conditions":[1.06908466E-7],"split_indices":[0],"split_type":[0],"sum_hessian":[1.9936732E0],"tree_param":{"num_deleted":"0","num_feature":"56280","num_nodes":"1","size_leaf_vector":"0"}},{"base_weights":[3.5636154E-7],"categories":[],"categories_nodes":[],"categories_segments":[],"categories_sizes":[],"default_left":[false],"id":97,"left_children":[-1],"loss_changes":[0E0],"parents":[2147483647],"right_children":[-1],"split_conditions":[1.06908466E-7],"split_indices":[0],"split_type":[0],"sum_hessian":[1.9936732E0],"tree_param":{"num_deleted":"0","num_feature":"56280","num_nodes":"1","size_leaf_vector":"0"}},{"base_weights":[3.5636154E-7],"categories":[],"categories_nodes":[],"categories_segments":[],"categories_sizes":[],"default_left":[false],"id":98,"left_children":[-1],"loss_changes":[0E0],"parents":[2147483647],"right_children":[-1],"split_conditions":[1.06908466E-7],"split_indices":[0],"split_type":[0],"sum_hessian":[1.9936732E0],"tree_param":{"num_deleted":"0","num_feature":"56280","num_nodes":"1","size_leaf_vector":"0"}},{"base_weights":[3.5636154E-7],"categories":[],"categories_nodes":[],"categories_segments":[],"categories_sizes":[],"default_left":[false],"id":99,"left_children":[-1],"loss_changes":[0E0],"parents":[2147483647],"right_children":[-1],"split_conditions":[1.06908466E-7],"split_indices":[0],"split_type":[0],"sum_hessian":[1.9936732E0],"tree_param":{"num_deleted":"0","num_feature":"56280","num_nodes":"1","size_leaf_vector":"0"}}]},"name":"gbtree"},"learner_model_param":{"base_score":"5E-1","num_class":"0","num_feature":"56280"},"objective":{"name":"binary:logistic","reg_loss_param":{"scale_pos_weight":"1"}}},"version":[1,5,0]}